//Numpy array shape (120,)
//Min -0.017084795982
//Max 0.027247494087
//Number of zeros 1

bias_default_t b5[120] = {0.002129941946, 0.014978172258, -0.006278889254, 0.012055700645, 0.004950508941, 0.008463584818, 0.005109217018, 0.008669611067, 0.009869261645, -0.001540449448, -0.003875383642, 0.004327202216, 0.008553729393, 0.002842107788, 0.007129009813, -0.005746542010, 0.009591139853, 0.003508433234, 0.015715025365, -0.008407475427, -0.004645430949, -0.005892114248, -0.002435673960, 0.001460791565, -0.004884485155, 0.018249399960, 0.004336188547, 0.001154844649, 0.006552242208, 0.003855414689, 0.004915708676, 0.007599376142, 0.003766875481, 0.009125440381, 0.002157846233, -0.000491719053, 0.001864072634, 0.005513215438, -0.000172397296, -0.009210367687, -0.003248292720, 0.008543099277, -0.000896773476, 0.016052788123, -0.003416507272, 0.009042361751, 0.004948830232, 0.000057387457, 0.000010711432, 0.000072864641, 0.014819042757, -0.007440508809, 0.001974473009, -0.011442536488, -0.004592308309, -0.003487683833, 0.009278359823, 0.014111988246, 0.008857575245, -0.000958994264, 0.004378557205, -0.001027046470, -0.005921232514, -0.004332777113, 0.006337995641, 0.019283084199, -0.011929872446, 0.009200723842, 0.005952074192, -0.005331872031, -0.000077804783, -0.000032285112, 0.008147683926, 0.003204901936, -0.008776448667, 0.009536638856, -0.003781677224, 0.002572666854, 0.002910262672, 0.004550151527, 0.000000000000, 0.005779505707, -0.011746446602, -0.002543036360, -0.007820582949, 0.020421206951, 0.016286607832, 0.019476728514, 0.022557787597, 0.010943647474, 0.015445242636, 0.000515332562, -0.002123136306, 0.002506222110, 0.000975515984, 0.017037799582, 0.020452525467, -0.002362684114, 0.011823656037, -0.002903809538, 0.008910827339, 0.027247494087, 0.017192043364, 0.001654788270, 0.000524862844, -0.008804845624, 0.001934481785, 0.004535193555, 0.014310166240, -0.010211734101, -0.004337082151, 0.003910770174, 0.014230438508, -0.001046525664, 0.007291801274, -0.017084795982, 0.000457517570, 0.006877141073, -0.001176145161, -0.007014807314};
