//Numpy array shape (84,)
//Min -0.014884927310
//Max 0.028087658808
//Number of zeros 0

bias_default_t b6[84] = {0.025397345424, 0.010164649226, 0.002858150518, 0.006841638591, -0.010022838600, 0.004818223882, -0.000337016711, -0.007730768528, -0.003319047391, -0.000274070422, -0.001373083331, -0.002461452503, -0.000588142080, 0.006727947388, 0.021845277399, -0.014884927310, 0.000719433359, 0.001153089106, 0.022098308429, -0.003706002142, 0.009193072096, -0.004950696602, 0.000699403987, 0.011297564022, 0.018928945065, -0.010201556608, 0.020127309486, -0.005500970408, -0.004619006999, 0.000900408486, -0.006837226916, -0.005756496452, 0.018674209714, -0.011394833215, 0.010084577836, -0.005723669659, 0.000698321965, 0.011146188714, -0.007174415048, -0.008860895410, 0.014040973037, -0.010686239228, -0.011887860484, -0.011911652982, 0.006605505478, -0.005960317329, 0.001215036376, 0.007177854888, 0.004401536658, -0.014381435700, 0.006453891285, -0.009183559567, 0.000011345954, 0.003527268535, 0.005128937773, 0.001222467516, 0.002371494193, 0.013690032065, 0.021594531834, 0.008385002613, -0.002781176707, 0.022920368239, -0.011938503943, -0.008479207754, -0.010388950817, 0.001250496833, 0.001510167145, 0.008089257404, -0.010098687373, -0.002566234209, 0.004819793161, 0.013835960999, 0.008103812113, -0.000493076688, 0.023322422057, -0.001481180312, -0.003866915125, 0.028087658808, 0.005576010793, -0.004945032299, -0.002318480518, -0.001516647870, 0.008084040135, 0.004853928462};
