//Numpy array shape (5, 5, 1, 6)
//Min -0.363156616688
//Max 0.476290673018
//Number of zeros 0

weight_default_t w1[150] = {-0.195318058133, -0.018314694986, 0.067896276712, 0.245516389608, -0.140741378069, -0.060679648072, -0.224271565676, -0.363156616688, 0.178439244628, 0.247238099575, 0.056980978698, -0.198100000620, 0.001179454150, -0.273384392262, 0.157730102539, 0.476290673018, 0.244244158268, -0.126223579049, 0.074587918818, -0.187310159206, 0.028724424541, 0.370658308268, 0.139994695783, 0.002507772995, 0.044894270599, -0.315517097712, 0.196591496468, 0.204871803522, 0.275812447071, 0.265672326088, 0.151723325253, -0.226084887981, 0.080472618341, 0.028552107513, -0.135271355510, -0.262033462524, 0.061675406992, -0.323235601187, 0.193066194654, -0.038628164679, -0.059002887458, -0.135247737169, 0.270601630211, -0.148097708821, 0.312772035599, 0.097648635507, 0.219683334231, -0.139715209603, 0.076498821378, -0.144670352340, 0.295871168375, 0.198719769716, 0.107728272676, -0.026400130242, 0.309964537621, -0.126692369580, 0.091951079667, 0.379755735397, 0.035621207207, 0.259336322546, -0.064348563552, 0.289297938347, 0.046405047178, -0.173841059208, -0.038316916674, 0.029462352395, 0.256993085146, 0.249917283654, 0.122574344277, 0.010328195989, 0.208659604192, -0.042289841920, 0.300002694130, 0.023126248270, 0.013348367065, -0.236771464348, 0.255949974060, -0.176713496447, 0.244748979807, 0.127193003893, 0.000933415024, -0.021567888558, 0.283325076103, 0.119601890445, 0.312762320042, 0.058838821948, 0.209967300296, 0.025011574849, 0.107603356242, 0.159615397453, 0.256109297276, 0.265349209309, -0.211753100157, -0.308091402054, 0.199354916811, -0.160003155470, 0.204218685627, 0.248512268066, -0.217614367604, -0.259867966175, 0.011849675328, -0.157045379281, 0.349489539862, 0.017013747245, 0.025409318507, -0.319228380919, 0.056283891201, -0.132329985499, 0.192789167166, 0.112799219787, 0.015813298523, -0.324290692806, 0.165856912732, 0.096379682422, 0.180102735758, 0.161130294204, 0.078576155007, -0.232049509883, 0.282224744558, 0.300478786230, 0.164119035006, 0.048049625009, -0.283257365227, -0.210362195969, 0.179462969303, -0.219206273556, 0.278859823942, 0.269613474607, -0.195105567575, -0.184494912624, -0.046738311648, -0.119986668229, 0.279369622469, 0.114289365709, -0.069436788559, -0.219011738896, 0.053218167275, -0.088312484324, 0.045091293752, 0.186997517943, -0.184205651283, -0.079019129276, 0.246500402689, 0.124579682946, 0.176345869899, 0.135893478990, 0.127673849463, -0.180856376886, 0.276738584042, 0.250487297773};
