//Numpy array shape (5, 5, 6, 16)
//Min -0.251794308424
//Max 0.379583656788
//Number of zeros 0

weight_default_t w3[2400] = {-0.105064973235, 0.084732979536, -0.064868494868, -0.073030024767, -0.107223019004, -0.103011436760, -0.014577708207, 0.050476983190, -0.109677761793, -0.153853535652, -0.104388505220, 0.124094434083, -0.044887948781, -0.058591060340, 0.130055144429, -0.054726712406, -0.130071356893, 0.085556782782, 0.094370745122, -0.143976241350, 0.041457481682, 0.006312744692, -0.078709803522, 0.058683548123, -0.063483506441, -0.043863710016, 0.057090673596, 0.048518061638, 0.066428579390, 0.153390854597, -0.195928379893, 0.047863788903, -0.037305660546, -0.049195799977, -0.092118039727, -0.044045630842, -0.134257853031, -0.064280062914, 0.104784205556, 0.075623311102, -0.135753557086, -0.012359041721, 0.080410331488, 0.058006372303, 0.037394464016, -0.002077083103, 0.067387484014, -0.016736920923, -0.084901109338, 0.011357025243, 0.035381164402, -0.020848024637, 0.018231131136, 0.050749756396, 0.122047372162, 0.010167231783, 0.084971867502, -0.084387928247, 0.110558643937, 0.070768989623, -0.044963642955, -0.033326793462, -0.030862171203, -0.066157944500, 0.050565026700, -0.121062330902, -0.033135548234, -0.020978126675, -0.052304144949, -0.119735881686, 0.020243313164, 0.044087193906, 0.046326823533, 0.031119501218, 0.061607718468, 0.053340572864, 0.006209617015, -0.034227602184, 0.153127491474, 0.055249556899, 0.122506521642, 0.057680130005, -0.091851435602, 0.153878822923, 0.066715702415, -0.023833768442, -0.082034632564, 0.063675418496, -0.101738564670, -0.107136555016, -0.043536186218, -0.076405026019, -0.017668399960, -0.062932118773, 0.065397694707, 0.182734221220, 0.021210772917, 0.057570740581, 0.009852906689, 0.144939839840, -0.104137212038, -0.009977127425, -0.086947686970, 0.155966326594, -0.093217723072, -0.160987019539, 0.022807875648, 0.071661166847, 0.004465209320, -0.034383654594, -0.002549548168, 0.138066008687, -0.047094698995, -0.027004841715, -0.075283348560, -0.038989044726, 0.065457612276, -0.081383533776, 0.075366199017, 0.166339322925, -0.147681638598, -0.042614903301, -0.021185055375, 0.099944278598, -0.050066482276, 0.064356669784, -0.104350090027, 0.064518816769, -0.001329170074, -0.063154742122, -0.092623293400, 0.116492480040, -0.083474405110, -0.129613488913, -0.096842296422, 0.004252230283, -0.093539535999, -0.120447270572, -0.038465090096, 0.034877754748, -0.033081855625, -0.040400885046, -0.061499070376, 0.133806437254, -0.080677583814, 0.005180419888, -0.002702166094, -0.079086907208, 0.098574317992, -0.126209810376, -0.061656959355, 0.061860091984, -0.111664950848, 0.015392067842, -0.101614505053, 0.029066517949, 0.147659331560, 0.141961053014, -0.086951084435, -0.003640613984, 0.015264504589, -0.106867089868, -0.107332892716, 0.098544761539, 0.043380841613, -0.123730473220, -0.089761890471, 0.084938906133, -0.111224435270, -0.107331618667, 0.015228699893, 0.112850934267, 0.100301042199, -0.139706999063, 0.011301739141, -0.004894281738, 0.124051392078, -0.032794523984, -0.142332136631, 0.193136319518, -0.042017787695, -0.056340124458, -0.073603168130, 0.075936160982, -0.055384960026, 0.013750990853, 0.136338204145, 0.097525462508, -0.011616747826, -0.096353307366, -0.058210637420, 0.099903114140, 0.096938595176, -0.104361198843, -0.160643413663, 0.146319836378, -0.080830544233, 0.095000065863, -0.085269220173, 0.054365012795, -0.085010521114, 0.021033613011, -0.001847077860, 0.075941778719, 0.141364008188, 0.007416753564, -0.082754351199, 0.160764500499, -0.032663445920, 0.046141263098, -0.032532516867, -0.141461223364, 0.121602550149, 0.062259424478, -0.083153367043, 0.059310782701, -0.053636524826, 0.046305716038, 0.044431034476, 0.047441311181, -0.011477841064, 0.098612673581, -0.013794603758, -0.027857335284, 0.031837914139, -0.038744404912, -0.024828309193, -0.056963566691, -0.112544722855, 0.062683410943, -0.114235192537, -0.053330678493, -0.052602186799, -0.114216938615, 0.112067580223, 0.059396408498, 0.113979764283, -0.041296318173, -0.096950903535, 0.107108369470, 0.018058037385, -0.083912633359, 0.090454451740, -0.179075017571, -0.071675762534, 0.011485932395, 0.000666692271, -0.091686069965, -0.117753535509, -0.035844650120, -0.003995421808, 0.091035924852, 0.075714915991, 0.161379560828, -0.050212446600, -0.124810390174, -0.063450694084, -0.005096789449, -0.140832543373, 0.161514431238, 0.072910420597, -0.033676985651, -0.174461260438, 0.001392112114, -0.067560195923, 0.038375284523, 0.132812485099, 0.018784195185, 0.006970337592, -0.121965423226, -0.104701772332, 0.082163870335, -0.066302776337, 0.100229375064, -0.048357710242, -0.006960568484, 0.031836155802, 0.123884066939, -0.142863124609, 0.012803417630, 0.104089520872, 0.003890100867, 0.055068317801, 0.071232274175, 0.032434601337, -0.177630051970, -0.016652269289, 0.111222691834, -0.109904378653, -0.064719982445, -0.166021615267, -0.057095710188, 0.028058402240, 0.057159770280, -0.201408058405, 0.045402187854, 0.013617374003, 0.038733057678, 0.058457884938, 0.109361790121, 0.074383541942, 0.015847083181, 0.031445793808, 0.016386507079, -0.059004578739, 0.092476725578, -0.074481934309, -0.142902538180, 0.117258034647, -0.040726490319, -0.135985955596, 0.018245050684, 0.025172416121, 0.008403069340, -0.135569170117, 0.011787094176, -0.050459835678, -0.018003966659, -0.115156948566, -0.115530021489, 0.006846075412, 0.084545053542, 0.018989680335, -0.078311733902, -0.093151986599, 0.003194364952, -0.050395626575, -0.080423071980, 0.023206563666, -0.032986074686, -0.114610522985, -0.018583942205, 0.009300542064, 0.098681822419, 0.085635937750, 0.074621446431, -0.064203500748, 0.031336203218, 0.045537553728, -0.047145713121, -0.119161039591, -0.006759687327, -0.036786872894, 0.080073967576, 0.093564957380, -0.125243484974, -0.115210443735, -0.023905929178, -0.059621751308, 0.252516627312, -0.041176486760, -0.010477476753, -0.063093170524, -0.002014606725, -0.155198663473, 0.057446967810, -0.094413489103, 0.097442694008, -0.083881817758, 0.015558853745, 0.053500346839, 0.124183721840, 0.096070840955, -0.066256433725, 0.109946116805, -0.101409144700, -0.062397569418, -0.025150796399, -0.077267937362, 0.088994376361, -0.085628472269, -0.104749485850, 0.068911530077, 0.132860541344, 0.065425798297, -0.128318786621, -0.039929281920, 0.040341496468, -0.076256304979, -0.008862489834, 0.071799412370, -0.149619504809, -0.069017015398, -0.082828581333, -0.083663791418, 0.079957470298, -0.028767250478, -0.141067713499, 0.134746149182, 0.024356158450, 0.057370115072, 0.071064844728, -0.041803933680, 0.004303675145, -0.083641022444, -0.042283080518, 0.031319867820, -0.138301774859, -0.069822713733, -0.025676421821, -0.052976090461, 0.053022194654, 0.083776801825, -0.129125386477, 0.099864788353, 0.087418638170, 0.003278822172, 0.059667803347, -0.147440776229, -0.022494334728, -0.185357421637, 0.110087342560, 0.103223755956, -0.045519709587, -0.113542698324, -0.033119067550, 0.062738396227, -0.007598946337, 0.029008448124, -0.101429313421, 0.042263001204, 0.062003389001, -0.021725572646, 0.105159334838, 0.030027404428, -0.161555275321, -0.133218795061, -0.052114523947, -0.039366126060, 0.190259337425, 0.051452018321, -0.083223477006, 0.123712167144, -0.145299255848, -0.011796601117, -0.004028607626, 0.054527580738, 0.035507373512, 0.093051105738, -0.041470155120, 0.006496717222, -0.138182073832, -0.028401341289, -0.087248459458, -0.009054857306, 0.214613556862, 0.026447506621, -0.041386753321, 0.052048537880, 0.003201963846, -0.131486743689, 0.018633900210, 0.134745553136, 0.141891941428, 0.057240042835, 0.092473998666, -0.082523383200, -0.082239165902, -0.076927296817, 0.073059290648, 0.042507380247, -0.060455270112, 0.062427461147, -0.080164052546, -0.142426341772, 0.022226339206, -0.022860789672, -0.127269431949, 0.117680296302, 0.068304590881, 0.182089880109, -0.041082557291, 0.107196867466, -0.074738025665, -0.179757431149, -0.052742779255, -0.077960215509, -0.064762331545, -0.043720368296, 0.053947966546, 0.032830242068, 0.002090702532, 0.099477462471, -0.053529046476, 0.001516975113, -0.072605974972, -0.097506605089, 0.015752710402, -0.049744497985, 0.110236920416, -0.058484405279, -0.045644484460, 0.075496941805, -0.010630936362, 0.079201638699, 0.013688236475, -0.145066529512, 0.049280416220, -0.037665091455, 0.001513179624, 0.057363018394, 0.036632236093, 0.016011774540, -0.028114572167, 0.086177721620, 0.050635408610, -0.015250911005, -0.007913473994, 0.096508152783, 0.184151157737, -0.038538847119, -0.036020144820, 0.029431063682, -0.032992146909, -0.027737382799, 0.039149243385, 0.094254747033, -0.120067916811, -0.046688638628, 0.175003796816, -0.075403816998, -0.104658007622, 0.060160297900, 0.112317688763, 0.014294963330, 0.074497073889, 0.065312534571, 0.128788217902, -0.106965295970, -0.071368291974, 0.090548269451, -0.046935588121, 0.008418191224, -0.082396596670, 0.091156348586, 0.235056310892, -0.004969100934, 0.031993743032, 0.114635355771, 0.054277781397, -0.134766280651, 0.045846305788, -0.037144687027, 0.003054398112, -0.097325704992, -0.118351779878, -0.010621595196, 0.000594114827, 0.088915176690, 0.039118699729, 0.044982217252, 0.035295706242, -0.119346976280, 0.046472553164, -0.023617476225, 0.072436831892, -0.049073211849, -0.071320585907, -0.018030827865, 0.032453984022, -0.012411013246, -0.103104822338, -0.197613269091, 0.039332851768, -0.056680526584, -0.084611654282, 0.045737653971, 0.079041428864, 0.084005288780, -0.147028133273, -0.050642345101, -0.077324993908, 0.024690741673, -0.062552422285, 0.115231826901, 0.059292625636, -0.005065087229, -0.014721495099, -0.071909792721, 0.118639528751, 0.105709120631, -0.008436247706, -0.112790584564, 0.073336027563, 0.078194789588, 0.067847430706, 0.000456882059, -0.098723359406, 0.075264923275, 0.078084781766, 0.012606626377, 0.067140400410, -0.020272459835, -0.022125536576, 0.019802726805, -0.076552376151, 0.202613890171, 0.048678509891, -0.127900317311, 0.071560122073, 0.046846713871, 0.178974702954, -0.022457158193, 0.078892819583, 0.089665919542, 0.177935361862, -0.074811086059, -0.176547005773, 0.022116199136, -0.043690674007, 0.001889483770, -0.019172817469, 0.066806428134, -0.094501338899, 0.048112321645, 0.135454654694, -0.013388838619, 0.045763213187, -0.025774737820, -0.003537846496, 0.030622787774, -0.112181775272, 0.003514710348, 0.042510740459, -0.069078296423, 0.006596976891, 0.042808942497, -0.209168195724, -0.110257849097, -0.167114183307, 0.138559713960, 0.044056165963, -0.105002418160, -0.101124010980, -0.041578155011, 0.105456188321, -0.028755532578, 0.166696518660, -0.098529204726, -0.113270543516, -0.001973149600, -0.095828063786, 0.030010100454, -0.000551009376, -0.045691642910, -0.045067843050, -0.122284330428, -0.006709348876, -0.100925236940, 0.057706061751, 0.138844057918, -0.013993429951, 0.136362180114, 0.062282074243, -0.035266753286, 0.147910043597, 0.119702078402, 0.023565124720, -0.081464014947, 0.172449961305, -0.111889556050, 0.121775396168, -0.052025277168, -0.037820078433, 0.045076459646, -0.086193397641, 0.029554130509, -0.072838686407, 0.090141557157, -0.187219619751, 0.054823148996, 0.107212401927, -0.068730905652, -0.059936810285, 0.038592584431, 0.122228369117, 0.036768481135, 0.138165161014, -0.234003111720, -0.044530067593, 0.062483109534, 0.181368827820, 0.097473584116, -0.048481237143, -0.032582163811, -0.038063686341, 0.010524256155, -0.070123106241, -0.069470338523, 0.123905286193, 0.110623933375, -0.244104653597, 0.138896912336, -0.028295520693, -0.036758773029, -0.044204007834, 0.141430169344, 0.136035621166, 0.008560066111, 0.088436916471, 0.073823481798, 0.062371321023, -0.006130670197, -0.142518281937, -0.037980590016, -0.037794277072, -0.056722693145, 0.087535157800, -0.090031802654, 0.062122203410, -0.090115949512, 0.060963455588, -0.075889758766, -0.073494486511, -0.083598919213, 0.131837323308, 0.131435513496, -0.019118474796, -0.113241747022, 0.061392243952, 0.014423985034, -0.084844999015, 0.066628970206, -0.147505134344, -0.115496501327, -0.033922586590, 0.002880440094, 0.173241019249, -0.010410998017, -0.059419516474, -0.133330941200, 0.011348846368, -0.157902210951, 0.056290961802, 0.064857117832, -0.133131310344, 0.016836456954, -0.112775839865, 0.003641473129, 0.150661513209, 0.054258234799, 0.122032262385, -0.033161908388, -0.084871366620, -0.023113219067, 0.117894575000, 0.139470189810, 0.138511240482, 0.061752665788, -0.040687661618, -0.032268490642, 0.062086813152, -0.029081204906, -0.006092670839, 0.018678581342, 0.033390130848, -0.103381462395, 0.095380097628, 0.007734922692, 0.002774426946, -0.055453367531, -0.080706268549, -0.048554684967, 0.135677263141, 0.193315446377, -0.107679411769, 0.037588384002, 0.046786893159, -0.098775796592, 0.025653695688, -0.042997557670, 0.020236723125, 0.082877308130, 0.120660036802, -0.096962317824, 0.006093288772, 0.000509802252, 0.056543700397, 0.092760078609, -0.010290181264, 0.147442102432, -0.016815455630, -0.054497662932, -0.130466535687, -0.066456109285, -0.057844400406, 0.082697719336, -0.080563731492, 0.139819741249, -0.116040945053, 0.113296955824, -0.105837613344, 0.073672190309, 0.039980962873, 0.002766517922, -0.007061128505, -0.009896928445, 0.188375249505, -0.023816091940, -0.012737510726, -0.006527100224, 0.074701033533, -0.119227707386, 0.045505531132, 0.077577516437, 0.027325171977, -0.151562422514, 0.059075735509, -0.135547146201, 0.107916615903, -0.080075480044, -0.112948000431, 0.100475624204, 0.045921210200, -0.057066623122, -0.104359462857, 0.041476968676, -0.056691136211, 0.054646681994, 0.003026191844, -0.039277028292, -0.030260877684, -0.015107155778, 0.233426168561, -0.058943994343, -0.077314175665, -0.036840729415, -0.154213309288, -0.109222531319, 0.262829452753, -0.136343389750, -0.107268489897, -0.034776568413, -0.039649728686, -0.083254717290, 0.060205660760, 0.000583452522, 0.026284085587, -0.031996648759, -0.036345463246, -0.096337355673, 0.042048107833, -0.035269960761, 0.041791744530, 0.043542396277, 0.063979469240, 0.074090488255, -0.129090279341, -0.050904687494, 0.112691901624, 0.012689728290, -0.025082871318, -0.041956648231, 0.075665168464, 0.214223474264, 0.026067247614, -0.086710624397, -0.101390898228, -0.123089395463, -0.028294440359, 0.103414326906, -0.146820783615, -0.058634947985, -0.058461118490, -0.136409670115, 0.008568683639, -0.035542160273, -0.101548247039, 0.155656129122, 0.181041151285, 0.042734775692, -0.103053480387, 0.069433093071, 0.007246395573, 0.019113568589, 0.022272139788, -0.043328773230, -0.127131983638, 0.076614476740, 0.057384550571, -0.073754340410, 0.086153313518, 0.018298171461, -0.004186948761, 0.083648838103, -0.099116787314, -0.037196565419, 0.000865690294, 0.068313747644, 0.063619181514, 0.130326330662, -0.063490904868, -0.114739984274, 0.022457417101, 0.050875183195, 0.028505666181, 0.056828074157, 0.079826965928, -0.146152675152, 0.037884227931, 0.033525951207, -0.032767288387, -0.098579674959, -0.003793394659, -0.154434964061, 0.111967928708, 0.024613210931, -0.066888988018, -0.026361148804, -0.032275646925, 0.024075362831, -0.120468527079, 0.099454820156, -0.013623735867, -0.028300387785, -0.019988184795, 0.028018133715, 0.029443878680, -0.010305887088, 0.227987244725, -0.041960161179, 0.048507664353, 0.091071262956, -0.128043934703, -0.015663819388, 0.096162840724, -0.106665350497, -0.128419429064, -0.042339857668, 0.048242457211, -0.026748020202, -0.101090587676, 0.176868289709, 0.057217977941, 0.052708655596, 0.049038283527, 0.089383356273, 0.116239853203, 0.023196535185, -0.098173834383, 0.049132399261, 0.035957943648, 0.032263927162, -0.104801915586, -0.118728868663, 0.116141580045, 0.040207628161, -0.006342953071, -0.008306255564, -0.052991405129, 0.253397762775, -0.101685032248, -0.079247079790, -0.152002930641, -0.007047998719, -0.130638912320, 0.013781460002, -0.028385220096, 0.015191806480, -0.017479661852, 0.024235047400, 0.025992490351, 0.143978938460, 0.094603218138, 0.083890773356, 0.017849696800, -0.088571012020, -0.084462791681, 0.045920025557, 0.023726426065, 0.022066682577, -0.087960362434, -0.014802886173, -0.067291334271, 0.061803411692, 0.047643061727, 0.005191668868, 0.036775186658, 0.018279861659, -0.099865846336, 0.132273212075, -0.049749333411, -0.077862940729, 0.071138463914, -0.002210978884, 0.000618651626, 0.091692626476, -0.010965260677, -0.057800509036, 0.064427144825, -0.038873936981, 0.031370755285, 0.090865433216, 0.061667945236, 0.137032970786, -0.002512590028, 0.128191620111, -0.037124447525, -0.130197435617, 0.065268345177, -0.044114679098, -0.006762385368, 0.074326515198, -0.074090495706, 0.105844251812, 0.124910749495, 0.074474543333, -0.046205975115, -0.059028599411, -0.038560256362, -0.049196582288, -0.044133204967, 0.131399422884, -0.045028313994, 0.081559650600, 0.071037217975, -0.159646123648, 0.160247176886, -0.096437133849, -0.070338778198, 0.051837030798, 0.104365125299, 0.030253788456, -0.100474573672, -0.044474344701, -0.069569997489, -0.028540080413, 0.134613141418, 0.052313387394, -0.108627863228, -0.061607204378, 0.040274500847, 0.024962427095, 0.009049379267, -0.098080784082, 0.063838109374, -0.072682224214, -0.010535847396, 0.116943657398, 0.069919876754, -0.001438671723, -0.094710864127, 0.031258694828, 0.081387735903, -0.023279797286, -0.109478332102, -0.076104626060, 0.059388779104, 0.020613569766, -0.028080575168, 0.124320238829, -0.019592765719, 0.065234765410, -0.091154605150, -0.031925059855, 0.200207233429, -0.027608145028, 0.106295697391, 0.022984292358, 0.020475214347, 0.054179154336, -0.004942569416, -0.086213089526, -0.043951474130, 0.061246052384, 0.113849341869, 0.079775176942, 0.122285842896, -0.085338637233, -0.072349689901, -0.083550781012, 0.113469608128, -0.021471450105, 0.019573692232, 0.032200075686, -0.239369645715, 0.061651952565, 0.100497052073, -0.072518415749, 0.013508049771, 0.038994211704, 0.049827199429, -0.082223318517, -0.100651845336, -0.172282546759, 0.167851388454, 0.050952918828, -0.143209353089, -0.073412969708, -0.045781742781, -0.077942728996, 0.065439082682, 0.120319306850, 0.086981877685, -0.148292645812, -0.017458416522, -0.106452308595, 0.112021997571, 0.075318567455, 0.072432763875, 0.108322314918, 0.089327000082, 0.105724066496, 0.014917575754, -0.092670947313, -0.044374778867, -0.063262350857, -0.028119925410, 0.089605741203, -0.133370578289, 0.042032334954, 0.069591633976, -0.199977725744, 0.236236020923, -0.008942708373, -0.117134884000, -0.032758306712, 0.047000493854, 0.012776187621, 0.051977112889, -0.017428733408, -0.047331240028, -0.035556592047, 0.066980719566, -0.000599717489, -0.007268558722, -0.069350123405, -0.029829546809, 0.051155261695, -0.037925101817, 0.057883989066, -0.069059573114, -0.001057437737, -0.006351355929, 0.003211092670, -0.014308786951, -0.043238922954, 0.069981187582, 0.052922718227, 0.023328667507, -0.100665658712, 0.170231625438, 0.062946662307, 0.034556459635, -0.039814956486, -0.124434016645, 0.076993621886, -0.018903333694, 0.059917997569, -0.024841656908, 0.014710715972, 0.100757926702, 0.096356309950, 0.087591372430, 0.110929965973, 0.102811135352, 0.112324960530, 0.024588599801, 0.023005193099, -0.054242592305, 0.047303371131, -0.002407156397, 0.084871612489, 0.119082398713, 0.053119789809, -0.011274549179, 0.079791106284, 0.036110050976, -0.023186575621, 0.032762914896, 0.094685062766, -0.134378895164, 0.002997227246, -0.044636566192, 0.056379444897, -0.141476273537, 0.188433483243, 0.041253726929, 0.000720227836, -0.081870317459, -0.183035939932, 0.228847324848, 0.212763220072, -0.035491053015, 0.056427277625, -0.132039442658, -0.037767592818, 0.010181830265, 0.128638342023, -0.026683790609, -0.146742478013, 0.105739057064, 0.054710224271, 0.169662386179, 0.095273971558, 0.101456671953, 0.111185222864, 0.065436646342, 0.006388204172, 0.020048469305, -0.008035765029, -0.176511794329, -0.068324625492, 0.043440714478, 0.200094953179, -0.115862719715, -0.067456535995, 0.114804081619, -0.095215089619, 0.166414797306, -0.083506353199, -0.135085150599, -0.024035433307, -0.056674737483, -0.081225171685, -0.069722197950, 0.147526860237, 0.034529577941, 0.081528760493, 0.137777701020, -0.055717628449, 0.070979416370, -0.016395688057, 0.019933015108, -0.000983747886, 0.107984803617, 0.009674211033, 0.040345311165, 0.077226459980, -0.064021371305, 0.035084206611, -0.051953613758, -0.057355947793, -0.068094491959, 0.044269874692, 0.035663776100, 0.016689646989, 0.137989446521, 0.013900893740, -0.004254323430, -0.113446034491, -0.083251476288, 0.049640275538, 0.074801854789, 0.157571569085, -0.100671522319, -0.049203924835, -0.013868857175, 0.012509270571, 0.081902325153, 0.115018211305, -0.012297499925, 0.020784683526, 0.132003441453, 0.115026123822, -0.140785455704, 0.119249790907, 0.075637854636, 0.090761058033, 0.008752476424, -0.013229247183, 0.060194585472, 0.127241998911, -0.105550453067, 0.140960425138, 0.030516577885, 0.154421016574, -0.095252476633, 0.058251094073, -0.037035260350, 0.172537848353, -0.175151795149, 0.086042754352, 0.063527099788, 0.087192639709, -0.047658033669, -0.141549021006, 0.164598882198, 0.202609300613, -0.089635267854, -0.065740630031, -0.004576517269, -0.041258916259, -0.086779013276, 0.234459742904, 0.081142731011, -0.086008295417, 0.020169964060, 0.069987460971, 0.223146751523, 0.150819242001, -0.059978507459, -0.093304440379, 0.042161442339, 0.025818552822, -0.083418399096, -0.188185840845, 0.047033209354, 0.007346421946, 0.028301622719, 0.379583656788, -0.076591029763, -0.095695719123, 0.035339742899, 0.048523698002, 0.185871198773, 0.021759292111, -0.077748134732, -0.227411374450, 0.061971250921, -0.069246679544, -0.077198661864, -0.034311529249, 0.123841345310, -0.051147911698, -0.027238635346, -0.057787906379, 0.111060768366, -0.058928444982, -0.081610880792, 0.106139458716, -0.005386931822, 0.120713196695, 0.085749760270, 0.088912270963, -0.041092626750, 0.145254269242, 0.065372414887, -0.162874177098, 0.054670739919, 0.025834698230, -0.078320823610, -0.098531283438, 0.039605494589, 0.217051878572, -0.090920776129, -0.162788540125, -0.050089843571, 0.010505204089, -0.074509032071, 0.137884989381, -0.124248065054, 0.048593934625, -0.080505147576, -0.043457638472, 0.032848190516, 0.068554997444, 0.015829222277, -0.105067618191, -0.025017132983, 0.064956665039, -0.041674938053, -0.013237806037, 0.131895497441, 0.069121509790, -0.104679070413, -0.052204549313, 0.084997266531, 0.098065868020, -0.070515349507, 0.209984645247, -0.079583637416, 0.066089384258, 0.040703050792, -0.125074356794, -0.094645582139, 0.039193067700, -0.034215398133, 0.145732641220, -0.055345341563, 0.219635367393, 0.047555565834, -0.052757687867, 0.134583368897, 0.173602312803, -0.006706083193, -0.086295902729, 0.097742848098, 0.040391489863, 0.042757246643, 0.251015365124, 0.028173249215, -0.074073970318, 0.046873647720, 0.111467994750, 0.117071971297, 0.022713499144, 0.055049940944, -0.082312509418, 0.039939638227, -0.046507906169, 0.000984568265, 0.054356321692, -0.098935209215, -0.066868267953, -0.131882876158, 0.189538553357, 0.026242608204, 0.042793679982, 0.029680119827, 0.196182936430, 0.091483101249, -0.015858473256, 0.083727113903, -0.181735962629, -0.140553891659, -0.081708662212, -0.051945194602, 0.003062789096, 0.063007473946, 0.092699795961, -0.008164520375, -0.102114990354, -0.000930397713, 0.034402940422, -0.074639581144, 0.044151529670, -0.047633152455, -0.016846915707, 0.058659281582, 0.050586152822, 0.044800739735, 0.120419926941, -0.018813574687, -0.190498232841, 0.047920558602, -0.112030416727, -0.140416622162, -0.048423457891, -0.036980804056, 0.108635582030, 0.000134727277, -0.095107175410, -0.026262624189, -0.031507525593, -0.078641913831, 0.020778210834, -0.004472557455, 0.008086506277, -0.002347287722, -0.072242893279, 0.036573670805, 0.149419769645, 0.067793868482, -0.111581057310, -0.068274036050, 0.141490146518, 0.050754144788, 0.104945056140, -0.114876203239, 0.035469632596, 0.107528731227, -0.003605596023, 0.022902484983, -0.053164433688, -0.010125538334, -0.046117018908, -0.035303730518, -0.068719834089, -0.116480797529, -0.010507577099, 0.028758835047, 0.089830704033, -0.008637534454, -0.061734605581, -0.076837420464, -0.148197233677, -0.013989198953, 0.045695345849, 0.009911594912, -0.118188545108, -0.163684517145, 0.124097906053, -0.061579842120, 0.190032556653, 0.081193938851, -0.008329580538, -0.030694676563, -0.129215434194, -0.084774434566, 0.034039065242, 0.162770390511, -0.081850409508, -0.082263588905, -0.047691561282, -0.026769427583, -0.042889319360, -0.070073716342, -0.059275332838, 0.092325806618, 0.037037733942, -0.009829944931, 0.041045028716, 0.126648262143, 0.047509085387, -0.116767905653, -0.140462741256, 0.358149796724, -0.074777401984, -0.034165933728, -0.027273247018, 0.111490190029, 0.128161579370, -0.029358506203, -0.058215532452, -0.046105828136, 0.128274381161, -0.046881765127, 0.063518784940, 0.060174610466, 0.087530806661, 0.032114028931, 0.062119655311, 0.072701849043, 0.045738615096, 0.004019089974, 0.021463640034, 0.035249903798, 0.045378144830, 0.121263720095, 0.091755822301, 0.014787031338, -0.106062531471, 0.061838503927, -0.028752073646, 0.004307772964, -0.010553147644, -0.012496413663, 0.034029621631, -0.149061158299, 0.002672214061, -0.014730400406, 0.063476271927, 0.040702879429, -0.064360268414, 0.106588996947, 0.105454504490, 0.091354481876, 0.098955146968, 0.075608611107, -0.133227884769, -0.037662565708, 0.031543605030, -0.067240573466, 0.134603589773, -0.155680000782, -0.065053418279, 0.072089128196, 0.107572309673, 0.050270393491, -0.141985148191, -0.066145122051, 0.058031253517, 0.029032986611, 0.094096176326, -0.212485104799, -0.048440888524, 0.028890756890, 0.056022282690, -0.007379354909, -0.070743612945, -0.115577697754, -0.105117008090, -0.038194183260, -0.101212047040, -0.076901450753, -0.037630483508, -0.091086141765, 0.009637444280, 0.138375714421, 0.148770809174, 0.092635169625, 0.123497508466, 0.042761307210, -0.011315164156, -0.119114667177, -0.006861904636, 0.216129317880, 0.066896326840, 0.092205815017, -0.118474632502, 0.120192885399, 0.037219390273, -0.069709993899, 0.131344914436, -0.015212815255, 0.089629046619, 0.111782245338, 0.098870500922, 0.120115309954, 0.032578818500, 0.049024526030, -0.088286116719, 0.297429651022, 0.145189821720, -0.067492559552, -0.015079423785, 0.168824866414, 0.249184593558, 0.062625348568, 0.118844963610, 0.136688023806, -0.017105730250, 0.086370699108, -0.059319742024, 0.017419859767, -0.084624856710, -0.110673822463, -0.042337674648, -0.024191917852, 0.058931756765, 0.021143650636, -0.033721942455, -0.001587394159, -0.046878669411, 0.018057525158, 0.092569805682, 0.073070600629, -0.088842228055, 0.079057469964, -0.001876563183, 0.092774741352, 0.040831319988, 0.043140765280, -0.008683398366, -0.037055514753, -0.018667949364, 0.037553206086, 0.057198267430, -0.075624287128, 0.083146870136, 0.088698498905, 0.082999780774, 0.132626548409, 0.027572162449, 0.081883713603, -0.005792815238, 0.036265663803, 0.115890987217, -0.160318255424, 0.087634287775, 0.009543217719, -0.091148212552, 0.095176331699, 0.081734567881, 0.080551728606, 0.003319844604, 0.058976069093, -0.015109797008, -0.023785378784, -0.084664940834, 0.017867701128, 0.072079621255, -0.004246650729, 0.172230467200, -0.055195502937, -0.046956889331, 0.021313821897, -0.133858829737, -0.153062403202, -0.144272387028, 0.088978953660, 0.078123122454, -0.145265400410, 0.130913153291, -0.094717957079, -0.026070602238, 0.086211293936, -0.042783536017, -0.047405555844, -0.120451420546, -0.094909891486, 0.027994729578, 0.023678781465, 0.128456115723, -0.091200165451, 0.013455840759, 0.009378375486, 0.198163762689, 0.100288994610, 0.108792990446, -0.036470610648, -0.029382092878, -0.054988283664, 0.186866551638, 0.090736158192, 0.027036231011, 0.027291217819, 0.106357082725, 0.267353355885, 0.071004845202, -0.053083144128, -0.035290006548, -0.085680998862, 0.297412484884, 0.090445674956, 0.169897362590, 0.092582046986, 0.039531644434, 0.033764097840, -0.063216865063, 0.038561522961, -0.000652128714, -0.111626163125, -0.053904972970, -0.097865976393, -0.040825072676, 0.111036300659, 0.130999475718, 0.112090751529, 0.081613600254, 0.048880614340, 0.103537030518, -0.098394431174, 0.020195277408, -0.112655520439, -0.080803863704, 0.105585038662, -0.008754448965, -0.053457427770, -0.124156937003, -0.082069583237, -0.050502307713, 0.009369706735, 0.173519566655, -0.092750281096, -0.051978632808, 0.081205338240, 0.053032655269, 0.122238144279, 0.128005892038, -0.028513044119, -0.047162614763, -0.088274635375, 0.185069009662, -0.003038782161, -0.035124275833, 0.010075302795, -0.067371457815, -0.057692684233, 0.112765394151, -0.001862304634, -0.003691092366, 0.083875879645, 0.260133087635, -0.097862116992, 0.038213707507, 0.069456063211, 0.108914792538, -0.100094631314, 0.030977146700, -0.027449902147, 0.037977673113, -0.004331327975, 0.060398876667, -0.194966271520, -0.097503408790, 0.178465217352, 0.091131441295, -0.053030069917, 0.205093637109, -0.083077006042, -0.031656082720, 0.132195815444, 0.004987576045, 0.086808338761, 0.003269317560, -0.138640508056, 0.121464170516, 0.154813677073, 0.193945243955, -0.041785962880, -0.096084184945, -0.023020338267, 0.112810268998, -0.055846672505, -0.065843798220, -0.044098261744, -0.032021321356, 0.062100071460, 0.035734593868, 0.168456479907, -0.028531603515, -0.041268534958, 0.123712241650, 0.208426028490, 0.285781562328, -0.065709896386, -0.184465855360, -0.083085536957, 0.235226094723, -0.072942331433, 0.095138058066, 0.002918190323, -0.010113625787, -0.080509960651, -0.154873356223, -0.054906670004, 0.162965953350, 0.020721912384, -0.047357726842, -0.014223294333, 0.078237488866, 0.007813788019, 0.121702365577, 0.081462390721, -0.088008932769, 0.046384911984, 0.019911283627, 0.036211729050, 0.030557727441, -0.065029211342, -0.052436340600, -0.122425854206, 0.037292923778, -0.043289065361, -0.168815076351, -0.057105686516, -0.059170342982, -0.107066690922, 0.015643630177, -0.015111726709, -0.057239212096, 0.069399192929, 0.105156548321, -0.091105595231, 0.062953710556, 0.106694899499, -0.135860607028, -0.193703219295, 0.153268322349, 0.011393212713, 0.001744797220, -0.023618292063, 0.095502667129, -0.068652383983, 0.068921566010, 0.069140776992, 0.072685532272, 0.108661122620, 0.235872879624, -0.155917912722, -0.098622418940, 0.074561402202, -0.051686272025, 0.001730469521, -0.147923544049, -0.066721446812, -0.055041447282, -0.117304496467, -0.047756925225, -0.055917516351, -0.094279736280, 0.079817809165, 0.033315420151, -0.092134468257, -0.024613907561, 0.018898231909, -0.119725033641, 0.097288474441, -0.074079118669, 0.069211453199, -0.084585323930, -0.113044723868, -0.017970591784, 0.137632310390, 0.059236895293, 0.028945066035, -0.082681193948, 0.074119053781, 0.165086120367, -0.018255136907, -0.033640608191, -0.003276970237, -0.097237616777, 0.085886314511, -0.013935009018, 0.118151493371, 0.126669555902, -0.093420758843, 0.260361582041, -0.021121429279, 0.016422174871, 0.104879997671, 0.051748301834, 0.011157476343, 0.220552593470, 0.020661035553, -0.058799654245, 0.058048468083, 0.026671605185, -0.058238301426, -0.126047626138, -0.133195742965, 0.033321056515, 0.006000676658, -0.064761437476, -0.004526228644, 0.012724699453, -0.024345863611, -0.022367971018, -0.030055429786, -0.116554237902, 0.044573094696, -0.047350224108, 0.038875516504, 0.013969844207, -0.071199052036, -0.073531538248, -0.046640690416, -0.096037946641, 0.128008842468, -0.169045239687, -0.011886996217, -0.135422408581, -0.025537436828, -0.150865405798, -0.114688679576, -0.113238677382, 0.097637780011, -0.056027319282, -0.041330076754, 0.059017643332, -0.097896508873, -0.118266962469, 0.097631871700, 0.002538116416, 0.117682054639, 0.138998314738, -0.096173226833, -0.076967775822, 0.109927356243, 0.104726046324, 0.118725195527, -0.098197914660, -0.078499637544, -0.185700908303, -0.084566056728, -0.032726101577, -0.075914062560, 0.055976439267, 0.025965401903, -0.011351262219, -0.022992774844, -0.163950458169, -0.033269047737, -0.026172511280, -0.002708191983, 0.021462822333, 0.161332666874, -0.021559346467, -0.078064337373, 0.018252389506, 0.124478586018, 0.170851632953, 0.027623143047, 0.053840607405, -0.113524973392, -0.005632251967, 0.011048281565, -0.064117483795, -0.054963886738, 0.005983549636, 0.004036808852, -0.092890143394, 0.021735478193, -0.071050278842, -0.031371746212, 0.150198444724, 0.001516301185, 0.062265470624, 0.049570590258, -0.055072553456, -0.079387500882, 0.063671834767, -0.016731556505, -0.130082666874, -0.020670348778, -0.085241854191, -0.125398397446, -0.152157068253, -0.055497158319, 0.118785694242, 0.046300951391, -0.017358075827, 0.114488482475, 0.053002074361, -0.059748154134, -0.101609490812, -0.016823245212, 0.066146582365, 0.112591169775, 0.154068574309, -0.048069797456, 0.037268973887, 0.033046368510, 0.050203762949, 0.075403042138, -0.124885529280, 0.031713686883, -0.039658766240, 0.114691793919, 0.037073571235, -0.081339530647, -0.046565044671, 0.041943293065, -0.015363093466, 0.027593826875, 0.051680285484, -0.123163089156, -0.189602822065, 0.007189878263, 0.031357534230, -0.035985991359, 0.007796350867, 0.156796023250, -0.159879818559, 0.090492740273, 0.133064329624, -0.085823483765, -0.146565690637, -0.021282728761, 0.095525391400, -0.101315818727, -0.027715343982, -0.077548451722, -0.196275755763, 0.032170042396, -0.046523917466, 0.007875810377, -0.251794308424, -0.085035473108, -0.157843708992, -0.137731388211, -0.137316465378, -0.014300930314, 0.083511382341, 0.066300980747, 0.081070452929, -0.017466923222, -0.076794594526, 0.053718075156, 0.018235605210, -0.154713287950, -0.132420882583, 0.048544783145, 0.121968872845, 0.005488161929, 0.167263492942, -0.041834991425, 0.119298279285, 0.036559693515, -0.039279963821, -0.161026284099, 0.000879930973, 0.023638641462, -0.008908242919, 0.001674447209, 0.070279203355, -0.058810241520, 0.009906657040, 0.077335752547, -0.031168051064, 0.003629071172, 0.092356503010, 0.034504931420, -0.050181403756, 0.097470395267, 0.048303298652, -0.092096000910, -0.141343325377, 0.028832329437, -0.080861136317, -0.021826624870, -0.025443775579, 0.014797732234, -0.005660887342, 0.093109980226, 0.178753286600, 0.004982327577, -0.119574822485, 0.055821213871, 0.154299914837, -0.012662133202, -0.106775291264, 0.073243916035, 0.061472292989, -0.136392533779, 0.131427839398, -0.108505047858, -0.005934587680, 0.087796874344, 0.024690985680, -0.034725863487, -0.207639396191, 0.053953122348, -0.116013728082, 0.057305581868, 0.032745573670, -0.107607565820, -0.047232359648, 0.056509017944, 0.139236092567, 0.011649977416, 0.033193875104, 0.019033942372, -0.070089027286, -0.061962377280, 0.132783740759, 0.029299993068, -0.146404072642, 0.120141126215, -0.012415889651, 0.098754368722, 0.086619123816, -0.141154289246, -0.061778116971, -0.023064037785, 0.049521915615, -0.096985995770, -0.001121028792, -0.071182623506, -0.032076999545, -0.089492239058, 0.104447253048, 0.108806945384, -0.216511756182, -0.006456007250, -0.034601323307, -0.143652155995, -0.031841207296, 0.087065622211, 0.043173830956, -0.069494538009, 0.023210151121, 0.030667049810, -0.002183275064, 0.117163442075, 0.042269486934, -0.052713170648, -0.155232936144, -0.124215267599, -0.035633910447, -0.068724304438, 0.146203503013, -0.010621995665, 0.141386032104, 0.043461617082, -0.006050341297, -0.072959177196, -0.021325659007, -0.010272072628, 0.085189178586, 0.030735000968, 0.042847525328, -0.037079479545, 0.083676956594, 0.091610603034, -0.047328531742, -0.075799316168, 0.321856647730, 0.044700153172, 0.074157617986, 0.145095109940, -0.006578557193, 0.127080857754, -0.052216585726, 0.051578704268, -0.007140061818, -0.106656774879, 0.097542427480, -0.065490335226, -0.018431080505, 0.046076409519, 0.160508170724, -0.086960569024, 0.075546033680, -0.037968039513, 0.123801015317, -0.032505165786, -0.100430265069, -0.070398323238, 0.128518790007, -0.157710671425, 0.104535922408, -0.111875496805, -0.049226444215, 0.086519181728, 0.129458844662, 0.031988114119, -0.118635527790, -0.109991140664, 0.045647621155, -0.128965243697, 0.063146054745, -0.139617577195, -0.073148466647, 0.063117571175, 0.078070543706, -0.016302617267, -0.106900364161, -0.009009881876, 0.060153502971, 0.064704678953, 0.035937774926, -0.088146582246, -0.150754198432, -0.046521633863, -0.063206017017, 0.091061390936, 0.003585711587, -0.091778106987, 0.099094875157, -0.057339958847, 0.060866821557, -0.116071149707, 0.023582072929, 0.048944976181, -0.033500473946, -0.083722077310, -0.042214293033, 0.073754273355, -0.130965188146, -0.026790352538, -0.017548505217, 0.025892177597, 0.008666492999, 0.000074183896, 0.199856579304, -0.019188728184, -0.076853506267, -0.053031437099, 0.101228609681, 0.077172853053, 0.030298242345, -0.099160037935, -0.194292202592, -0.046816531569, -0.104179456830, 0.108388468623, 0.226349368691, 0.016030121595, -0.054827526212, 0.036974549294, -0.153952479362, -0.157263472676, 0.099212728441, -0.021932672709, 0.058623712510, -0.028986936435, 0.042208869010, 0.040617797524, -0.034770805389, 0.167477443814, 0.033405072987, 0.058713413775, 0.282075345516, 0.026609351858, -0.007362886798, 0.176485672593, -0.155746549368, -0.030203405768, 0.022560760379, -0.019380120561, -0.044592067599, -0.080327235162, 0.246054843068, -0.029292117804, 0.008818093687, 0.041615523398, 0.110160879791, 0.018261861056, 0.130251795053, -0.024275688455, 0.045530166477, -0.075366578996, -0.095435656607, -0.158026471734, 0.043329015374, -0.130704671144, -0.023690963164, 0.036533743143, -0.093577086926, -0.042213901877, 0.101222150028, 0.009368037805, -0.204049676657, -0.054982960224, 0.051270909607, -0.007405641489, -0.065349847078, -0.181752711535, -0.050878480077, -0.178362488747, 0.119256705046, -0.058653648943, -0.081096686423, 0.017149725929, 0.072453938425, 0.007212924771, 0.079226553440, -0.089392058551, -0.086774565279, 0.084423966706, 0.141692802310, 0.000108564505, -0.080816194415, -0.152636095881, 0.100460216403, -0.181371882558, 0.084408745170, 0.008304852061, 0.083824492991, 0.097278803587, -0.066715739667, -0.157782897353, -0.064072079957, -0.063870675862, -0.126509651542, -0.034982584417, 0.096391804516, 0.044902469963, -0.081101432443, -0.016971299425, 0.027509689331, 0.044544551522, -0.091631591320, 0.085565954447, 0.014529002830, -0.073713652790, -0.059058491141, 0.044525206089, -0.035732358694, -0.062374662608, -0.070447146893, 0.072479635477, 0.248944297433, 0.053722735494, -0.070038251579, 0.115810751915, -0.207692399621, -0.205629557371, 0.067353233695, 0.035396162421, 0.085259914398, -0.023323971778, 0.073089852929, 0.037652052939, -0.035992104560, 0.121129959822, 0.032172534615, -0.026232399046, -0.001930675237, -0.058603875339, 0.075175493956, 0.118443310261, -0.048115022480, -0.077285505831, -0.050912093371, 0.049658976495, 0.077819027007, 0.010185352527, 0.044941764325, 0.051576703787, -0.007313627750, 0.158344298601, 0.220913410187, 0.080330446362, -0.075295500457, 0.076050616801, -0.115274235606, 0.026669234037, -0.078860387206, -0.015756480396, -0.037635810673, -0.036726735532, 0.034334804863, 0.000306772185, -0.069677136838, 0.011425615288, -0.044025193900, -0.062177523971, -0.215902611613, 0.096255138516, -0.157198384404, -0.074242420495, -0.000217208930, -0.075838714838, -0.018686695024, -0.030074831098, -0.131794452667, 0.123885236681, -0.061793487519, -0.102555528283, -0.077603958547, -0.016832567751, -0.180303856730, -0.191186994314, -0.017927810550, 0.113647848368};
