//Numpy array shape (256, 120)
//Min -0.234064489603
//Max 0.262218594551
//Number of zeros 0

weight_default_t w5[30720] = {0.129626929760, -0.079117998481, -0.053780067712, -0.113040730357, 0.119746901095, -0.095128044486, -0.079024843872, 0.037095401436, 0.065720327199, -0.120095230639, 0.032790079713, 0.093881011009, 0.047318499535, -0.048937048763, -0.115735419095, 0.044687312096, -0.109763860703, 0.100219972432, -0.049373485148, -0.039752446115, 0.110031865537, -0.075755693018, -0.061332721263, -0.059881355613, -0.080924361944, -0.121004469693, 0.035212796181, -0.017321562394, -0.012834347785, 0.090967468917, 0.001734192832, 0.171569362283, -0.076903760433, -0.017869047821, 0.122442752123, -0.080906338990, 0.034210648388, -0.098816946149, -0.063273862004, -0.093035347760, -0.068655543029, 0.078187741339, -0.048008922487, 0.118487358093, 0.059083707631, -0.014602532610, 0.051242850721, -0.064392067492, 0.050313863903, 0.068619206548, -0.072311677039, -0.105013795197, -0.019838169217, -0.030469663441, 0.038548920304, 0.088035158813, -0.092586584389, 0.053890679032, -0.074096672237, -0.125215917826, 0.056704830378, 0.122885301709, -0.055588230491, -0.070440456271, -0.071746818721, -0.034780252725, -0.043507628143, 0.091701604426, 0.105842262506, -0.107463024557, -0.042300790548, -0.035596966743, -0.062344428152, 0.114209979773, 0.070209056139, -0.067732796073, 0.049208845943, -0.099724411964, 0.079445034266, 0.054276511073, -0.067977696657, 0.061167057604, 0.004263579845, -0.120047658682, -0.039043545723, -0.013862514868, -0.032626856118, 0.090295568109, 0.122627720237, -0.080085441470, 0.079274557531, -0.111463025212, 0.005639754701, 0.049848567694, -0.015047682449, -0.078732147813, 0.098302312195, 0.102049514651, 0.019571775571, 0.099208541214, 0.037327982485, 0.122233912349, 0.065003566444, 0.096918709576, -0.136929258704, -0.007178175729, -0.001875681104, -0.120663262904, -0.055980928242, 0.095290131867, 0.101787865162, 0.033906102180, -0.010291031562, -0.147836640477, -0.104510001838, -0.001855599228, -0.107709072530, -0.125347658992, -0.113799430430, -0.029509855434, -0.039614479989, -0.104531124234, 0.036817550659, -0.053617995232, 0.013312994502, 0.062928758562, 0.012867139652, 0.118897214532, 0.128364577889, 0.003749733558, 0.057749584317, -0.009972766042, 0.094226248562, -0.052230756730, 0.085895240307, -0.025901654735, -0.078426055610, 0.111975982785, -0.040545817465, -0.048490278423, -0.006241458934, -0.021798124537, 0.042194213718, 0.105800762773, 0.041857708246, 0.049302220345, 0.094734609127, -0.035031836480, -0.008678125218, -0.028733093292, -0.070736378431, 0.037994183600, -0.091712690890, 0.047510758042, -0.101467274129, -0.119826711714, -0.066751480103, -0.049112275243, -0.037595435977, 0.120267719030, 0.050445422530, -0.010065319948, -0.025614863262, -0.075265876949, 0.037661168724, 0.084508694708, 0.041971400380, -0.067694835365, -0.051671728492, 0.055072341114, 0.004019602668, -0.047903917730, -0.119744822383, 0.101216681302, -0.015527299605, -0.047656305134, -0.010654471815, -0.076148137450, -0.049772027880, -0.112634606659, 0.021135944873, -0.121426269412, -0.111002802849, 0.089507311583, -0.015398177318, 0.080958880484, -0.134150132537, -0.064436197281, 0.046533595771, -0.064405314624, -0.018760789186, -0.068833403289, -0.130913332105, -0.092931501567, -0.003050478874, -0.049290154129, -0.045672591776, -0.002290675882, 0.004483347759, -0.121565073729, 0.054378256202, 0.094840370119, -0.088919319212, -0.071492932737, 0.044295344502, -0.059382975101, -0.030911318958, -0.021756654605, 0.123080357909, 0.101095609367, 0.007472440600, -0.096509151161, -0.077004626393, -0.007947124541, 0.009823659435, 0.002237584442, -0.039450623095, -0.009353640489, 0.019593903795, -0.110989250243, 0.131147503853, 0.081035226583, 0.124386981130, 0.000917555997, 0.123641252518, -0.002690950409, 0.037664208561, 0.101398408413, 0.036310985684, 0.075899496675, -0.117284648120, -0.142240226269, 0.027334941551, 0.071323849261, -0.027203064412, 0.022417426109, 0.113563068211, -0.004684302025, -0.035566233099, -0.114843763411, -0.055729106069, -0.131094530225, 0.086102165282, 0.064140528440, 0.089414648712, -0.037525765598, -0.051997419447, 0.008839887567, 0.137730270624, 0.072229161859, -0.092393413186, -0.022692250088, 0.076635941863, 0.116298899055, -0.124317124486, -0.030417405069, -0.158099710941, -0.129495248199, -0.034402552992, 0.099477238953, -0.011488439515, -0.074318803847, 0.102633185685, -0.015501517802, -0.019483322278, 0.024101287127, -0.005359779112, -0.043856363744, 0.075540855527, 0.061145856977, -0.048060134053, 0.097920931876, -0.050936531276, 0.097519047558, -0.105190560222, -0.141851738095, -0.089537553489, 0.025813307613, -0.123052500188, 0.052481226623, 0.146557703614, 0.116736084223, -0.045375749469, 0.108846537769, 0.006118278950, 0.049580264837, 0.044117115438, 0.023454420269, 0.023807894439, 0.019636726007, 0.029639113694, 0.106314152479, 0.072639986873, 0.025414850563, -0.046848274767, 0.087893880904, -0.052808765322, 0.051980447024, -0.041405815631, 0.090148322284, 0.040151380002, -0.096291400492, -0.121292836964, 0.010527885519, 0.045160189271, 0.032815594226, -0.128666609526, -0.021448301151, 0.109875962138, 0.032725300640, -0.093314886093, -0.014124976471, 0.004432975315, -0.077124871314, 0.106485746801, 0.034903582186, -0.111124217510, 0.019999219105, -0.097530528903, -0.084784865379, 0.118082106113, -0.007937750779, -0.022653061897, 0.001306180493, -0.107828445733, -0.006499564275, -0.097766131163, -0.026361633092, -0.101088210940, 0.079371050000, 0.013444149867, -0.051571674645, 0.034458521754, -0.032214354724, 0.090367771685, -0.022172853351, -0.051474936306, -0.057039164007, -0.039561130106, 0.088028766215, 0.032816160470, 0.071456044912, -0.129098594189, -0.079932786524, 0.121261902153, -0.006199138239, -0.092090405524, 0.086587108672, -0.017840869725, 0.077323772013, 0.087464384735, 0.107263617218, -0.029969917610, 0.007125532720, 0.040370106697, 0.056238729507, 0.013171251863, 0.094353489578, -0.072181738913, 0.034867048264, -0.024146473035, -0.155434772372, 0.076359860599, -0.054316997528, 0.055060900748, -0.022491659969, 0.138730719686, 0.047074276954, -0.108631648123, -0.011490219273, 0.112758986652, -0.044610917568, -0.020783707500, 0.128563866019, 0.036412630230, 0.072377860546, 0.142264470458, -0.066029891372, 0.039521992207, 0.100629419088, 0.085589088500, -0.035418409854, -0.060402423143, -0.119874060154, -0.015704575926, -0.077283062041, 0.013996988535, 0.039586205035, -0.082090914249, 0.047535724938, 0.081780202687, 0.143260523677, -0.007923348807, 0.054893840104, 0.029212497175, -0.073196813464, 0.066421017051, 0.048386495560, -0.032014284283, -0.086226716638, 0.085791110992, 0.096900276840, 0.076162353158, -0.086606673896, -0.037437122315, 0.018926860765, 0.109563440084, -0.070768639445, 0.078328914940, -0.008937447332, -0.133229196072, 0.073544368148, -0.044037424028, -0.116336725652, -0.048723481596, 0.089499741793, 0.082650035620, 0.180012270808, -0.108000494540, 0.028107674792, 0.093306779861, -0.019327793270, 0.091748721898, -0.006994416937, 0.168876260519, 0.107064023614, -0.027661973611, 0.075462840497, 0.052935134619, -0.069592066109, 0.133916839957, -0.033075854182, -0.113811090589, -0.074016414583, -0.029288643971, 0.110069885850, -0.037412151694, 0.022105541080, -0.134158313274, 0.089325323701, -0.080599993467, 0.121028706431, -0.077385164797, 0.068810924888, 0.006459447555, 0.003756623250, -0.088317222893, -0.079511255026, 0.050619099289, -0.042620237917, 0.007405151147, -0.101872332394, -0.036292396486, 0.041354585439, 0.108077116311, -0.012209950946, 0.048815693706, 0.011255966499, -0.001256210031, -0.093345612288, -0.073021404445, -0.039151951671, -0.094206623733, 0.099381938577, 0.002922218991, -0.088008515537, -0.115624345839, -0.059420969337, -0.026995841414, -0.035910233855, -0.088908061385, -0.106579862535, -0.093732647598, -0.147405803204, -0.165323227644, 0.014480767772, 0.047549281269, 0.101671926677, -0.101761981845, -0.045760758221, -0.084704712033, 0.018814466894, -0.056326273829, 0.042838793248, 0.018607314676, 0.061349369586, -0.108050294220, -0.078547716141, 0.102602392435, -0.033948592842, -0.010915472172, 0.175318196416, -0.022093251348, -0.102995194495, 0.016954703256, 0.008176167496, -0.016574133188, 0.058323025703, -0.054929532111, 0.041894290596, -0.111422397196, -0.126043230295, 0.010714883916, -0.106584250927, -0.066140614450, -0.171333402395, 0.019230321050, 0.125803485513, 0.111233793199, 0.120451338589, 0.074752077460, 0.046433363110, 0.083144053817, 0.002866423922, 0.073826380074, 0.070361606777, 0.043663866818, -0.153934463859, -0.018073588610, 0.141718998551, -0.023276397958, 0.048651926219, -0.067957431078, -0.084817163646, 0.140209019184, 0.005445485935, -0.032246865332, -0.003583114361, 0.082607902586, 0.104218482971, -0.103305645287, 0.133308663964, 0.035289634019, 0.079760700464, -0.113090753555, -0.046224251390, -0.128547430038, 0.000736192334, -0.101520702243, -0.061250325292, -0.070761799812, 0.058912068605, 0.138843849301, -0.058247201145, 0.106709159911, -0.072424240410, -0.102403238416, -0.067569427192, -0.078411273658, -0.046676732600, 0.072746083140, 0.118079207838, 0.142621040344, 0.101400189102, -0.094931542873, 0.124232217669, -0.038505245000, -0.004740661010, -0.085133701563, 0.113226711750, 0.012397617102, 0.030709775165, 0.004471671302, 0.064560122788, -0.056522075087, -0.028768656775, -0.110266618431, -0.120716653764, -0.013288537972, -0.131486192346, -0.109270274639, 0.030495161191, 0.066940136254, 0.036970626563, 0.093790449202, -0.015542481095, -0.059545576572, -0.128211393952, -0.064696654677, 0.039599541575, -0.093554928899, -0.036305837333, 0.062929488719, -0.022688632831, 0.038567908108, 0.003640832379, 0.017172878608, -0.056308116764, 0.000357060082, 0.101908661425, -0.067830666900, -0.106562517583, 0.022064169869, 0.074054770172, -0.120230913162, -0.094397105277, 0.098074950278, -0.120079427958, -0.013628032058, 0.095552951097, -0.030948221684, -0.128388226032, -0.125242456794, -0.109668023884, -0.076544515789, -0.017004283145, 0.036702718586, -0.054969523102, -0.036004744470, 0.117615856230, 0.100303299725, 0.137629047036, 0.020489718765, -0.086238458753, -0.079359620810, 0.048881608993, -0.095256499946, -0.053379863501, -0.060588560998, 0.005015091039, 0.066347099841, 0.045800883323, -0.058401882648, -0.063500218093, 0.009973705746, 0.015219897032, -0.102978959680, -0.101530432701, -0.069456808269, 0.079686425626, 0.066402114928, 0.069441966712, 0.071734428406, 0.143752917647, -0.010116427206, 0.001368600642, -0.077893927693, -0.122563563287, -0.052491970360, 0.114499762654, -0.029767077416, 0.015702709556, 0.147648319602, -0.060491502285, 0.094993390143, 0.036730218679, -0.014966019429, 0.077930040658, 0.111789025366, -0.077369473875, -0.105352014303, 0.079951681197, 0.097918979824, -0.035945616663, 0.035289894789, 0.033259458840, 0.062983065844, 0.137265771627, 0.092756085098, 0.069488473237, -0.108724735677, -0.096383318305, 0.020451603457, -0.038830570877, 0.046691615134, 0.076754488051, -0.092035487294, -0.073091052473, -0.106624886394, -0.093527853489, -0.057929363102, -0.001337317983, 0.106383532286, 0.054772105068, -0.071320265532, -0.120336085558, 0.070439249277, -0.046764455736, 0.072987571359, -0.037552453578, -0.104883387685, -0.069527134299, 0.091342791915, 0.102876834571, 0.007568926550, -0.032103862613, -0.127103000879, -0.057397857308, -0.057845305651, 0.054541084915, -0.108983427286, 0.045715861022, -0.124947890639, -0.116987884045, 0.083037629724, 0.044257413596, -0.045344665647, -0.045467667282, 0.106695450842, -0.119556337595, 0.091627791524, 0.046257648617, 0.115291781723, -0.045693516731, 0.133063048124, -0.039614133537, -0.060104627162, -0.063721038401, 0.095694422722, -0.090784914792, -0.054564062506, 0.033665247262, 0.045450259000, 0.045361436903, -0.084365054965, 0.074758328497, -0.025787608698, 0.122340157628, -0.054675754160, -0.127288013697, 0.034389477223, 0.119674183428, -0.032130375504, 0.029295822605, -0.037462081760, -0.003304735757, 0.097106844187, 0.091936953366, -0.026489362121, 0.085384041071, -0.102979660034, -0.065619893372, -0.050849214196, 0.058316115290, -0.100481539965, 0.041590191424, -0.057274792343, -0.004274648149, -0.103128403425, 0.046821538359, -0.056360729039, -0.046337317675, 0.042801149189, 0.115683928132, -0.109176389873, 0.119749695063, -0.157012715936, -0.004257918335, -0.112214520574, 0.101474963129, 0.074427664280, 0.120143584907, -0.122408740222, 0.101008266211, 0.024656962603, -0.154619753361, 0.049003541470, -0.009385605343, -0.060659687966, -0.059523988515, -0.074897363782, 0.097950838506, -0.052941545844, 0.043304078281, -0.030483206734, -0.025946097448, -0.091267056763, -0.016355028376, 0.027862232178, 0.085399530828, -0.026420967653, -0.107526235282, 0.037422962487, -0.027186125517, -0.043230455369, -0.123378075659, -0.097813606262, -0.056010015309, -0.084075279534, -0.037779677659, 0.098139271140, -0.141551896930, -0.159742414951, 0.078990593553, -0.034363310784, -0.064331836998, 0.073139429092, 0.078649021685, 0.138076558709, -0.103705406189, -0.039107386023, -0.009804699570, -0.071683451533, 0.082686193287, -0.095332756639, -0.065689384937, 0.074411563575, 0.010829118080, 0.103359974921, 0.068478107452, -0.084095910192, 0.099353268743, 0.021915959194, -0.049861233681, -0.028912618756, 0.066486015916, 0.093576580286, 0.149905756116, -0.097526647151, 0.003854072420, -0.048238661140, -0.018696565181, 0.112632721663, -0.096334069967, -0.079705044627, 0.108788698912, -0.083408407867, -0.083122037351, -0.003671548329, 0.044841513038, 0.093884646893, 0.108640104532, -0.008614288643, -0.077947817743, 0.072081804276, 0.092988796532, -0.019526124001, -0.016595073044, -0.117577172816, -0.001424557064, -0.101633638144, -0.077887177467, -0.047117725015, 0.055081900209, 0.023748060688, -0.074164196849, -0.055100638419, -0.076448626816, 0.082520686090, -0.103475369513, 0.046592116356, -0.071825630963, 0.040103610605, -0.052670255303, 0.082341432571, -0.088924795389, -0.085340224206, -0.104033075273, -0.033881731331, 0.125660181046, 0.089694403112, 0.046638641506, 0.103475272655, 0.085232652724, 0.017831956968, 0.076754316688, 0.053665801883, -0.071797244251, 0.153935298324, -0.068423956633, -0.091982685030, 0.033409733325, 0.010079394095, -0.102094337344, 0.056229379028, 0.020973108709, 0.067414924502, 0.112534075975, 0.079801388085, -0.039329890162, 0.122224599123, -0.032827734947, 0.048135530204, 0.070548355579, 0.026233537123, -0.005461847410, -0.111711196601, 0.005768449046, -0.052722733468, -0.092556566000, -0.058474067599, 0.004247090314, -0.026797849685, -0.043117512017, -0.077115267515, 0.028858602047, 0.030274191871, 0.059322815388, 0.102237857878, -0.049295481294, -0.090257510543, 0.110653787851, 0.034718640149, 0.092097669840, -0.059710592031, -0.097399711609, 0.100487202406, 0.095976121724, -0.009546408430, -0.094655558467, -0.041135169566, 0.090874381363, 0.167312055826, -0.066708907485, 0.146505892277, 0.104154177010, -0.119181387126, -0.025350453332, 0.047719039023, 0.039207383990, -0.118280760944, -0.020992893726, -0.073529586196, -0.024015665054, -0.123184621334, 0.061295151711, 0.104831710458, 0.103064358234, -0.112741775811, -0.083366282284, 0.050991371274, -0.120932497084, 0.031890206039, -0.097054578364, 0.042703725398, 0.095750898123, -0.049690138549, 0.056403119117, 0.087683342397, -0.111753404140, -0.065692111850, 0.039030767977, 0.039592318237, 0.040843639523, -0.056321345270, 0.017051588744, 0.005969838705, -0.077732868493, -0.097779206932, -0.067711941898, 0.002584874863, 0.046423725784, 0.036157488823, -0.055232331157, -0.040335748345, 0.061032332480, 0.031021546572, -0.057927843183, 0.130961984396, 0.112113684416, -0.009012463503, 0.124232076108, -0.091237656772, 0.039871964604, 0.045129291713, 0.087407112122, 0.109957143664, 0.049324989319, 0.062573403120, -0.007049932610, -0.129957780242, -0.008618305437, -0.025700716302, -0.010211319663, 0.097060620785, -0.064897149801, 0.124647773802, -0.063595347106, 0.034082636237, -0.105473950505, -0.024474410340, 0.012254245579, 0.083524435759, -0.057307619601, 0.044716712087, 0.009718108922, -0.007304705214, 0.080379553139, -0.045972947031, -0.061569299549, -0.081593073905, 0.058361250907, 0.094948962331, 0.028686277568, -0.000223657116, 0.082987219095, 0.035363838077, 0.097007714212, -0.064328335226, 0.024199791253, -0.008406603709, 0.118252664804, 0.113060250878, -0.061593901366, 0.124665938318, -0.005087606609, -0.026064198464, -0.054206285626, 0.064852580428, 0.074818201363, -0.077932558954, -0.026544114575, 0.051772732288, 0.020741729066, 0.077160120010, -0.091472826898, 0.059254452586, -0.108268149197, 0.004378831480, 0.040424685925, 0.007243677042, -0.134767934680, 0.041160713881, 0.017986668274, 0.083597645164, -0.094430796802, -0.103251874447, -0.062688723207, 0.015719391406, 0.091587528586, -0.098093315959, -0.035059198737, -0.065244331956, 0.084410294890, 0.001143177273, -0.097704596817, -0.093244776130, 0.093873225152, -0.083041124046, 0.046313464642, 0.030718805268, 0.132417395711, 0.104979395866, 0.070821158588, -0.068270653486, -0.153009116650, 0.085673473775, 0.047287512571, 0.026919106022, -0.128745898604, 0.074600547552, -0.091947034001, -0.071222908795, 0.037419430912, 0.015085454099, 0.075940288603, 0.045801308006, -0.057010661811, -0.064775519073, -0.007494481280, -0.127962276340, 0.121134690940, 0.115574561059, -0.120535939932, -0.014849278145, -0.041221324354, 0.120961815119, -0.037159677595, -0.027545500547, -0.054105084389, -0.030887212604, -0.006854225881, -0.066488325596, -0.084785960615, 0.135560393333, 0.099128782749, 0.126470789313, -0.002299511340, -0.078864596784, -0.002376949415, -0.117088004947, -0.034703128040, -0.086416170001, -0.078192256391, -0.002365249908, -0.127801835537, -0.116251423955, -0.088178887963, -0.066763743758, 0.072134099901, 0.098224528134, -0.108839884400, 0.022780122235, -0.044850014150, -0.022098228335, -0.123529240489, -0.111272625625, 0.008176630363, -0.111797623336, 0.010032236576, -0.033173963428, 0.113206535578, -0.047639150172, -0.115485742688, 0.119325906038, 0.121003821492, 0.178473874927, 0.087230108678, -0.050092305988, 0.084029585123, 0.058344081044, -0.131070271134, -0.041763942689, -0.119119673967, 0.109252817929, -0.154734745622, -0.025680249557, 0.074824690819, 0.087279669940, -0.050903797150, -0.099027968943, 0.031049944460, 0.071601115167, 0.059190195054, 0.050501704216, 0.002259288915, -0.080854974687, -0.085710398853, 0.050959713757, 0.011177064851, 0.028153833002, 0.088811293244, 0.073966890574, -0.126152142882, -0.055496685207, -0.085855960846, -0.053115382791, 0.057024706155, 0.059585422277, -0.150374203920, 0.006950258743, 0.139033779502, 0.004583922215, 0.140425696969, 0.043732143939, -0.137345954776, 0.014760488644, 0.119427859783, 0.042339850217, -0.123107932508, 0.075335279107, -0.047812502831, 0.109193488955, 0.112198814750, -0.007474651560, -0.131059542298, -0.090772576630, -0.038907036185, -0.104252904654, -0.019919963554, 0.063019730151, 0.113360583782, 0.116446182132, -0.102486953139, 0.012801839970, -0.002764857607, 0.103731706738, 0.063189469278, 0.128550246358, -0.137087330222, 0.105450466275, 0.011990587227, 0.134894087911, 0.001240415499, -0.117250353098, 0.021354034543, 0.019764730707, -0.079632766545, 0.141814649105, 0.082887470722, 0.083978652954, 0.016830297187, -0.038481291384, 0.055429767817, 0.069635972381, 0.015108797699, 0.125966742635, 0.016425857320, -0.041793316603, 0.081662215292, 0.051470704377, -0.038313537836, -0.001737344079, 0.012318350375, -0.067228034139, 0.024951003492, 0.019490048289, -0.128633186221, 0.037706650794, -0.121050454676, 0.072619907558, 0.050390858203, 0.020942477509, -0.064785689116, -0.130132943392, -0.104129858315, -0.092455551028, -0.076504111290, -0.006340852473, 0.082071311772, 0.014335015789, -0.068328574300, -0.076211743057, 0.110857889056, 0.006858890411, -0.010760948062, -0.055623624474, -0.036737043411, 0.109498761594, 0.102328158915, -0.098818361759, 0.065295852721, -0.014746382833, -0.008436190896, -0.054700847715, -0.045931052417, -0.046366300434, -0.005548611283, 0.077728733420, 0.100990481675, -0.117687486112, 0.085727185011, 0.100117743015, -0.076496161520, 0.034259829670, -0.060183353722, 0.065144985914, -0.019597833976, -0.006203431636, 0.049358088523, 0.023804338649, -0.033973976970, -0.002214074600, 0.081077530980, 0.060920294374, 0.154322445393, -0.035656291991, -0.135705754161, -0.042618725449, -0.028703933582, 0.067872934043, 0.007133784238, 0.051820918918, -0.029630606994, 0.127045765519, -0.023489063606, 0.052037496120, 0.055869333446, -0.068239167333, 0.088787697256, -0.129929065704, -0.050714839250, 0.011269674636, -0.116740137339, -0.076372958720, -0.012542320415, -0.090179190040, 0.047949656844, -0.024002335966, 0.004006707575, 0.035357177258, 0.058196943253, 0.023593204096, -0.098237521946, 0.034475799650, -0.098574653268, 0.092067800462, 0.050182681531, 0.060374718159, 0.050622075796, -0.070382051170, 0.080699868500, -0.053108040243, -0.112164981663, -0.024139136076, 0.130311161280, 0.010032397695, 0.119332216680, 0.068623855710, 0.004424799699, 0.067103177309, 0.084788091481, 0.113956533372, 0.013602365740, -0.042825445533, 0.141547650099, -0.055737704039, -0.067658863962, 0.113004632294, -0.017098473385, -0.045264948159, -0.050590485334, 0.088662020862, 0.062126662582, 0.082280218601, -0.053642515093, -0.047344584018, -0.106012552977, 0.068344168365, -0.081484876573, 0.135118037462, 0.058124683797, -0.132728308439, -0.102338910103, 0.115031763911, -0.106244906783, 0.000431957829, -0.118713103235, -0.054614417255, 0.051984954625, -0.072414405644, -0.117738954723, 0.125810071826, 0.080388680100, -0.031803417951, -0.025318020955, -0.021003967151, -0.014154274017, -0.094475403428, 0.098112039268, 0.119989223778, 0.066443808377, 0.037330478430, 0.060902472585, -0.021624896675, -0.015802660957, -0.053859915584, 0.013068673201, -0.060868304223, 0.094026766717, -0.037586089224, 0.009095091373, 0.038778223097, 0.083874002099, -0.120990499854, -0.103995561600, -0.034543860704, -0.063610397279, -0.032565250993, -0.027488347143, -0.059799659997, -0.107223317027, -0.124055989087, -0.088110670447, 0.096170455217, 0.030677884817, -0.053818572313, 0.023103097454, -0.092526018620, -0.071246586740, -0.008645018563, 0.058415614069, -0.044629778713, 0.031700652093, 0.086709007621, -0.141161814332, 0.064641140401, -0.118524052203, -0.052197568119, 0.025614734739, -0.003912708722, 0.097398601472, 0.008475054055, -0.075797609985, -0.088740102947, 0.001622175798, 0.008498895913, -0.049822635949, 0.083031356335, -0.124028757215, 0.118941918015, 0.061763796955, -0.058740735054, -0.118532478809, 0.015992227942, -0.018663115799, -0.095643214881, -0.049950048327, 0.011386002414, 0.035666313022, -0.026647150517, -0.140520930290, -0.184867024422, -0.097730197012, -0.047145642340, -0.046269103885, 0.119594529271, 0.020081557333, -0.085259407759, 0.094781339169, 0.117165833712, -0.102809771895, 0.002473983681, -0.078538216650, 0.031665209681, 0.081233143806, 0.046003673226, -0.146821022034, -0.116781346500, -0.084315441549, -0.086819000542, -0.048731032759, 0.048566993326, 0.071521535516, -0.005488868803, -0.088861532509, 0.050403576344, 0.151937767863, -0.110338866711, -0.025945927948, -0.069225564599, -0.082692168653, 0.018872736022, -0.121370457113, 0.083205550909, -0.023977417499, 0.095779985189, -0.068066120148, 0.021422684193, -0.118726432323, 0.056468345225, -0.039088238031, 0.043141283095, -0.047185774893, 0.063923023641, 0.121819064021, -0.081585749984, -0.094282723963, -0.050727654248, 0.031824618578, -0.042698476464, -0.077248513699, 0.100139074028, 0.041815016419, -0.007099781185, 0.091633506119, 0.009377050214, 0.107805080712, 0.023811575025, 0.027969008312, 0.130666539073, -0.062606789172, 0.095829308033, -0.080233909190, -0.076297983527, 0.009929563850, -0.048785679042, 0.087387934327, -0.069240801036, -0.119650989771, 0.057147800922, 0.056317150593, 0.056772794574, -0.091995134950, -0.015550447628, -0.046346843243, -0.073085740209, 0.107791326940, -0.099751383066, -0.129156976938, 0.073971167207, -0.120903655887, -0.057151056826, -0.032114151865, 0.025304967538, -0.066811189055, -0.136072069407, -0.063210643828, -0.016622470692, -0.002698807279, -0.104353085160, -0.046964228153, -0.053892165422, 0.043958090246, 0.092814110219, -0.119774058461, 0.054185859859, -0.059065043926, -0.006409844849, 0.064703777432, -0.111956246197, -0.030596261844, -0.097247101367, -0.096728406847, 0.025185253471, 0.010719446465, 0.030558239669, 0.142951816320, -0.067591249943, 0.086771011353, 0.050071015954, -0.090191841125, -0.040036465973, -0.095341436565, -0.024400874972, -0.130419939756, 0.001593979658, -0.040958505124, -0.010434409603, 0.045620840043, 0.021394956857, -0.030126530677, -0.102209702134, -0.087672941387, -0.071944527328, 0.049541078508, 0.104487158358, -0.082603402436, 0.143600165844, 0.015665106475, 0.126462548971, 0.079349853098, 0.039811514318, 0.086093470454, 0.031763367355, 0.031029464677, -0.119328327477, -0.120859816670, 0.024491289631, 0.030824497342, 0.030021414161, -0.118908926845, -0.066350661218, -0.017640726641, -0.005743156187, 0.011436590925, 0.006661793683, 0.076832786202, -0.061519443989, -0.066928677261, 0.126689121127, -0.022689426318, 0.031132349744, 0.003731566714, -0.107705175877, 0.091182768345, -0.009344514459, -0.065791994333, 0.040639005601, 0.119778066874, -0.012254984118, -0.080335393548, 0.009846920148, -0.119031891227, 0.023110102862, -0.063496470451, 0.061569564044, -0.110319361091, 0.069133706391, -0.006683585700, -0.092008538544, 0.070129938424, 0.141379654408, -0.082629315555, 0.078915879130, -0.068939030170, -0.047465145588, 0.057134959847, 0.068364366889, -0.061392642558, 0.144343197346, -0.159344941378, -0.140655785799, -0.101466916502, 0.084258966148, 0.082288369536, -0.017050314695, -0.107933104038, 0.036300014704, 0.093968309462, -0.020440910012, 0.092283777893, 0.118559777737, 0.055747315288, 0.055075749755, -0.042644429952, -0.082563310862, -0.078751623631, -0.086307823658, 0.121735498309, -0.056754484773, -0.024814432487, 0.016358383000, 0.117959782481, 0.059073273093, -0.026891464368, -0.077430196106, 0.065990895033, -0.113632917404, 0.048861585557, -0.075294218957, 0.132946297526, 0.048477802426, -0.033217765391, -0.009706079960, -0.071910090744, 0.055795349181, 0.027333287522, -0.013910533860, -0.022343885154, 0.057270567864, 0.076138451695, 0.089841179550, -0.087860085070, 0.072584718466, 0.023453217000, 0.075870327652, -0.021945089102, -0.098574139178, -0.073107264936, -0.087962336838, -0.095653712749, 0.052137814462, 0.006515371148, 0.103923328221, -0.114957749844, 0.056853134185, -0.030637264252, -0.129204943776, 0.086736485362, 0.068843588233, -0.062663361430, 0.066196769476, -0.114588908851, 0.138593062758, 0.002690887777, -0.046394094825, -0.118568770587, -0.125601500273, -0.043325044215, 0.115614295006, 0.032643511891, -0.027494430542, 0.006270893384, 0.007640372030, -0.099452912807, -0.009368923493, 0.057520292699, -0.026967419311, -0.125083804131, -0.008236803114, 0.027640393004, -0.047773711383, -0.124310463667, -0.126048386097, 0.095490619540, -0.098906733096, 0.032992720604, -0.026441829279, 0.008666623384, -0.100290693343, -0.104648470879, 0.049350805581, -0.087942697108, -0.074862755835, 0.006271126680, 0.043400533497, -0.037999451160, 0.003726541065, -0.041031256318, 0.003011353780, -0.131164774299, -0.047761328518, -0.017155380920, -0.094062231481, 0.088520400226, 0.130048662424, 0.052731629461, -0.124494522810, -0.097743697464, -0.095297455788, -0.077172942460, -0.066437482834, -0.061277311295, 0.079627722502, -0.061683114618, -0.057282067835, -0.076421931386, 0.013612006791, 0.098771996796, -0.057415228337, -0.187017664313, -0.001067757024, -0.018819674850, 0.010377033614, -0.053083259612, 0.059710904956, 0.028569167480, -0.119053713977, -0.040058091283, 0.051240026951, 0.038195304573, -0.127610296011, -0.126906931400, -0.095195561647, 0.104196734726, -0.007923229598, -0.075384050608, 0.080835357308, -0.093865647912, 0.053709484637, -0.047779366374, 0.081965334713, 0.034958776087, -0.057543773204, -0.015203956515, -0.014919640496, -0.032986540347, -0.000291987526, -0.009018871002, 0.110716871917, -0.040639370680, -0.026284987107, -0.092846594751, 0.020554704592, 0.122905761003, -0.007336447015, -0.057063784450, 0.034903198481, 0.047480955720, -0.044875204563, -0.040889266878, 0.078337229788, -0.096217796206, 0.067318245769, -0.007720451802, 0.070299856365, -0.034472681582, 0.095276378095, 0.030255593359, -0.122656241059, 0.089242376387, 0.002420228207, 0.059012111276, -0.016556898132, 0.063762024045, -0.059061173350, 0.071844719350, -0.025058424100, -0.094846740365, -0.109867960215, 0.204601153731, 0.099810853601, -0.108743973076, 0.061913043261, -0.034021522850, 0.087031051517, 0.021108945832, -0.055915433913, 0.128350287676, -0.071120470762, 0.088222332299, -0.071568302810, -0.065729625523, -0.033575709909, 0.033715218306, -0.079919725657, -0.022423988208, 0.082993760705, -0.111927799881, -0.019839309156, 0.120190955698, 0.093361705542, 0.042949639261, 0.103863619268, -0.081892974675, 0.025990726426, -0.097066484392, 0.134569451213, -0.123300038278, -0.113173350692, 0.054420486093, -0.047333180904, 0.034046757966, -0.023298455402, 0.047541912645, 0.113115303218, 0.058017250150, -0.093776844442, 0.005710181314, 0.123124368489, -0.105485364795, 0.108752503991, 0.025572931394, -0.125492632389, 0.092287428677, 0.121376916766, 0.054976746440, 0.027167363092, 0.115060977638, 0.022194506600, 0.097904302180, 0.075529381633, -0.016506033018, -0.115182280540, -0.016720460728, -0.050263304263, -0.056012913585, -0.060299478471, 0.114309474826, -0.124113231897, 0.114992998540, 0.051582366228, -0.050283979625, 0.054051026702, -0.069401472807, 0.061463013291, -0.061953369528, 0.001568300882, -0.078380629420, 0.043270766735, -0.035797093064, 0.028787104413, -0.045949723572, 0.100520357490, 0.012056085281, -0.155168756843, -0.052782535553, 0.036563601345, 0.092788055539, -0.007961872034, -0.036055959761, -0.111122407019, 0.026063941419, -0.003295887960, -0.046268746257, 0.049978818744, -0.009242235683, -0.120970830321, 0.084925293922, 0.048973847181, -0.118130929768, -0.011632793583, 0.071767650545, -0.020652664825, 0.054847020656, 0.077838525176, -0.042940735817, 0.123807609081, 0.005388195626, -0.113141082227, -0.098664835095, -0.022495144978, -0.070686340332, 0.045308228582, -0.047131847590, -0.130960598588, 0.059858579189, 0.038937896490, -0.121152453125, -0.065306328237, -0.055131565779, 0.000138777250, -0.040747553110, 0.095174513757, 0.043088071048, -0.076033703983, 0.079945005476, -0.002218512818, -0.100190751255, -0.124156601727, -0.054633736610, -0.088279843330, -0.063004501164, -0.111216932535, -0.059381593019, 0.020608138293, 0.001600294374, 0.074350737035, 0.112687982619, 0.023487655446, -0.091544307768, -0.023475388065, 0.111963741481, -0.069154746830, 0.003527204972, -0.108043678105, -0.050393871963, 0.009570379741, -0.054372210056, -0.109186060727, 0.050853896886, -0.047611080110, 0.038671866059, 0.114529572427, -0.059309776872, -0.053179357201, 0.153871491551, -0.101182959974, -0.145847782493, -0.109317265451, 0.114198476076, 0.088242925704, 0.130226224661, -0.102058403194, -0.045281834900, 0.074968658388, 0.067276112735, -0.014326700009, 0.089039750397, -0.052742153406, 0.028473680839, 0.058458451182, -0.050691165030, -0.059956084937, 0.042843308300, -0.066854372621, -0.115106180310, 0.124513804913, -0.109107397497, 0.110790200531, 0.012844284996, -0.040093079209, -0.027020977810, -0.047208238393, -0.090952143073, -0.016660017893, -0.078066229820, 0.091077126563, 0.030969560146, -0.013405065984, 0.000504417461, -0.049783073366, -0.014511732385, -0.025638654828, -0.068239666522, -0.055505536497, -0.002837699605, -0.000186379475, 0.074635900557, -0.047557711601, -0.020942151546, 0.071021139622, -0.062291007489, 0.044354584068, 0.002405029256, -0.087581269443, 0.094858042896, -0.126684844494, -0.124021075666, -0.053554687649, 0.091840699315, -0.028484076262, -0.030104462057, -0.009562680498, 0.026443893090, 0.071717560291, 0.122528947890, 0.042767785490, -0.028181329370, 0.059332571924, 0.020797062665, -0.028309304267, -0.077457711101, 0.085394978523, -0.010475155897, 0.000912874995, 0.103943273425, -0.006230767351, 0.027965990826, -0.073124960065, 0.033999286592, 0.047201301903, 0.137449100614, 0.066224396229, 0.007661669515, -0.023357313126, 0.018439373001, 0.098769880831, -0.002788415644, 0.070163741708, -0.031780850142, -0.058502003551, 0.030171945691, -0.014520696364, 0.116797000170, -0.096119947731, 0.036235183477, -0.066871732473, -0.103717133403, 0.107854522765, 0.030161993578, -0.081067942083, 0.112013749778, 0.080153942108, -0.075345814228, 0.002828222467, -0.094554394484, -0.064290061593, 0.033437337726, -0.003176057013, -0.030585557222, 0.063213661313, 0.027943735942, 0.029338799417, 0.068155378103, 0.030466819182, 0.101389199495, -0.112708784640, -0.025874581188, -0.062284998596, 0.112615801394, 0.107065819204, 0.100345559418, -0.036756232381, 0.087214186788, 0.072559736669, -0.045236662030, 0.126474514604, -0.104252211750, 0.004761532880, 0.116251654923, -0.004481954500, 0.053902409971, -0.079005874693, 0.029961969703, 0.179951176047, 0.071849621832, 0.012869028375, 0.096158310771, 0.122403360903, -0.091814078391, 0.126520723104, 0.094747230411, 0.019746454433, 0.004057190381, -0.000248151307, -0.060283236206, 0.101188436151, 0.076062127948, -0.047090817243, -0.115630686283, 0.080712147057, -0.085010014474, -0.164246141911, 0.097203068435, -0.021149266511, -0.094580017030, 0.078676261008, -0.052632350475, 0.024635529146, 0.148120045662, 0.072630770504, -0.085706368089, 0.084803506732, 0.110658273101, -0.041613999754, 0.008222406730, -0.056970961392, -0.092344678938, -0.088737085462, -0.058918729424, -0.034647505730, -0.091066829860, 0.022461824119, 0.037187051028, 0.030558478087, 0.094095677137, 0.067594766617, 0.111298523843, -0.017442341894, 0.100218616426, -0.018366651610, 0.014707431197, 0.057642899454, 0.019072942436, 0.052174605429, 0.121653176844, 0.078633069992, -0.010843426920, -0.111285127699, -0.108982726932, 0.050690498203, 0.054461464286, -0.062867522240, -0.059163190424, 0.130602180958, 0.015310776420, -0.071708254516, -0.036966796964, 0.122088529170, 0.004455711227, -0.001957882661, -0.020980363712, 0.035394899547, -0.051216058433, 0.016303800046, 0.033166415989, 0.051535028964, 0.110144004226, -0.021175585687, -0.049269311130, -0.027019910514, -0.087040990591, -0.119100056589, 0.059408511966, -0.117354162037, 0.103116489947, -0.102670162916, -0.069358035922, 0.091469928622, -0.122247368097, -0.132380381227, 0.045306414366, 0.111536778510, 0.131192207336, 0.054539784789, 0.051250267774, -0.017194975168, -0.005811638664, 0.110855840147, 0.044926252216, 0.049239147455, -0.074191167951, 0.031555738300, 0.039094775915, 0.102688297629, 0.084595464170, 0.043336976320, 0.092517815530, 0.104444757104, -0.013464261778, -0.022833321244, -0.110055975616, 0.106631889939, -0.098245404661, 0.082688279450, 0.106652863324, -0.022083783522, -0.109867796302, 0.037682361901, -0.055768527091, -0.095632992685, -0.036138880998, -0.094217911363, 0.127166807652, 0.038639690727, -0.102786242962, 0.014850128442, -0.040971726179, -0.051601201296, 0.082935325801, 0.068189166486, -0.135901212692, -0.017005436122, 0.000668479712, 0.125369414687, 0.037978459150, -0.115970969200, -0.119543842971, -0.030684325844, -0.110032707453, -0.107506573200, -0.033831417561, -0.059143945575, 0.036205664277, -0.075789131224, 0.117132790387, 0.071161761880, 0.045705616474, -0.090670377016, 0.125535398722, -0.034181825817, 0.009198263288, -0.110070697963, 0.005242416169, -0.094112880528, 0.103453315794, 0.025029174984, 0.039704062045, 0.052179187536, 0.045358702540, 0.068055063486, 0.078714840114, -0.058833926916, 0.100965783000, -0.013743467629, -0.001835835166, 0.067304223776, -0.015612216666, -0.029404565692, -0.075171068311, 0.097497060895, -0.073098286986, -0.037000093609, 0.100088298321, 0.071789152920, 0.043716840446, -0.056989282370, -0.088952459395, 0.065034992993, -0.025059182197, -0.055221185088, 0.030645320192, -0.063286930323, -0.156641915441, -0.085521310568, 0.079940959811, -0.119666852057, -0.089226156473, 0.100021243095, 0.126350536942, -0.052479065955, -0.054983686656, 0.043512564152, 0.077278375626, 0.141585052013, -0.081667661667, -0.075792439282, -0.014588921331, -0.055665638298, -0.128887861967, -0.152249187231, 0.147818103433, -0.049279589206, 0.083507157862, 0.076193876565, 0.113068073988, 0.061773296446, 0.045860413462, 0.030050717294, -0.047692831606, -0.107453808188, -0.051022917032, -0.025944035500, -0.065808251500, 0.117593795061, -0.113613210618, 0.062602370977, -0.067516982555, 0.018357384950, -0.067740932107, -0.104470282793, -0.115225784481, -0.098554335535, -0.024257531390, -0.079523928463, 0.047678451985, 0.125718235970, 0.092017099261, -0.084048621356, 0.125325575471, -0.109608970582, -0.102122195065, 0.053867250681, -0.097581230104, 0.106683745980, 0.026161294430, 0.049724120647, -0.055418342352, -0.107766725123, 0.054590664804, 0.093207858503, -0.015100210905, -0.065344750881, 0.071569278836, 0.048621430993, -0.080975517631, -0.068030767143, 0.023190706968, -0.031276453286, -0.045440390706, -0.038270693272, 0.087968595326, -0.114549279213, 0.008105439134, 0.124556787312, 0.084637984633, 0.085336148739, -0.049927327782, -0.026627575979, -0.107993245125, -0.067256137729, -0.036692868918, -0.009552670643, 0.079000644386, -0.087827421725, 0.077662229538, -0.005300233141, 0.002193380380, 0.057244077325, -0.071427538991, 0.095109619200, 0.023026509210, -0.073667734861, 0.000314669393, 0.143838122487, 0.073618888855, 0.096550270915, -0.001399735687, 0.069754026830, -0.083198860288, 0.006936385296, -0.090305238962, -0.074646167457, -0.109366126359, 0.101967856288, -0.075825698674, -0.041488893330, 0.075292117894, -0.070891983807, -0.098458118737, 0.097797334194, 0.059559822083, 0.098939940333, 0.026475295424, -0.111291840672, 0.071524314582, 0.130690217018, 0.085370272398, -0.079128563404, -0.088274121284, -0.117525801063, -0.001449225703, 0.089698553085, 0.120752267540, -0.072263203561, -0.008875220083, 0.070595473051, -0.031120778993, 0.112168721855, 0.093541264534, -0.045372564346, 0.079095497727, 0.089547932148, 0.051219113171, 0.142504498363, 0.035025164485, 0.037868030369, -0.070089660585, -0.027244333178, -0.122760936618, -0.019515490159, 0.026284011081, -0.127557560802, 0.028940550983, -0.053943373263, 0.060368649662, 0.026418328285, -0.085843577981, -0.087419122458, 0.124219149351, -0.052347127348, 0.006569029763, -0.107482604682, -0.060789261013, 0.015788305551, 0.007546924055, -0.074523702264, 0.087281659245, -0.056383997202, 0.073516435921, 0.103461764753, 0.032824348658, 0.078296251595, -0.009144158103, 0.009418798611, 0.071294948459, -0.059173252434, -0.098858565092, -0.072608441114, -0.113920666277, 0.023075558245, -0.108104042709, -0.118593357503, 0.148428246379, -0.122459188104, 0.047658484429, 0.149551615119, 0.037765353918, 0.054128915071, -0.111993402243, 0.116528853774, -0.070938929915, -0.066633783281, -0.025972992182, 0.078721314669, -0.095007032156, 0.102915801108, 0.045766610652, -0.037185393274, 0.131032034755, 0.055365569890, -0.152436479926, 0.023361278698, 0.057203121483, -0.040865328163, 0.035891398787, 0.085129760206, 0.037879232317, 0.020286185667, -0.128428637981, -0.047962393612, -0.070730648935, -0.057105548680, 0.007982404903, 0.069221876562, 0.119319438934, -0.056555651128, -0.079716451466, -0.076263882220, 0.003265099134, -0.008559267037, -0.005328035448, -0.160113200545, 0.035233832896, 0.006951787975, -0.101948849857, 0.159893125296, -0.008525844663, -0.017022429034, 0.004915080033, 0.063834942877, -0.029018355533, -0.001212690957, -0.110145650804, -0.094572998583, 0.089097693563, 0.101710706949, -0.015346315689, -0.072489663959, 0.034586112946, -0.033201515675, 0.024773783982, 0.111839152873, 0.049456983805, 0.106812775135, 0.014749689959, 0.089040100574, -0.034973416477, 0.013598695397, 0.134372726083, 0.091613709927, -0.054999452084, -0.070209734142, 0.019774241373, 0.070957012475, -0.099085666239, 0.017292140052, 0.087279185653, 0.085482016206, -0.045403543860, 0.086154222488, -0.047648292035, -0.054017238319, -0.087915129960, 0.094477042556, -0.013492737897, -0.058629579842, -0.128185018897, 0.005571174901, 0.078014329076, -0.077393375337, 0.099128529429, 0.007724395487, 0.015325319022, 0.055229779333, -0.124122157693, 0.142705112696, -0.004111744463, 0.028072038665, 0.012198113836, 0.017683625221, 0.011097814888, 0.067710712552, 0.112485788763, -0.096785910428, -0.141281098127, 0.039672806859, -0.026074854657, -0.008290158585, -0.054551456124, 0.092979103327, -0.041069645435, 0.001833918504, 0.058366410434, -0.043018277735, 0.031225906685, 0.082627236843, -0.032137058675, -0.041207611561, -0.056635640562, -0.074197217822, 0.071668460965, 0.061022285372, -0.100091025233, -0.003057006281, -0.089168503881, -0.044124081731, 0.097568757832, -0.080212153494, -0.073896542192, 0.093270860612, -0.027887139469, -0.063708871603, 0.043847542256, 0.213374048471, 0.052459381521, 0.105814293027, 0.009166130796, 0.085079938173, 0.050063505769, -0.022040514275, -0.173235967755, -0.073496364057, -0.049719151109, -0.061618939042, 0.017660884187, -0.044891063124, -0.075839385390, -0.070169486105, -0.139676645398, 0.097133643925, 0.014369520359, -0.098217099905, 0.104759611189, 0.093877620995, -0.078273698688, -0.082542590797, -0.024974627420, -0.008961720392, -0.080540321767, 0.113827861845, -0.074901975691, 0.055092561990, -0.078319862485, -0.000495906454, 0.111264072359, 0.015876730904, -0.075670637190, -0.105216100812, 0.058893010020, -0.048801835626, 0.010727913119, -0.132047951221, 0.100092068315, 0.063195578754, 0.114209890366, -0.035908728838, -0.032959848642, -0.118206247687, 0.047912549227, -0.092237964272, -0.016460586339, -0.096308931708, -0.090195156634, -0.100469343364, 0.039306648076, 0.036529358476, -0.074037358165, -0.083873376250, 0.012041649781, 0.044709380716, -0.016341723502, 0.047480557114, 0.007757701445, 0.006281107664, -0.008294776082, 0.103897482157, 0.024497954175, 0.023285493255, 0.054950915277, -0.107000276446, 0.052774645388, 0.002438832074, 0.060846567154, 0.006980331149, -0.031795550138, 0.053144685924, -0.102301970124, 0.097544774413, -0.072904258966, 0.057631529868, -0.085716910660, 0.008512567729, 0.015038358048, -0.046008609235, 0.065162532032, 0.056752432138, -0.124790556729, 0.079625762999, -0.044097047299, 0.054765757173, -0.101582661271, 0.018247202039, -0.044130884111, 0.116306208074, -0.067728757858, 0.029795549810, 0.075007312000, 0.002626392059, 0.043988101184, -0.117827020586, 0.029817892238, 0.006991570815, 0.050616119057, 0.033970382065, 0.040153365582, 0.012213421986, 0.037806518376, -0.125006139278, -0.061914946884, -0.032224904746, 0.003886628198, -0.113289386034, -0.022685227916, 0.070512957871, 0.011174581014, -0.117815576494, 0.057854313403, 0.118507765234, -0.093295164406, 0.032389972359, -0.060349002481, -0.036941453815, 0.013187764212, -0.118393614888, 0.057156547904, -0.107628248632, 0.081164278090, -0.055789910257, 0.101074941456, 0.033299237490, -0.033054448664, 0.108991883695, -0.049043104053, -0.077225267887, 0.045063782483, -0.045123454183, 0.106104336679, -0.053528867662, -0.038295757025, -0.014370776713, -0.040823422372, -0.007460183930, -0.060275811702, 0.089550420642, -0.092036589980, -0.110942840576, 0.095587834716, 0.116075761616, -0.018060689792, -0.100207790732, 0.028202218935, -0.102756604552, -0.000727313571, -0.079766392708, 0.117543481290, 0.071830824018, -0.122567161918, -0.105123803020, -0.031618155539, 0.056265033782, -0.006331308279, 0.020941499621, -0.044436965138, -0.105564452708, 0.030934955925, 0.069197759032, -0.124002970755, 0.059021566063, -0.063118971884, -0.120212920010, 0.064811892807, 0.058513231575, -0.021796666086, 0.071117721498, -0.019864169881, -0.069707579911, 0.117018230259, -0.072780378163, -0.086758270860, -0.058365602046, -0.098380841315, 0.103493407369, 0.030143313110, 0.003908030223, -0.020122574642, 0.030568197370, 0.122146554291, 0.036583267152, 0.001962487120, -0.021751169115, 0.107804462314, -0.085703983903, -0.106216087937, -0.089685618877, -0.072972372174, -0.061322771013, -0.059115435928, -0.055427782238, -0.103843770921, -0.029479581863, -0.045546770096, 0.121146321297, 0.078938052058, 0.056993938982, 0.032977905124, -0.047933556139, -0.125565096736, -0.153965994716, 0.052243229002, -0.007600424811, -0.115329422057, -0.112996719778, -0.069801114500, 0.061374735087, 0.110616020858, 0.094707891345, 0.003903468139, -0.072771489620, -0.010212524794, 0.019876414910, 0.034688867629, -0.034396059811, -0.066193677485, 0.126498892903, 0.012921610847, 0.000392063288, -0.013479446061, -0.040213458240, -0.074708156288, -0.055894967169, 0.077419690788, -0.002259585774, -0.053018298000, -0.020576111972, 0.003923351411, -0.026437219232, -0.083706565201, 0.018156310543, -0.109423071146, -0.015588625334, 0.053538523614, 0.106921553612, -0.097833633423, 0.047751419246, -0.003384343348, 0.048700127751, 0.001299304771, 0.005036189221, 0.010561573319, 0.083417177200, -0.009983730502, 0.121651917696, -0.031342208385, -0.048834480345, -0.103722371161, -0.101806052029, 0.095334827900, 0.056901123375, 0.107038773596, 0.060346752405, 0.079809240997, -0.055790066719, 0.094759553671, -0.023422501981, 0.005135467742, 0.119753986597, 0.020722616464, -0.035616870970, 0.028880253434, -0.115539938211, 0.020596783608, -0.134947299957, -0.039602514356, -0.039670415223, 0.029581002891, 0.075793676078, -0.100332349539, 0.010027504526, -0.112821236253, -0.106536030769, -0.075810551643, -0.024932937697, 0.058017492294, 0.019637966529, 0.150244235992, 0.067109063268, -0.042345143855, 0.080878525972, 0.020162576810, -0.002770920051, 0.066656425595, -0.111250564456, -0.050092209131, 0.062939547002, 0.067810028791, 0.159299954772, 0.033531434834, 0.018545208499, -0.084092758596, -0.063639089465, 0.097328945994, 0.058240987360, 0.057514037937, 0.096055850387, -0.122844405472, 0.096354000270, -0.149749785662, 0.106245428324, -0.018088987097, -0.048936728388, 0.139745190740, 0.111000232399, 0.058140549809, -0.116630993783, -0.076686866581, 0.094522975385, 0.098782800138, -0.076946452260, 0.170643389225, 0.013226699084, -0.052420452237, -0.109509512782, -0.106369167566, 0.006860929076, 0.107945255935, -0.011898724362, 0.134230867028, -0.003771217540, 0.060444623232, 0.043395347893, -0.108052819967, 0.038978513330, -0.049332097173, 0.088552020490, -0.120211131871, 0.126285463572, -0.021177681163, 0.024092577398, -0.123908303678, 0.047431707382, 0.048140197992, 0.108621403575, -0.004936686251, 0.103231847286, -0.093950293958, -0.069613918662, 0.000191542713, -0.119034275413, -0.037351761013, -0.047774981707, 0.073606222868, -0.109477847815, -0.052613504231, 0.074129097164, 0.093091197312, -0.141432523727, -0.099197953939, 0.089394010603, -0.046788342297, -0.062690570951, 0.028065314516, -0.111743524671, -0.075621612370, -0.079247169197, -0.062509737909, -0.066631540656, -0.075715392828, 0.192880466580, 0.025062983856, -0.078502967954, 0.030929535627, -0.076837189496, 0.041226040572, -0.091319397092, 0.096645615995, -0.066813908517, 0.111624829471, 0.074374973774, 0.055047839880, 0.083944804966, 0.076827391982, 0.099439740181, 0.076754458249, 0.045472644269, 0.134910985827, 0.004163349513, 0.023215195164, 0.026392450556, 0.049344170839, -0.100537523627, 0.078498311341, -0.165363505483, 0.083479911089, 0.067003943026, -0.036992236972, -0.041491273791, 0.075660072267, 0.057970318943, 0.050881907344, 0.117533929646, -0.060212351382, -0.130973204970, -0.054660454392, -0.118708014488, -0.043433513492, 0.083128385246, 0.103380665183, 0.075782366097, -0.003581137396, 0.012931643054, -0.112165004015, -0.051758013666, 0.026282390580, -0.077411316335, -0.108422800899, 0.112992107868, 0.104277759790, 0.060502968729, -0.080115050077, 0.041726030409, 0.064495190978, 0.026991490275, 0.047783084214, 0.131886586547, 0.090917371213, -0.004777957685, 0.011930458248, -0.105131663382, -0.077821552753, -0.123246289790, 0.157054215670, 0.094134919345, -0.027528591454, 0.060475338250, -0.106226116419, 0.007162999827, 0.126356542110, 0.084565572441, -0.095015145838, 0.024097355083, -0.101500697434, 0.006037296262, 0.024239826947, 0.004630548880, 0.089414767921, 0.090111054480, 0.043523229659, 0.046194281429, -0.112209767103, -0.130895942450, 0.107568919659, -0.034338649362, 0.079818747938, 0.005357401446, -0.090767316520, -0.039100926369, 0.075403228402, 0.127712354064, -0.067570231855, 0.022983025759, 0.049282085150, 0.012909840792, -0.116965323687, -0.040281809866, 0.104560226202, -0.000697632320, 0.010247338563, -0.086104094982, 0.066660709679, 0.025615621358, 0.049395065755, -0.089135728776, 0.002721161349, 0.104929126799, -0.056868482381, -0.091797955334, -0.076397053897, -0.105971574783, 0.037645645440, -0.044657718390, -0.112705387175, 0.042384840548, -0.050929062068, 0.022189328447, -0.018150145188, 0.049489475787, -0.131748124957, 0.026150338352, -0.095402508974, -0.043293282390, -0.133084699512, 0.113073542714, 0.057949248701, -0.027577599511, 0.086645178497, -0.023428764194, -0.068437956274, 0.054411154240, -0.038648921996, 0.036201313138, 0.000617902493, -0.096333250403, -0.047359801829, -0.042541872710, 0.014726300724, -0.080347545445, -0.094986289740, 0.062700614333, 0.032946024090, -0.089679360390, 0.018241925165, -0.104032553732, -0.018276851624, 0.064273357391, -0.006415152922, -0.070238769054, -0.009421731345, -0.088354140520, 0.091429755092, -0.109976068139, -0.102516621351, -0.037384700030, 0.060480296612, 0.039635766298, -0.046924695373, -0.093409895897, -0.038838639855, -0.001384965028, 0.063371002674, 0.122328586876, 0.095814138651, 0.051126688719, 0.052052710205, -0.013794701546, 0.107285752892, 0.178707301617, -0.018518773839, -0.004547670018, -0.020570833236, -0.013610528782, -0.117293879390, 0.011425418779, 0.072121307254, -0.130417421460, -0.153699859977, 0.038272306323, 0.147848919034, 0.060588791966, -0.005176437553, 0.177630349994, -0.063595063984, 0.122744686902, -0.025087585673, 0.012409731746, -0.068400070071, 0.039340063930, 0.037215068936, -0.063527308404, 0.080582603812, 0.050526522100, -0.075492799282, -0.063719674945, 0.088114984334, -0.104751758277, 0.167948246002, -0.030981961638, 0.052976157516, -0.052720002830, 0.025252852589, -0.017455374822, -0.020461697131, 0.171112090349, 0.006607000716, 0.052941899747, -0.128091216087, -0.149680122733, 0.009353746660, 0.079803861678, 0.134972438216, -0.005235479213, 0.040142029524, 0.090036101639, -0.087258972228, 0.119143873453, 0.113072298467, 0.131592825055, -0.065334945917, 0.040201529860, -0.109853401780, 0.146076530218, 0.001175137702, -0.110351957381, -0.041070003062, -0.137510523200, -0.089994110167, -0.077707856894, 0.078496783972, -0.169757321477, 0.138525590301, 0.110743321478, 0.037239823490, -0.075233183801, 0.058297585696, 0.242120742798, -0.110472917557, -0.038058090955, -0.080718100071, 0.003752439050, -0.106075353920, -0.074805259705, 0.142528355122, 0.128455474973, 0.075326137245, -0.103932656348, -0.124555036426, 0.102520935237, 0.071752890944, -0.136121362448, -0.073558159173, -0.117405466735, 0.058740649372, -0.084634907544, -0.020272230729, 0.038473051041, -0.142915830016, 0.012447940186, 0.085291102529, 0.005741924979, -0.100226931274, 0.052261162549, 0.097860887647, -0.056024454534, 0.087399676442, -0.054363865405, -0.044403146952, -0.013751255348, 0.044800780714, -0.126159250736, 0.062648646533, -0.013545397669, 0.037949517369, -0.061483740807, -0.012134949677, -0.009239858016, 0.054890733212, -0.094769679010, -0.039485424757, 0.016627445817, -0.136884108186, 0.112245112658, 0.058517180383, 0.027481641620, -0.041375268251, -0.086064487696, 0.121321991086, 0.063368998468, 0.147996678948, 0.086141407490, 0.155819416046, -0.120249025524, 0.096978612244, -0.091085910797, 0.002736862283, 0.055907610804, 0.050975423306, 0.087548956275, 0.123169288039, 0.057309217751, 0.005880765151, 0.144567355514, 0.145532920957, -0.069426834583, -0.134183153510, -0.045907717198, -0.005220047664, -0.114620305598, 0.022273084149, -0.085977546871, 0.044955275953, 0.064147748053, 0.096470825374, -0.052244689316, -0.059844717383, -0.010935609229, -0.078296922147, 0.031304594129, -0.104880243540, 0.046076811850, -0.101138085127, 0.101616822183, -0.008353727870, 0.130828350782, -0.119324192405, 0.014003889635, -0.082999996841, 0.056284554303, 0.126406788826, 0.014012799598, 0.100322797894, 0.080303028226, -0.100566111505, -0.001738935360, -0.141907691956, 0.109258338809, -0.035812065005, 0.068933889270, -0.018560290337, -0.081035047770, 0.044235829264, 0.010318601504, 0.103731282055, 0.062299333513, 0.011623747647, 0.085064105690, -0.085136860609, 0.122192576528, 0.029367037117, 0.046691097319, -0.053924575448, -0.076250337064, 0.083413824439, 0.057712346315, 0.141731679440, 0.019951827824, 0.044356524944, -0.065391167998, -0.012716406025, 0.071163900197, 0.068329863250, -0.075908005238, -0.083917230368, 0.020867789164, 0.094993561506, -0.089127093554, 0.071259461343, -0.093976639211, 0.041165534407, 0.025599025190, -0.036642815918, -0.033902730793, -0.074115552008, -0.131274640560, -0.053380727768, 0.075777813792, -0.096569456160, -0.044085118920, -0.044899217784, -0.018366781995, 0.051176358014, 0.020407823846, -0.011842423119, -0.040742542595, 0.013523722999, -0.055307809263, -0.025804243982, -0.022333445027, -0.065991163254, 0.084545731544, -0.126671373844, 0.032587133348, 0.031685829163, 0.104518480599, 0.150131136179, 0.086783803999, 0.149014741182, -0.047815755010, -0.105961024761, -0.124216176569, -0.110604576766, -0.074772611260, 0.041133396327, -0.101960726082, -0.042596165091, -0.134639516473, 0.127363249660, -0.016854908317, 0.090635180473, -0.092726685107, -0.128718510270, -0.087287791073, 0.099590130150, -0.079340420663, -0.036982376128, -0.023450218141, 0.141260728240, 0.018481265754, 0.003125699237, 0.052231557667, 0.009118292481, -0.013637874275, -0.064312420785, 0.039130203426, -0.038406547159, 0.048589393497, -0.072757393122, -0.096125751734, 0.030294135213, 0.126855656505, -0.115752398968, -0.105124257505, -0.096104785800, 0.080989643931, -0.027369739488, -0.089234702289, 0.062663570046, 0.022819332778, 0.083559788764, -0.075058482587, -0.120640732348, 0.025750048459, -0.066325731575, 0.105278350413, 0.004560080357, -0.106084384024, -0.022975564003, 0.060747291893, -0.049727730453, -0.117232687771, 0.032897856086, 0.084324292839, -0.117124028504, 0.105764374137, 0.176754891872, -0.041117776185, 0.085583485663, -0.013317367993, 0.059497103095, -0.067402422428, -0.121835350990, -0.109505802393, 0.056248597801, 0.114300735295, 0.008055297658, -0.110698066652, 0.062910579145, -0.048620801419, 0.092728361487, 0.016183633357, -0.002945859218, -0.024026874453, -0.140523776412, 0.099753774703, 0.092583000660, -0.060514565557, -0.090578354895, -0.090430222452, -0.057316020131, -0.071100108325, -0.098346456885, 0.075189106166, -0.032426696271, -0.010898082517, -0.049210522324, 0.021202703938, -0.087320968509, 0.000346837565, 0.047856207937, -0.034323681146, -0.115574419498, 0.117629118264, 0.011837255210, -0.050120942295, -0.090327389538, -0.086110755801, -0.065709494054, -0.119010627270, -0.081598222256, -0.109153151512, 0.012212837115, 0.089877009392, 0.054760053754, -0.091030701995, 0.117887690663, -0.076948039234, 0.064946070313, -0.103256292641, 0.081352196634, -0.012261677533, 0.038773037493, -0.024906329811, -0.020550234243, 0.129564821720, -0.024550890550, 0.095951862633, 0.039963372052, -0.116931848228, -0.054065991193, -0.102121010423, 0.003209899180, 0.107513837516, 0.127456218004, -0.098682999611, -0.016188837588, 0.132614672184, 0.146318569779, -0.104009643197, -0.098450459540, 0.067995153368, -0.108593635261, 0.083355225623, 0.094351693988, -0.096105903387, -0.115408957005, 0.016251211986, -0.101418837905, -0.021291533485, 0.119979016483, -0.013206977397, 0.060089401901, 0.055677205324, 0.014580724761, -0.013843068853, -0.095057062805, 0.084695167840, 0.066541649401, -0.046536967158, 0.055765099823, 0.021970860660, -0.032149162143, 0.058063685894, -0.094229161739, 0.033749923110, 0.047721136361, -0.057591043413, -0.094094179571, 0.029605330899, 0.119159176946, -0.051821928471, 0.100689567626, -0.016117863357, 0.037233587354, -0.113127075136, 0.080080293119, -0.031421128660, -0.026758726686, 0.052840840071, -0.116990961134, 0.063152655959, -0.082977324724, 0.032618023455, -0.027070766315, -0.090951144695, 0.066332183778, -0.128971680999, -0.036918140948, -0.042140197009, -0.071305759251, -0.083951041102, 0.119575284421, 0.052600149065, 0.061132512987, 0.061213444918, 0.112893655896, 0.147217765450, 0.084253124893, 0.120086781681, 0.084273464978, 0.016434723511, 0.006974531803, -0.043901920319, -0.015702592209, 0.031609326601, -0.024682441726, 0.063492201269, 0.003197918646, -0.054698739201, -0.076838582754, -0.074153833091, -0.035127200186, -0.125846356153, -0.038112372160, -0.043689198792, -0.107364691794, 0.024480057880, -0.064458459616, -0.072490148246, -0.080469533801, -0.090081386268, -0.050687994808, 0.008387468755, -0.090902954340, -0.005272878334, -0.113168887794, -0.103281937540, 0.010113471188, 0.086541287601, 0.098619587719, 0.115458726883, 0.049310725182, 0.053868550807, 0.132522970438, -0.039292961359, -0.115762174129, -0.079804204404, -0.072687186301, 0.075183615088, -0.072583816946, 0.021677887067, 0.112819567323, 0.058799415827, -0.086203023791, -0.062072027475, 0.051848601550, -0.029057040811, -0.002867041854, -0.053611673415, -0.045910801739, -0.081357657909, -0.143329814076, -0.073980465531, 0.053905904293, 0.110406599939, -0.021627550945, -0.019561259076, -0.060364171863, -0.083345890045, 0.006318170112, 0.125141918659, 0.123056307435, -0.025776626542, 0.035078618675, -0.006884076633, 0.055367920548, -0.000684846193, 0.057696469128, 0.009241305292, 0.089150674641, -0.063673287630, -0.120994597673, -0.075744614005, 0.124323703349, -0.146796181798, 0.042362354696, 0.147701844573, -0.083589747548, -0.141790390015, 0.053730200976, -0.120578974485, -0.010441580787, -0.077467307448, 0.081801287830, 0.011628041975, -0.109984107316, 0.071515798569, 0.055563986301, 0.037618003786, -0.022883905098, 0.068321518600, -0.023274989799, -0.073524124920, -0.090340867639, -0.074920840561, 0.077114738524, 0.056118994951, 0.056406501681, -0.030051728711, -0.040694713593, -0.007797720842, 0.107326924801, 0.075376190245, -0.066166408360, 0.101989388466, -0.039805825800, -0.014761921950, -0.106161855161, -0.109434098005, -0.084193766117, -0.119901277125, 0.075195983052, -0.067852094769, 0.093654401600, -0.073675550520, -0.004126629792, -0.138899609447, -0.002089119516, -0.024665217847, 0.047568954527, -0.087805807590, 0.105212599039, -0.014356039464, 0.013162374496, -0.088077992201, -0.047659341246, -0.009952834807, 0.008233129047, -0.090684592724, 0.018858835101, 0.109459243715, -0.043320164084, 0.084577322006, -0.111761175096, -0.123586632311, 0.129607707262, -0.070895001292, -0.103166520596, 0.022473350167, 0.093215234578, -0.036366987973, 0.073041334748, -0.047613453120, 0.057089671493, 0.023286055773, -0.116720885038, -0.108543567359, 0.032391969115, 0.023785024881, 0.042473189533, 0.053595688194, -0.051135674119, 0.041801504791, -0.093838095665, 0.071388460696, -0.012468735687, -0.085361398757, 0.112931810319, 0.003171000397, -0.000307326962, -0.010103724897, 0.000979997450, 0.059663616121, 0.063202075660, -0.118328504264, -0.090637758374, -0.070930734277, -0.063320405781, -0.063725814223, -0.098412193358, -0.011038119905, -0.099357157946, -0.026069274172, 0.053671788424, -0.097096629441, -0.124067030847, 0.009515214711, -0.108119070530, -0.076473549008, -0.034623604268, -0.047618545592, -0.084780760109, 0.056154515594, -0.019547611475, -0.081806473434, 0.126567736268, -0.002346304944, -0.026705728844, -0.110612824559, -0.008917535655, 0.134832784534, 0.060636036098, 0.068728335202, 0.119697764516, -0.097233019769, 0.029849248007, 0.063212104142, -0.053421832621, 0.028297614306, 0.059826951474, -0.071426644921, 0.179671123624, -0.070919468999, 0.081199020147, 0.015155180357, -0.089751370251, -0.088687948883, 0.159084662795, 0.046284124255, 0.006719970610, 0.089958958328, -0.041115257889, 0.113192364573, -0.025705400854, -0.024946128950, 0.013280575164, -0.093113563955, 0.061418667436, 0.047597546130, 0.035003259778, 0.056931026280, 0.103047251701, -0.025869924575, 0.030744774267, 0.110589243472, 0.121867701411, 0.086828969419, -0.080695256591, -0.056603506207, 0.071384027600, -0.042581610382, -0.012417603284, -0.108601301908, 0.020217312500, -0.124409191310, -0.096592567861, -0.016427712515, -0.094112090766, -0.038273595273, -0.061062559485, 0.075814194977, 0.085450358689, 0.091436810791, -0.043410565704, -0.069985598326, -0.057953320444, -0.018104000017, 0.054709214717, -0.012396161444, -0.088058881462, 0.094154991210, 0.044532090425, 0.025452723727, 0.093272283673, 0.015908630565, 0.115909337997, -0.081512778997, -0.116213396192, -0.061365924776, -0.120053596795, -0.022042512894, -0.010850683786, 0.039399847388, 0.016170477495, 0.015881288797, 0.115806281567, 0.033327754587, 0.089662402868, 0.119870051742, 0.067896567285, 0.025625772774, -0.081457316875, -0.064865261316, -0.108719281852, 0.125951543450, 0.114877790213, -0.079329267144, 0.147091180086, 0.077650189400, 0.122333154082, -0.024530395865, -0.072960682213, 0.119006939232, -0.071006886661, -0.003034510883, 0.071070507169, -0.088348887861, -0.070402391255, 0.000378955243, -0.128103896976, -0.129379719496, -0.069266550243, -0.139548480511, 0.117493286729, 0.101911477745, -0.044644910842, 0.052037961781, 0.103540636599, -0.037015412003, 0.025513382629, 0.121168240905, 0.030917145312, -0.070525251329, -0.111240163445, 0.088957205415, -0.065232440829, -0.076399855316, -0.044514849782, -0.124514877796, 0.018726661801, -0.034745302051, -0.004094440490, -0.044114515185, -0.055432185531, -0.009894740768, 0.110999770463, -0.096894495189, -0.058949057013, 0.036236189306, -0.133078604937, -0.033960562199, -0.000389925903, 0.056243587285, -0.009951111861, -0.071958094835, -0.092457786202, 0.111068762839, 0.122788138688, 0.004027918912, -0.027071116492, 0.023437552154, 0.089789196849, 0.016017353162, 0.104074932635, 0.058683898300, -0.073638699949, -0.109649986029, 0.135793387890, 0.041385967284, 0.075886189938, 0.040986564010, 0.034896079451, 0.019471384585, -0.017002457753, 0.113122843206, -0.031993295997, 0.093479141593, -0.047740343958, 0.004326276015, -0.035747457296, -0.007557973266, -0.058597367257, -0.023242725059, 0.075810611248, 0.123162746429, -0.020010869950, -0.098772838712, 0.128906086087, 0.065557517111, -0.089006386697, -0.016347995028, -0.006236369722, -0.113297641277, 0.066618636250, 0.055090818554, 0.021228978410, -0.168016523123, -0.095302395523, -0.121887311339, 0.100148461759, 0.096309877932, -0.074502438307, 0.079332128167, -0.092260524631, 0.018234925345, -0.066637605429, -0.021524624899, 0.087855398655, 0.119064830244, -0.063132241368, 0.039934691042, -0.008284637704, -0.101471319795, 0.100056096911, 0.098495595157, 0.108005695045, -0.036827936769, -0.026581993327, 0.022240292281, -0.010959030129, 0.069116890430, 0.095349796116, -0.077869273722, 0.092472895980, -0.047454822809, -0.000992686022, 0.092513918877, 0.012207774445, -0.094199135900, 0.087284028530, 0.087908059359, 0.089033231139, 0.028790077195, 0.094103537500, -0.106578320265, 0.085893318057, -0.097019858658, 0.034010026604, 0.017179520801, -0.050277378410, 0.062038514763, 0.088927343488, -0.066861286759, 0.033232789487, -0.002146829385, -0.073207356036, -0.075629606843, 0.017845520750, 0.098342165351, 0.155452266335, 0.012580757029, 0.050580248237, 0.121568478644, 0.091304600239, -0.042598906904, -0.034747265279, -0.092731818557, -0.001036086702, 0.014608139172, -0.041957698762, -0.084769248962, 0.023994835094, 0.000336189289, 0.126128077507, 0.010258095339, -0.129431858659, 0.160622268915, 0.002903650049, 0.069443650544, 0.155625745654, 0.075811922550, 0.043432515115, -0.132137745619, -0.022329539061, -0.066142529249, 0.076681293547, 0.059762980789, 0.023525912315, 0.077433787286, 0.063570968807, 0.093827500939, 0.021192329004, -0.098014459014, -0.123583540320, 0.129185453057, -0.030099840835, -0.015115370043, 0.105296500027, -0.072816133499, 0.112363256514, -0.088852144778, 0.099967397749, 0.095986656845, -0.075206488371, 0.098716251552, 0.011410366744, -0.072031155229, 0.038312114775, 0.037515558302, 0.083520315588, -0.026336424053, -0.002992585069, -0.038546808064, -0.046810727566, 0.071643158793, -0.022204067558, -0.001622293494, 0.048198658973, -0.101551018655, 0.103626362979, 0.051254220307, 0.116370126605, 0.095937736332, -0.097609892488, -0.081537038088, -0.042242728174, 0.079389467835, -0.126245886087, -0.053043853492, 0.035243559629, 0.110488906503, -0.128409653902, -0.086929313838, -0.055098511279, 0.090244375169, 0.127596259117, -0.069507613778, 0.081319235265, -0.035181272775, -0.125010699034, -0.079087331891, -0.006697135977, 0.097429558635, 0.043665532023, 0.052866663784, 0.047181483358, -0.011243316345, 0.001637470210, 0.097379103303, 0.115437448025, 0.040667995811, 0.131449192762, -0.018312960863, 0.107255198061, 0.003802953754, 0.023226276040, -0.100442081690, 0.036245044321, 0.102149099112, -0.103351272643, -0.055312503129, 0.115508534014, -0.016277279705, -0.045548632741, 0.127170771360, -0.052842359990, -0.011122298427, 0.101364508271, 0.013639063574, -0.070797957480, -0.042969573289, 0.041923597455, -0.095019847155, -0.049034792930, 0.011104295962, -0.112841822207, -0.048415035009, -0.095951393247, 0.100910633802, 0.130258008838, -0.066963456571, 0.056761413813, -0.010355667211, -0.072545573115, -0.047255910933, -0.024616006762, 0.035002626479, -0.032046299428, -0.007272473071, -0.007113554981, -0.007509148680, -0.125583261251, -0.024764554575, 0.022166177630, 0.062924101949, 0.007173094433, 0.124252498150, -0.085852175951, -0.034377917647, 0.036101765931, 0.013861805201, -0.136322289705, -0.036111511290, -0.045781150460, -0.021035345271, -0.060433343053, -0.069954246283, 0.032002545893, -0.118976727128, 0.125206649303, 0.001276894007, 0.020767653361, 0.043113064021, -0.029970016330, 0.005524866283, 0.005176075734, -0.131464242935, 0.043332677335, 0.119624875486, 0.049726720899, 0.009142569266, -0.001766204950, 0.015758208930, 0.013389808126, 0.032550994307, 0.099399484694, 0.009213108569, 0.043430689722, 0.119612529874, 0.108002051711, 0.060148537159, 0.020696386695, -0.120155923069, 0.015316122212, -0.113288260996, -0.008017974906, 0.054914377630, -0.059938821942, 0.128760948777, 0.014649443328, -0.075743302703, -0.096567176282, 0.002698619850, -0.042351540178, 0.020148973912, -0.052256491035, 0.143315523863, -0.020875360817, -0.036012858152, -0.048771996051, -0.014455898665, 0.126225605607, -0.090950049460, -0.041605759412, 0.128131210804, 0.123767070472, 0.051882192492, 0.066086947918, 0.016336878762, -0.036070648581, 0.114963009953, 0.020736869425, 0.107508815825, 0.033273003995, 0.065540142357, -0.113216005266, -0.023076660931, -0.023211257532, -0.005860908423, -0.085498720407, -0.011135108769, 0.000977548189, -0.117699183524, -0.015522046946, 0.024968119338, -0.010479002260, 0.061799541116, -0.098513260484, 0.065629467368, 0.050403960049, -0.070740014315, 0.025489257649, 0.054067961872, 0.134950637817, 0.073541916907, 0.092304885387, 0.026007279754, -0.072833552957, 0.084947183728, -0.020994322374, 0.056844633073, -0.141233608127, 0.108630590141, -0.102708972991, 0.109161503613, 0.048877019435, 0.036393802613, 0.054069433361, 0.044769529253, 0.148330777884, -0.122803017497, -0.055911656469, -0.025867415592, 0.002843065187, -0.041307087988, -0.027145622298, -0.076875567436, -0.059910524637, -0.051020972431, -0.093824096024, 0.013215086423, -0.119260288775, 0.017297815531, 0.059187170118, -0.020331861451, 0.005749417935, -0.091055974364, 0.096325077116, -0.019287111238, -0.043342009187, -0.110756427050, 0.020331241190, -0.045921202749, -0.067687563598, 0.075214564800, 0.107209220529, -0.139836266637, 0.032750990242, 0.019876394421, -0.072584457695, -0.012651460245, -0.011469897814, 0.074020527303, -0.010384360328, 0.091125309467, -0.089126259089, -0.129384174943, 0.065947078168, -0.002659157384, 0.061427187175, 0.141225457191, 0.023533947766, -0.106509409845, 0.033385217190, -0.105355650187, 0.004710799083, 0.090066261590, 0.090615235269, -0.013962836005, -0.088435493410, 0.096908882260, 0.017523944378, -0.057790342718, 0.033613130450, 0.099771514535, 0.062589690089, 0.018575578928, 0.023137144744, -0.092284865677, -0.107845589519, -0.133897349238, 0.112654507160, -0.111947983503, -0.018058672547, 0.051125038415, 0.063334196806, 0.099160753191, -0.072122044861, -0.101127982140, -0.067897073925, 0.108133934438, 0.019836319610, 0.046193063259, -0.040394809097, 0.070941396058, 0.045901574194, -0.069742269814, 0.021635459736, 0.118795916438, -0.000959620404, 0.018044212833, -0.014266513288, -0.113065831363, 0.071990169585, 0.051404278725, -0.040420226753, 0.115365050733, -0.108149170876, 0.001675799256, -0.102636046708, 0.042470544577, 0.127826735377, 0.029475577176, 0.135549575090, -0.112664841115, 0.021771922708, 0.068250373006, 0.009748699144, 0.035859186202, 0.092085987329, -0.142023667693, 0.054172292352, -0.090163461864, -0.125806406140, 0.050316911191, 0.075190626085, -0.042284995317, 0.127857923508, 0.065782517195, -0.072038128972, 0.113402724266, 0.002660807688, 0.065913826227, -0.085305109620, -0.133273154497, 0.021866358817, -0.111217141151, 0.004957042634, 0.090332768857, 0.112657748163, -0.052221965045, 0.067914560437, 0.000358475430, -0.058557976037, -0.043773155659, 0.097184918821, 0.118336215615, -0.096034154296, -0.003491715994, -0.084977485240, 0.112561747432, -0.065466620028, -0.047396801412, 0.072998136282, -0.057003699243, -0.124200910330, -0.019066331908, 0.064458064735, -0.150132700801, 0.132074549794, -0.117463402450, -0.070364564657, -0.112183287740, -0.088768154383, -0.037062492222, 0.063759617507, 0.110546573997, 0.009359438904, 0.034359153360, -0.099079988897, 0.011787269264, 0.009993393905, 0.008573655039, -0.072431176901, -0.042862664908, -0.001221312210, -0.077991731465, 0.098248094320, -0.090638712049, 0.049350999296, 0.068813905120, -0.122782431543, 0.139246776700, 0.070793367922, -0.069062821567, 0.132044002414, -0.011776457541, 0.023506440222, 0.119317702949, -0.009036179632, 0.045589581132, 0.098811730742, -0.059768363833, 0.036428909749, 0.029914753512, -0.058278854936, 0.008234741166, 0.011455242522, 0.028741836548, 0.049357019365, -0.116103768349, -0.111634500325, 0.038320910186, -0.068138122559, 0.054149974138, 0.010235301219, 0.007877724245, 0.013877965510, 0.075969889760, -0.082248829305, 0.105421304703, -0.075630322099, 0.105347178876, 0.027841256931, -0.042259518057, 0.100096032023, 0.115355856717, 0.036234218627, 0.013216315769, 0.051711354405, 0.105575539172, -0.096429765224, 0.104125276208, -0.047428056598, 0.097449615598, 0.111521467566, -0.040127787739, 0.062471158803, 0.079334929585, -0.023937020451, 0.016288449988, -0.012948498130, 0.015139415860, -0.081962905824, -0.069641806185, 0.080261230469, -0.037070155144, 0.063841693103, 0.013281775638, -0.089383527637, -0.000404354418, 0.008607518859, 0.039184879512, -0.052217006683, -0.086990296841, 0.001137825660, -0.178477019072, -0.034269589931, 0.009190440178, -0.117688745260, -0.024003900588, -0.093032188714, 0.044504936785, -0.106832362711, -0.042563054711, -0.025938794017, 0.027801889926, -0.047560311854, 0.008438271470, 0.053215943277, 0.040507499129, 0.089963912964, -0.040992178023, 0.067165426910, -0.100339882076, 0.003037737217, -0.028926368803, -0.001028625760, -0.083193816245, -0.006180394441, 0.053413726389, 0.088320516050, -0.155190497637, 0.174485504627, 0.142974391580, -0.023301893845, -0.052012711763, 0.068129219115, 0.053085312247, -0.057465225458, -0.055205553770, 0.082041628659, -0.036674842238, -0.078019395471, 0.060049120337, -0.052117906511, -0.110527150333, -0.027520049363, -0.041413862258, 0.066166773438, 0.037045709789, 0.063874356449, -0.081724479795, 0.104385443032, -0.013085004874, -0.132081955671, 0.069110743701, -0.099937759340, 0.004223579075, -0.047349527478, -0.031049273908, 0.017580939457, 0.045252211392, 0.099465638399, -0.027029419318, -0.111424945295, -0.033461797982, 0.019448684528, 0.052707318217, 0.066254600883, -0.014326721430, -0.121155031025, 0.008708372712, 0.060528814793, -0.057934511453, 0.104921519756, 0.096547231078, 0.003323397133, 0.025655172765, -0.106247432530, -0.011019639671, -0.016081865877, 0.094646297395, -0.047701455653, -0.101299643517, 0.121936053038, 0.061600115150, 0.032072484493, 0.214732944965, 0.027590233833, 0.147591933608, -0.113267563283, -0.062547303736, -0.041172582656, 0.016454264522, 0.015847858042, 0.030340014026, -0.136452853680, 0.043501559645, -0.122120618820, 0.082082569599, -0.097069449723, -0.067564971745, 0.081660524011, 0.158677145839, 0.099854625762, -0.100402563810, -0.008077256382, 0.063572548330, 0.044255055487, 0.023466199636, 0.153730705380, 0.114770874381, -0.094474986196, 0.204030379653, 0.006201223470, 0.018475577235, 0.067165210843, -0.077305272222, 0.006959700491, -0.024134997278, -0.072591520846, -0.122960522771, -0.056982479990, -0.022605929524, -0.017739418894, 0.022128013894, 0.101715415716, 0.009690413252, 0.036884985864, 0.108316630125, 0.018934335560, 0.077681586146, -0.037071306258, 0.004835658241, 0.096554212272, 0.069200061262, -0.079641975462, -0.082351528108, -0.119558751583, -0.062515154481, -0.080302983522, 0.066314369440, -0.054889030755, -0.068106092513, 0.018100941554, -0.026286788285, 0.058305546641, 0.013775652274, -0.058027092367, -0.060453787446, -0.122038953006, -0.139463573694, -0.059686377645, 0.000165737234, 0.046396449208, 0.064279980958, 0.046701841056, 0.091049730778, -0.070628859103, -0.006940370426, 0.110608562827, -0.110777780414, -0.136133447289, -0.014102838933, -0.106724515557, 0.083444379270, 0.108544893563, 0.001738756429, -0.043206099421, -0.007166560739, -0.133444771171, 0.017781849951, -0.043741270900, -0.047590516508, 0.008548866026, -0.056456115097, -0.030592422932, -0.006633126643, -0.059606313705, 0.094281084836, -0.058342631906, 0.088668853045, 0.124828100204, -0.041088055819, 0.031531818211, 0.092826813459, -0.202063113451, 0.083666726947, 0.161562308669, -0.125646859407, 0.060351353139, 0.072861276567, -0.046571534127, 0.069171003997, 0.018270909786, 0.048643056303, 0.075427554548, -0.055230367929, -0.099572099745, 0.005466807634, -0.011784592643, 0.107510112226, 0.137900575995, -0.070760056376, -0.060395494103, -0.086855761707, -0.036130718887, -0.013900460675, 0.079564079642, -0.042368967086, 0.089266732335, 0.150222718716, 0.046367786825, -0.022256731987, -0.193137004972, -0.103193014860, -0.114229016006, -0.115819625556, 0.023802572861, -0.031690977514, 0.065388068557, 0.152769416571, 0.106721505523, 0.184933096170, -0.085549764335, -0.021173413843, 0.020218962803, -0.120612516999, 0.125684201717, 0.082856759429, -0.034378997982, -0.085539020598, 0.098278030753, 0.183326885104, 0.023841273040, -0.042784776539, -0.064995385706, 0.058663479984, 0.015689132735, -0.108352713287, -0.089565582573, 0.059076305479, 0.105959698558, 0.078453317285, 0.029710367322, -0.107402049005, -0.133625581861, 0.031847279519, -0.122601896524, 0.059322252870, 0.033651202917, 0.066291369498, -0.049055404961, 0.113246865571, -0.004569789860, 0.009892304428, 0.001523689600, 0.088545478880, -0.058852680027, -0.109040662646, -0.058888878673, 0.195858612657, 0.070720002055, -0.043402809650, -0.057941384614, 0.140240430832, 0.005143688992, -0.089736275375, -0.104323491454, -0.035864166915, -0.044467795640, -0.095965802670, -0.095114223659, 0.039682555944, 0.163652688265, -0.022443776950, 0.075812473893, -0.048531416804, 0.127054944634, -0.037193026394, -0.109098404646, 0.020200653002, 0.024933217093, 0.069953531027, 0.083604641259, -0.001286268700, 0.051068022847, -0.116424508393, -0.025707766414, 0.071526437998, -0.123016715050, -0.086559250951, 0.011065045372, 0.083122633398, 0.048172920942, -0.024578867480, 0.112233310938, -0.050706710666, 0.039325673133, -0.094450965524, 0.031621966511, -0.136534094810, -0.031190935522, -0.061214122921, 0.095932841301, -0.098831459880, -0.135819286108, -0.026830373332, 0.195642024279, -0.057367831469, 0.014537884854, -0.040963776410, -0.068968832493, 0.029203461483, 0.020343225449, -0.057194955647, 0.135381340981, -0.051884733140, -0.132430568337, 0.124517515302, 0.094997726381, 0.095689274371, 0.090664364398, 0.097626477480, 0.100053474307, -0.069850079715, -0.128368273377, -0.010938149877, 0.044190116227, -0.137095540762, 0.047007787973, 0.054267019033, -0.116378061473, -0.018467755988, 0.024979904294, -0.108852706850, -0.133399233222, 0.116370059550, -0.079292699695, -0.081367447972, 0.079368554056, 0.131971776485, 0.014429623261, 0.065664656460, 0.002248048084, 0.121663674712, 0.175354734063, -0.125325486064, -0.060517475009, -0.130036577582, 0.097827583551, 0.057985812426, 0.079660676420, 0.034353781492, 0.127768158913, -0.044097151607, 0.098046056926, -0.129318252206, -0.119018189609, -0.129438430071, -0.107941769063, -0.018622003496, -0.071923926473, -0.086963400245, 0.066001884639, -0.000905332912, -0.029274247587, 0.155851095915, -0.065903916955, 0.076331213117, 0.061410848051, 0.096644118428, -0.056211985648, 0.091106086969, -0.012710446492, 0.030406892300, 0.046600256115, 0.092286787927, -0.067592330277, 0.077059835196, 0.087894670665, 0.104612223804, 0.152749747038, -0.004837712273, -0.059564717114, 0.032883346081, -0.049703698605, 0.117572851479, -0.040735732764, 0.085285805166, -0.098439745605, -0.002362885512, -0.075696311891, -0.000562298170, 0.129406169057, -0.020291553810, 0.065544143319, -0.005453730468, -0.009014896117, -0.060715075582, -0.075361840427, -0.011948810890, -0.010980750434, 0.050984174013, -0.125350639224, -0.116159982979, 0.068034268916, 0.175018504262, -0.108621984720, -0.130132406950, -0.042165227234, -0.123568207026, -0.026912037283, -0.050776660442, 0.000927590532, -0.123773396015, 0.019835676998, -0.011149349622, -0.091502659023, 0.005458738189, -0.176093131304, 0.070796109736, 0.056777607650, -0.011383268982, -0.032843772322, 0.086607120931, 0.072604738176, 0.099003478885, -0.028677366674, 0.073897212744, -0.081153988838, -0.052025735378, -0.010180591606, 0.040414981544, 0.034865610301, 0.024201195687, 0.060071099550, 0.120212398469, 0.078829020262, 0.062870442867, 0.020053688437, 0.004167288076, 0.076758332551, 0.083494633436, -0.058116957545, 0.029891436920, 0.093688763678, 0.069713786244, -0.067726284266, 0.060048840940, 0.107870727777, -0.034348659217, 0.009727809578, -0.026926066726, -0.107637174428, -0.118374332786, 0.132850930095, 0.119188621640, -0.018303658813, 0.014013493434, -0.056128110737, 0.088229946792, 0.063517853618, -0.005710863508, -0.113030210137, 0.071991436183, -0.083956904709, 0.038220476359, 0.072918005288, 0.037995629013, 0.016493806615, 0.006143582519, -0.000035981415, -0.092072404921, 0.100813888013, 0.022013630718, 0.091762863100, -0.000921020866, 0.086660966277, -0.013881871477, 0.166731461883, 0.060138400644, 0.103089138865, -0.096320569515, 0.057323608547, -0.103273466229, -0.133401140571, -0.022871531546, 0.049718748778, -0.056232374161, -0.139058232307, 0.094225056469, -0.077771358192, -0.016271736473, -0.076505489647, -0.007630656939, 0.020217092708, 0.028014076874, -0.063335418701, 0.000327471877, 0.119143575430, 0.037232454866, 0.110945567489, 0.006280556787, -0.022939445451, 0.077162988484, -0.021171661094, 0.080082483590, 0.018545759842, 0.038347739726, 0.029656380415, -0.101032845676, 0.122033715248, 0.048231352121, 0.089068360627, -0.110080070794, -0.109173826873, 0.030647981912, -0.013803741895, -0.057434830815, -0.115490466356, 0.008862360381, -0.078717082739, -0.146985352039, 0.007935687900, 0.079427890480, 0.067587256432, 0.140878111124, 0.061181847006, -0.123162470758, -0.070565782487, 0.011609566398, -0.038976855576, -0.091977760196, 0.083698071539, -0.044401139021, 0.124130807817, -0.057833965868, -0.056406866759, -0.024765925482, 0.024487558752, -0.092009201646, -0.009374658577, -0.113241359591, -0.121678426862, -0.057613428682, 0.037033434957, -0.015052584931, -0.029192050919, -0.099061846733, 0.095360375941, 0.106881268322, -0.028968222439, -0.111281953752, -0.132789820433, -0.035577956587, 0.013442053460, 0.078614078462, -0.119783580303, 0.081479907036, -0.033851124346, 0.099920749664, 0.005231744144, -0.108072087169, 0.085083931684, 0.039981462061, -0.041272614151, 0.114602357149, -0.065070874989, 0.005675466266, -0.077212363482, -0.072664171457, -0.175663128495, -0.077031180263, -0.108449488878, 0.091709174216, 0.098338231444, -0.031197210774, -0.010140343569, -0.084891721606, -0.040681730956, 0.085238732398, 0.106909878552, -0.067110493779, -0.093753769994, 0.016110960394, 0.027178699151, 0.084715820849, -0.054127790034, 0.076349146664, 0.039037413895, -0.171230718493, -0.101945713162, -0.172449782491, -0.106977269053, 0.004732929170, -0.088964857161, -0.009968776256, -0.078313700855, -0.027024807408, 0.141883909702, 0.011177844368, -0.085296496749, 0.066951856017, -0.029753725976, -0.076726123691, 0.086290642619, 0.037142440677, 0.107160560787, -0.112807847559, -0.101269267499, 0.038865707815, -0.031001048163, 0.091789782047, 0.081298984587, 0.083926312625, -0.075772941113, 0.056668248028, 0.113522812724, -0.047343071550, 0.070239081979, -0.034285776317, 0.099109061062, -0.034070808440, 0.057597026229, 0.058334119618, -0.139770343900, 0.052790354937, 0.107266843319, -0.118676468730, -0.122424617410, 0.061862342060, 0.192655950785, 0.096189960837, -0.121000453830, -0.060148086399, -0.069211930037, -0.093056634068, 0.071231558919, -0.101014629006, 0.162337794900, 0.008406649344, -0.088228955865, -0.002751181368, 0.111685365438, 0.075596965849, 0.090338215232, -0.004964932334, -0.010803594254, -0.059660643339, 0.073156751692, -0.132005929947, -0.064270049334, 0.077871441841, 0.012881468982, -0.078772559762, -0.138228431344, -0.026485642418, -0.045591823757, -0.107392847538, 0.023946609348, 0.121736459434, -0.036685802042, 0.038571123034, -0.091448806226, -0.105580821633, -0.015579262748, -0.007837110199, -0.076059699059, -0.078669905663, -0.109655946493, 0.013624255545, 0.096803590655, -0.090846866369, -0.082937918603, -0.084194041789, 0.052735500038, -0.136604860425, 0.115424066782, 0.011806756258, -0.104102134705, -0.068799696863, -0.068484723568, -0.003828991903, -0.070614337921, 0.023880323395, 0.099954508245, -0.057631283998, -0.152728900313, 0.053100641817, 0.017945053056, 0.039988167584, -0.160293236375, 0.084168843925, 0.116579279304, -0.073433756828, 0.011326145381, -0.005636517890, -0.124618947506, -0.143339484930, -0.061037719250, -0.085530601442, 0.078038565814, 0.057568013668, -0.114342890680, -0.076377138495, -0.155400484800, 0.061200361699, 0.014295252971, 0.099646814167, 0.121998131275, 0.006067211740, 0.037280809134, -0.141017407179, -0.065587289631, -0.026822300628, 0.077746517956, 0.059167414904, -0.016274372116, 0.001778322272, 0.102879613638, -0.065128065646, -0.117837481201, 0.054228238761, -0.083869479597, -0.038508381695, -0.070080131292, 0.023915639147, 0.005425024312, -0.056501686573, -0.045228008181, 0.102785669267, 0.003769379575, 0.017402678728, -0.085807964206, -0.037025332451, -0.075741074979, -0.023878632113, 0.033329863101, -0.073048546910, 0.030690530315, -0.044541236013, -0.052577346563, 0.112805500627, -0.062701150775, 0.114380136132, -0.023363538086, -0.112210549414, -0.087648935616, -0.089712232351, -0.000168573344, -0.023438367993, 0.064105480909, -0.062169190496, -0.116792999208, -0.043922234327, -0.046608462930, 0.015181179158, 0.041773188859, -0.016268737614, -0.011548461393, 0.046654008329, 0.103397823870, -0.011563326232, 0.059871312231, 0.053823899478, 0.107618466020, -0.039539877325, -0.049138441682, 0.042921949178, -0.023577358574, 0.039642065763, 0.063090957701, 0.071193054318, 0.122152484953, 0.023401984945, 0.075495906174, -0.080146059394, -0.059141349047, -0.065285995603, 0.011467510834, 0.063520535827, -0.092596493661, 0.093769408762, -0.010648650117, -0.066204264760, 0.141394928098, 0.032466232777, 0.029903929681, -0.088010340929, -0.063173212111, -0.066399231553, 0.103063873947, -0.105244666338, -0.148510769010, 0.088331073523, 0.032384984195, -0.001070607221, -0.044667907059, 0.081921190023, -0.108564473689, 0.011556499638, 0.039956979454, -0.126337274909, -0.021646609530, 0.070880219340, -0.121084973216, 0.095175296068, -0.066814653575, 0.093214385211, -0.017239367589, -0.061359319836, -0.006392983720, 0.084310330451, 0.048517365009, 0.048055186868, 0.114644221961, -0.114007808268, -0.110578842461, -0.075425125659, -0.021003590897, 0.001016482711, -0.080828286707, -0.017295701429, 0.109638258815, 0.113828159869, -0.042947288603, -0.015582386404, -0.069123879075, -0.088953576982, -0.023426849395, -0.000673411414, -0.103192180395, 0.046555791050, 0.021937901154, 0.076353460550, -0.050492066890, 0.036197286099, 0.113559342921, 0.070413179696, 0.171341896057, -0.063120201230, -0.135027810931, 0.052301943302, 0.102717243135, -0.023244738579, -0.104732379317, -0.032463066280, -0.065047249198, -0.011336814612, -0.025730812922, 0.135714441538, 0.040670920163, 0.114079706371, -0.105836577713, 0.039538539946, 0.116714864969, -0.040417023003, -0.021680111066, -0.057994127274, 0.065036907792, -0.127200007439, -0.060870952904, 0.032812040299, -0.114424258471, -0.019830327481, -0.096070773900, -0.099423661828, 0.112341575325, -0.146269232035, 0.075167827308, -0.094190798700, -0.144713386893, 0.034797102213, 0.009044928476, -0.016572330147, 0.116476759315, 0.018845655024, 0.068324342370, -0.003086035140, -0.127230077982, -0.096354790032, -0.028415003791, 0.097568288445, 0.028773751110, 0.092310048640, 0.056226249784, -0.049326516688, 0.088305093348, 0.006508860271, 0.081893570721, 0.022984243929, -0.083759330213, -0.088681295514, 0.054343141615, 0.066780716181, 0.088715076447, -0.009197575971, 0.116922296584, 0.023215888068, -0.045518204570, -0.019245186821, -0.037243619561, -0.108808703721, -0.034582428634, 0.056420329958, 0.120745129883, 0.018993940204, -0.053516015410, 0.107744023204, -0.097287863493, -0.056946758181, -0.043052870780, -0.052465341985, -0.095261156559, 0.118332490325, -0.050653241575, 0.067137867212, -0.072149425745, 0.074656046927, 0.095458053052, -0.123026557267, -0.074208296835, 0.065797545016, -0.069302909076, 0.109506167471, -0.043034132570, -0.069907605648, 0.091423138976, -0.048769168556, -0.101647987962, 0.059034690261, 0.017561430112, 0.132195591927, -0.102208234370, 0.092779405415, -0.104518048465, 0.066001564264, -0.045887038112, 0.092508614063, 0.108230896294, -0.127233698964, 0.068405605853, -0.070557095110, 0.107006102800, 0.066183887422, -0.079209588468, -0.009867897257, 0.085778534412, 0.070701085031, 0.018944755197, -0.026958893985, -0.016949987039, 0.065808802843, 0.112083226442, -0.054843027145, 0.021460628137, -0.035027097911, -0.130220845342, -0.046383794397, 0.127584949136, 0.111361026764, -0.063001103699, 0.110435731709, -0.091186523438, 0.129980489612, -0.030579458922, 0.083223283291, 0.083034493029, -0.089428968728, -0.028776587918, 0.068257980049, 0.033530883491, 0.099989309907, 0.054025478661, -0.080180630088, 0.053662363440, -0.064492024481, 0.084701411426, 0.096854455769, 0.013265382499, -0.088062681258, -0.032472848892, -0.067339681089, -0.064009979367, 0.006645396817, 0.117749802768, 0.050236485898, 0.064154826105, -0.132863610983, 0.052086286247, 0.109947018325, -0.084024012089, 0.106796495616, -0.118185095489, -0.009129676968, 0.072183802724, -0.060726560652, -0.127300485969, -0.079337567091, 0.112677015364, -0.013184318319, -0.103784099221, 0.027476802468, 0.138551384211, 0.000378926168, 0.000366828695, 0.095526859164, -0.068185947835, -0.086707934737, 0.012675391510, 0.042113404721, 0.064450278878, -0.008125538006, -0.100217670202, 0.073589675128, -0.104951143265, -0.047899559140, 0.039497323334, -0.077876217663, 0.149759918451, 0.145518124104, -0.069203637540, 0.018269417807, -0.036720599979, 0.006566972006, 0.153279766440, 0.012000876479, 0.104048661888, 0.050969302654, 0.034565784037, 0.136045619845, 0.111869826913, -0.028710141778, 0.004077639431, 0.006282746326, 0.001085178461, 0.025366147980, -0.026898801327, -0.069489590824, 0.132996469736, -0.092814125121, -0.028483411297, -0.115785434842, -0.108377546072, 0.021042600274, 0.045201510191, -0.016273513436, 0.005027570296, -0.093542031944, 0.079011835158, -0.095867358148, 0.063133880496, 0.095170661807, 0.060114767402, -0.018979990855, 0.132654741406, -0.108807250857, -0.003634445835, -0.072339273989, -0.016661485657, 0.105062261224, 0.014775323682, -0.026152173057, -0.118480421603, 0.118028268218, 0.036219276488, -0.087208703160, 0.024280717596, -0.024567684159, -0.084071964025, -0.020845782012, 0.079052224755, -0.068660192192, -0.099925071001, -0.040150638670, 0.061766579747, -0.002908912720, 0.096683815122, 0.007828345522, 0.105825498700, 0.032404392958, 0.000610123447, 0.054179448634, -0.015042796731, 0.044744845480, 0.092756621540, 0.039548084140, 0.010849540122, -0.117132730782, 0.095015227795, 0.043351806700, -0.030556021258, -0.125198647380, 0.088353440166, -0.044979795814, -0.031230121851, -0.002207570244, -0.019681965932, -0.116614542902, 0.150912508368, 0.053950428963, 0.092660970986, -0.108236886561, -0.052209548652, -0.105211369693, 0.006648601964, -0.024170413613, -0.100506149232, -0.033815395087, -0.021007977426, 0.019028531387, 0.024187095463, -0.069908872247, 0.019413471222, 0.101790398359, 0.014549879357, -0.041005361825, 0.052797924727, -0.108795017004, 0.028947478160, 0.036719635129, 0.044040527195, 0.039384163916, 0.059802573174, 0.020749498159, 0.036483336240, 0.086150728166, 0.081513822079, 0.002680929611, -0.107464313507, 0.118850290775, 0.013894075528, 0.028454523534, -0.095837272704, 0.034858398139, -0.025707438588, -0.150352939963, 0.011916465126, -0.123634666204, 0.062872789800, 0.080870106816, -0.063241727650, -0.101150482893, 0.104718938470, 0.072121441364, 0.091803319752, 0.046961821616, -0.082016140223, 0.027974098921, -0.077549785376, 0.039138246328, 0.015107061714, -0.120119236410, -0.047742623836, -0.096278086305, -0.050738014281, 0.097507447004, 0.054223127663, -0.116235315800, 0.017351362854, -0.088417589664, 0.018729064614, -0.107330024242, 0.045745279640, -0.020946716890, -0.072975896299, 0.114677235484, -0.029645854607, 0.086033113301, -0.029714986682, -0.116225041449, -0.075266465545, -0.099230818450, 0.028698178008, -0.042658545077, 0.026657005772, 0.013824374415, 0.093840405345, 0.005378201604, -0.120114661753, -0.007342502940, -0.002632170916, -0.160294398665, 0.059114627540, -0.100227914751, -0.128755971789, -0.024488316849, 0.047752887011, 0.121178783476, 0.008621919900, -0.031475942582, -0.109874919057, 0.059358734637, 0.000847563380, 0.136417195201, 0.096429109573, -0.008648906834, 0.096394702792, 0.069478623569, -0.025350397453, 0.100661411881, -0.024020968005, -0.026328405365, 0.112056314945, 0.071265064180, 0.202145278454, 0.128043338656, -0.065613463521, 0.019885897636, -0.111891098320, -0.055956091732, -0.119923241436, 0.138261228800, -0.028690084815, -0.135046198964, -0.018109554425, -0.097653940320, 0.127230167389, 0.115302108228, -0.010466424748, 0.154118701816, 0.189146965742, 0.079178579152, 0.035969052464, -0.024969037622, -0.075942061841, 0.097703091800, 0.052710507065, -0.025697359815, 0.106559254229, -0.090736567974, 0.137414067984, 0.042918793857, -0.128957375884, -0.065012320876, 0.032318200916, 0.055045280606, 0.081794396043, -0.076162114739, 0.112561143935, 0.031166872010, -0.015815945342, -0.066378638148, 0.052672822028, 0.053906414658, -0.024792218581, 0.111795619130, 0.096652165055, 0.084932386875, 0.010139113292, 0.061235383153, 0.046418637037, -0.017379069701, -0.129201740026, 0.009116243571, 0.086193278432, 0.089647457004, -0.000939615595, -0.088351100683, 0.054233204573, 0.103918090463, -0.017566001043, -0.026896901429, -0.015701305121, -0.088556401432, -0.001758141210, 0.087745413184, 0.007973744534, -0.040783971548, -0.001837488380, -0.044770535082, 0.117117546499, 0.022645318881, -0.022738652304, -0.101142697036, -0.118002265692, 0.062943071127, 0.085234515369, 0.076082855463, 0.072682827711, -0.047947928309, -0.010193974711, -0.006509269588, 0.083157174289, 0.172059580684, 0.016665991396, 0.014821650460, 0.108119323850, 0.021742595360, 0.043123811483, 0.018005449325, -0.043745409697, 0.039649728686, -0.005737763830, 0.121465735137, -0.028285257518, -0.077199213207, 0.025505775586, 0.025913542137, 0.076140023768, 0.023781809956, -0.040979713202, 0.021822247654, 0.014497211203, 0.002265738556, 0.025166615844, 0.080373257399, 0.035438783467, -0.094100616872, 0.111702792346, 0.030707361177, -0.092482864857, 0.081398427486, 0.113434173167, -0.089733831584, 0.121080800891, -0.070327423513, -0.045310024172, 0.038551636040, -0.002065660898, -0.033064983785, -0.149839952588, -0.017291756347, 0.026059024036, 0.055559657514, 0.110470160842, -0.051497701555, -0.034448441118, 0.106140710413, 0.047016333789, 0.096087984741, 0.134435504675, -0.111358873546, 0.030884969980, -0.084694288671, -0.018270019442, -0.110178127885, -0.138702914119, 0.111146062613, 0.086782008410, -0.054996471852, -0.160785734653, 0.114827007055, -0.010086019523, -0.084491990507, 0.050574485213, 0.101023957133, -0.060324382037, -0.110265038908, 0.101632915437, 0.059372521937, -0.081811934710, -0.126508578658, -0.081024512649, 0.020067512989, 0.071822941303, -0.081059239805, -0.056545350701, 0.053018227220, -0.063985623419, -0.025882061571, -0.078024335206, -0.059762734920, -0.051016096026, 0.052884738892, -0.008368961513, -0.024147789925, 0.061355575919, 0.079311013222, 0.014404536225, 0.135133817792, 0.055594779551, 0.011720446870, 0.051527854055, 0.095485493541, -0.056693755090, 0.002587325871, -0.063779972494, -0.016530849040, 0.074190631509, -0.011459200643, -0.071188054979, 0.112238645554, -0.082854866982, -0.004128326662, 0.020780388266, 0.044320970774, -0.084621250629, -0.065392971039, 0.022726584226, 0.044437110424, 0.107220351696, -0.043267749250, -0.100922770798, 0.114563703537, -0.102011263371, -0.052537251264, 0.151797339320, -0.008240952156, 0.071523413062, -0.043404489756, -0.080071330070, -0.054607328027, 0.078734546900, -0.068673796952, 0.031900309026, -0.149542003870, 0.093174271286, -0.052258949727, -0.058047957718, 0.053796280175, 0.169128626585, 0.097524702549, 0.014279271476, 0.067024871707, 0.007097863592, 0.108520731330, 0.050244610757, 0.098179288208, -0.130028918386, 0.061171002686, 0.086428001523, -0.039939746261, -0.042220901698, 0.112719886005, -0.029538659379, -0.016041457653, 0.078731916845, 0.112308092415, -0.001260107732, 0.095677942038, -0.045856352895, 0.013462362811, 0.096153758466, 0.123117811978, -0.039920058101, 0.064829081297, -0.123952448368, -0.055997740477, 0.053473010659, -0.063507027924, 0.148287147284, -0.104348577559, -0.085308603942, -0.095961749554, -0.099426664412, 0.046031363308, 0.008926135488, 0.069588512182, 0.010727248155, -0.082566142082, 0.013321279548, -0.036808002740, 0.061404686421, 0.087321117520, -0.084872692823, -0.102018654346, -0.007407227531, -0.030343752354, 0.051013473421, 0.082171373069, 0.175905704498, -0.101541809738, -0.024479134008, -0.104473114014, 0.047135561705, -0.016720725223, -0.016641303897, -0.084557406604, -0.106128893793, 0.113436013460, 0.141888454556, 0.015346417204, 0.058277864009, 0.107190839946, -0.119551435113, -0.077573552728, 0.052944384515, -0.091261669993, 0.019935419783, -0.148719146848, -0.080674171448, -0.028050882742, 0.057772058994, -0.077849201858, 0.027209680527, -0.092191874981, 0.093096956611, -0.007890737616, -0.085394911468, -0.118319101632, -0.002534859348, 0.108397744596, -0.023841511458, -0.057511921972, 0.016337957233, 0.093072339892, -0.031204639003, 0.000487479148, -0.023007638752, -0.034305766225, -0.088518515229, -0.076498016715, -0.052688423544, -0.111774891615, -0.131272628903, 0.029894363135, -0.088943921030, 0.069683179259, -0.125380948186, 0.038141544908, -0.087839365005, -0.020038409159, 0.095046781003, -0.139847442508, -0.099975287914, 0.051306404173, -0.101334773004, -0.108916886151, -0.010374834761, 0.005166166928, -0.026198856533, -0.018795462325, 0.090933717787, -0.012118549086, -0.019306018949, 0.008980952203, -0.018947174773, -0.152204811573, 0.094558373094, 0.074856169522, 0.072275727987, -0.028108220547, 0.054357621819, -0.140091210604, -0.056836202741, -0.158511742949, 0.020290233195, 0.062841072679, 0.018494844437, 0.178882539272, 0.020335314795, 0.084189526737, 0.063090689480, -0.093126282096, -0.003478087485, -0.042907029390, -0.019966950640, 0.037835277617, -0.034994531423, 0.062195181847, -0.005446202122, 0.076668538153, -0.009265691042, 0.054403275251, 0.012239861302, 0.049219690263, -0.053589247167, 0.060662582517, 0.106308251619, -0.074769854546, -0.040657281876, 0.084586262703, -0.013937812299, -0.018582893535, -0.067277804017, -0.004938867874, -0.063644908369, -0.006044916809, 0.007322417572, -0.010611398146, -0.111692704260, -0.054068326950, 0.052794557065, -0.018721308559, 0.030345039442, 0.093447439373, -0.019911907613, -0.023359075189, -0.057012245059, -0.044892810285, 0.042128451169, -0.069909699261, 0.075807154179, 0.083768635988, 0.122572980821, 0.036470144987, -0.009797386825, -0.085995972157, 0.034308221191, 0.080350041389, -0.091233164072, -0.002425549552, -0.110667288303, -0.086181335151, 0.066002570093, 0.102538898587, 0.087711103261, 0.133247137070, -0.080990254879, -0.158296838403, 0.073709331453, 0.086773023009, 0.088842011988, 0.090757504106, 0.130818709731, 0.098115518689, 0.128442421556, 0.111069656909, -0.045963484794, 0.052003532648, -0.083299241960, -0.048679992557, 0.049575418234, -0.005887025502, 0.078521721065, -0.033321786672, 0.046123433858, 0.050135828555, 0.082467183471, -0.043689157814, 0.000634272816, 0.096992149949, 0.098791018128, -0.050330687314, 0.043264307082, -0.020014591515, -0.093544192612, 0.079252257943, 0.001538456650, -0.132300332189, -0.018396047875, 0.074839532375, -0.003660584800, -0.173243477941, 0.105804927647, -0.060260199010, -0.010574211366, 0.029896970838, 0.028128104284, -0.091012716293, 0.071645259857, -0.118177182972, 0.071354031563, 0.069100037217, -0.094992108643, -0.126660197973, 0.065060965717, -0.131324902177, -0.060056965798, 0.004860599525, -0.150779008865, -0.015952132642, 0.055113382638, 0.076257213950, -0.081474438310, -0.130697101355, -0.018069835380, 0.085337035358, 0.067667759955, -0.031772635877, 0.048734363168, -0.069503262639, -0.095839537680, 0.081658236682, 0.063243299723, 0.061727218330, 0.111753098667, 0.107699975371, -0.057849273086, -0.132575377822, -0.049416758120, 0.036379937083, -0.112044692039, 0.033286362886, -0.071746975183, -0.045897167176, 0.014492301270, -0.001071881503, 0.163925990462, 0.008531328291, 0.024817919359, 0.123109251261, 0.042099155486, 0.063448674977, -0.062910936773, -0.113591685891, -0.092225022614, -0.125652626157, -0.077489018440, 0.134949430823, -0.121818251908, 0.067949526012, -0.038439773023, 0.092755198479, -0.107640922070, 0.084509357810, 0.050419315696, 0.063188940287, 0.140681177378, -0.037989128381, 0.064502961934, -0.082872092724, -0.115897975862, -0.005240506493, 0.019436907023, 0.070795081556, 0.014871740714, -0.030797764659, -0.000105218744, 0.002154665766, 0.106444142759, 0.099948674440, -0.140186637640, -0.019131936133, -0.089178137481, 0.120878078043, 0.010515872389, 0.081699430943, 0.055736269802, 