//Numpy array shape (120, 84)
//Min -0.239411160350
//Max 0.262654006481
//Number of zeros 0

weight_default_t w6[10080] = {-0.116166278720, 0.029481999576, -0.164547428489, -0.090943410993, -0.011280820705, 0.131823062897, -0.042121611536, 0.042591318488, -0.070660278201, 0.079311840236, 0.043235912919, 0.044181257486, -0.056668460369, -0.010493864305, 0.050055444241, -0.038830481470, -0.022088265046, -0.120247319341, 0.035176932812, 0.063438072801, -0.010757903568, 0.040973253548, -0.046237554401, 0.057267695665, -0.161776974797, -0.136026769876, 0.176308542490, -0.004257383291, 0.039165478200, 0.080956928432, 0.007084409241, -0.104348212481, 0.148230716586, 0.054590027779, 0.097476042807, -0.145929411054, 0.026898596436, -0.105869986117, -0.036545228213, -0.059462629259, -0.137221053243, 0.011722429655, -0.158903002739, 0.147618398070, 0.072721727192, -0.020018853247, 0.035307176411, -0.034651808441, 0.084294997156, -0.000020534992, -0.051019184291, 0.090101681650, -0.048108927906, -0.056124243885, -0.139269649982, 0.089037589729, -0.165005058050, 0.106039419770, 0.137823149562, 0.102105744183, -0.122695036232, -0.059178877622, -0.077374674380, -0.012015584856, -0.127085566521, -0.089379951358, 0.107199862599, -0.175436690450, 0.153206616640, 0.073623418808, -0.036207944155, -0.078887507319, -0.094821736217, 0.007047430612, -0.045093987137, 0.086425133049, -0.039220683277, 0.123508907855, 0.090672016144, 0.087911598384, -0.114754468203, -0.044852361083, -0.077494733036, 0.018731815740, 0.168003395200, -0.025543993339, -0.114698030055, -0.005304067861, 0.053479745984, 0.004187050741, -0.020082119852, -0.103289447725, 0.057711914182, -0.103973478079, 0.117737933993, 0.032881397754, 0.004463637713, 0.153132900596, 0.135256767273, -0.132445633411, -0.165836244822, 0.069765962660, -0.149828791618, -0.106672607362, -0.121526777744, -0.157391726971, 0.035754837096, 0.011542188004, 0.163103044033, -0.129627555609, 0.027318125591, 0.049528185278, 0.035433113575, -0.015319311991, 0.078072167933, -0.091718949378, 0.244427785277, -0.020823583007, 0.135448083282, 0.073080740869, -0.072957128286, -0.094540409744, 0.081618167460, -0.060912504792, 0.116127155721, -0.028832247481, 0.087933026254, -0.107072860003, 0.011477377266, -0.025277461857, -0.165601760149, 0.112186007202, 0.043472144753, 0.055817261338, -0.141990780830, 0.182576015592, -0.112584561110, 0.083039551973, 0.214111045003, 0.010563960299, 0.104804597795, 0.106846377254, 0.062087543309, -0.094225645065, 0.048169992864, 0.041643217206, -0.085943542421, 0.156278371811, 0.072331413627, -0.054490607232, -0.004674915690, 0.171689704061, -0.044943001121, -0.110792912543, -0.002182932338, 0.174664601684, -0.182199075818, -0.116587974131, -0.007871656679, 0.109172835946, 0.157139375806, -0.051173344254, 0.017337372527, -0.048869859427, 0.140607237816, -0.118644118309, -0.050070662051, 0.083950534463, 0.071577392519, -0.150669142604, -0.016411274672, -0.078051321208, -0.164150804281, -0.065172240138, -0.024145573378, -0.072938218713, 0.054747719318, -0.072681620717, -0.081398889422, 0.011196053587, -0.045799098909, 0.092617668211, -0.163062959909, 0.046150419861, 0.079534620047, 0.030530214310, 0.147679910064, 0.152362808585, -0.011684863828, -0.067018598318, 0.066492632031, -0.047798294574, 0.107982032001, -0.171997383237, -0.015109792352, -0.137442886829, -0.006108783651, -0.122764118016, -0.051842067391, 0.013681692071, -0.061742421240, -0.111358992755, -0.080394178629, 0.096084967256, -0.101919971406, -0.151222869754, 0.081136532128, -0.008867391385, 0.029131036252, 0.032666981220, -0.003616129979, 0.048131369054, -0.076352186501, -0.122011028230, 0.043127767742, 0.067460872233, -0.071169249713, 0.048639569432, 0.153234645724, -0.015665497631, 0.086300857365, 0.047974348068, 0.162064120173, 0.027576681226, -0.101578675210, 0.077827677131, 0.120148561895, -0.114203438163, 0.114022105932, 0.052638795227, 0.037137251347, 0.093944162130, -0.142967119813, 0.085338532925, 0.167960956693, -0.097821876407, 0.130240276456, -0.094787970185, 0.019822642207, -0.103247262537, -0.008616488427, -0.101748406887, -0.043190851808, -0.113410316408, -0.047178789973, -0.160481348634, -0.153728827834, 0.113591924310, -0.170288160443, -0.119947306812, -0.126772329211, 0.112119130790, -0.138649687171, -0.032065249979, 0.019809635356, 0.069617010653, 0.017388977110, 0.117564551532, -0.154998093843, -0.084700271487, 0.153481259942, -0.085020653903, 0.033392760903, 0.065347917378, 0.064735315740, -0.047786466777, 0.117150053382, 0.087503619492, 0.138811618090, -0.030952921137, 0.019521322101, 0.097454175353, 0.000812287850, 0.034662760794, 0.169727861881, -0.120746806264, -0.124147042632, -0.131533920765, -0.148903191090, 0.075728990138, -0.004555416759, 0.047212354839, -0.080718204379, -0.011170342565, 0.135320261121, 0.018937423825, -0.030713075772, -0.014870196581, -0.076521284878, -0.035202298313, -0.007470017765, 0.090673737228, 0.102223530412, -0.025742003694, 0.055219028145, -0.026094557717, 0.158552974463, -0.047473110259, -0.063453905284, 0.150751605630, 0.000059962225, -0.118415802717, -0.076551243663, 0.032539989799, -0.154630050063, 0.173889398575, -0.130358994007, 0.018190477043, -0.032610278577, -0.052616391331, 0.114999607205, -0.121482811868, 0.069108247757, 0.027279471979, -0.182022184134, -0.013742698357, 0.001345336088, -0.096559725702, -0.102304935455, 0.019230678678, 0.008683000691, 0.020132651553, -0.110605515540, 0.163567215204, 0.020530175418, 0.084829293191, 0.030873825774, -0.048601709306, 0.009932552464, 0.090098999441, 0.147981107235, 0.046373017132, -0.092359721661, -0.185511723161, -0.031983215362, -0.163987115026, -0.024691341445, -0.069708548486, 0.193569868803, -0.050505194813, 0.016467187554, -0.132777363062, -0.070968158543, 0.070177190006, -0.075493954122, 0.111226297915, 0.146708086133, -0.170150116086, 0.065865948796, 0.195931002498, 0.159677430987, 0.164862394333, 0.143381997943, -0.110871277750, 0.123423203826, 0.160017162561, 0.161835953593, 0.115930378437, 0.027786230668, -0.037137869745, -0.085312046111, 0.115623429418, 0.031236443669, -0.146928772330, -0.095578715205, 0.063718974590, 0.136580184102, 0.020905757323, -0.111925803125, -0.101092450321, -0.094435408711, -0.118351846933, 0.133856996894, 0.099410422146, -0.101645328104, 0.031584464014, -0.130718201399, 0.017249727622, 0.113976366818, -0.136225461960, -0.064708858728, 0.143823966384, 0.073986068368, -0.178455218673, -0.088581256568, 0.102105356753, 0.162935480475, 0.056194067001, -0.045627783984, 0.168480366468, 0.147931128740, 0.114313356578, 0.074689388275, -0.020448764786, 0.023287493736, 0.148536846042, 0.111130021513, -0.112678013742, -0.081247523427, -0.064820043743, -0.078307233751, -0.137206688523, -0.041877355427, -0.075430847704, -0.180132344365, 0.075743950903, -0.121776543558, 0.094071298838, 0.058539390564, 0.076646462083, -0.163786366582, 0.114909537137, -0.009566828609, -0.145392015576, -0.014911415055, 0.059639785439, 0.027216851711, 0.087093338370, -0.152600079775, 0.063922390342, 0.024244414642, 0.102798521519, 0.005056500435, 0.167236641049, 0.084704600275, 0.036942277104, -0.136382594705, -0.137683942914, -0.053545482457, -0.137046426535, 0.150109246373, 0.080787643790, -0.132588356733, 0.121679536998, 0.073261149228, 0.073326967657, -0.071994744241, 0.090736567974, -0.092454694211, 0.117619119585, 0.112951889634, 0.042567409575, -0.135557010770, -0.049493197352, -0.052005082369, -0.159585207701, -0.131892815232, -0.164686873555, 0.018712565303, -0.095377042890, 0.149063050747, -0.072518505156, 0.070965021849, -0.082817256451, -0.056162383407, -0.137379541993, -0.090273879468, -0.031327228993, -0.070895604789, -0.130196169019, -0.010625000112, -0.008928730153, 0.020495710894, -0.119405381382, -0.068213753402, -0.052597641945, -0.135742962360, -0.088309139013, 0.158038705587, -0.067500740290, -0.111700944602, 0.085607841611, -0.057150129229, -0.043615121394, 0.049033671618, -0.081093907356, -0.050959914923, 0.177976861596, -0.066836170852, 0.018024733290, 0.180367022753, -0.105290614069, -0.143712311983, -0.022523945197, -0.053780212998, -0.098506145179, -0.048392347991, 0.032783180475, -0.036830250174, -0.016177512705, 0.176330834627, -0.028129719198, -0.039498575032, 0.084906578064, 0.134087577462, -0.062409583479, -0.054634656757, 0.143126100302, -0.034793991596, 0.133537381887, 0.115801982582, -0.116038903594, 0.001372513245, 0.064954124391, -0.107981786132, 0.005563111976, -0.154710948467, -0.006916840095, -0.130514845252, -0.155125126243, -0.130759745836, 0.010603897274, -0.163676142693, 0.070812202990, 0.079177550972, -0.183570951223, 0.073373109102, 0.078846566379, 0.041478056461, -0.029524546117, 0.071597732604, 0.009113115259, -0.114873930812, 0.071148246527, 0.003137034364, -0.031341914088, 0.051379144192, -0.131873682141, 0.061910342425, -0.074803777039, 0.160833209753, 0.129707187414, -0.003674251027, -0.067817941308, -0.151091471314, -0.173876702785, -0.080938860774, 0.163804963231, 0.043364543468, -0.083085238934, 0.019384922460, -0.103864140809, -0.095859482884, -0.002576292492, 0.141920119524, 0.100216634572, -0.091001622379, -0.146065905690, 0.099269762635, 0.047270409763, 0.080046713352, 0.062117479742, 0.033059164882, -0.161435425282, -0.097550511360, 0.036892712116, -0.046903178096, 0.092654161155, 0.071415431798, 0.142905533314, 0.076189637184, 0.066271655262, 0.162265047431, -0.188584208488, -0.172481507063, -0.152022421360, 0.021763181314, -0.074155092239, 0.037176672369, -0.090794578195, -0.187076270580, 0.153264224529, -0.174194112420, -0.024000614882, 0.010383140296, 0.094466477633, 0.071009233594, -0.108860902488, -0.089266277850, -0.017038481310, -0.157879054546, 0.035557467490, 0.084627807140, 0.112503737211, 0.059350904077, -0.185231477022, 0.010240101255, -0.119989953935, -0.024354163557, 0.044992789626, 0.097158469260, -0.015802770853, -0.015343552455, -0.162336319685, -0.055459983647, 0.000762395095, 0.087707184255, 0.017346847802, -0.101215548813, -0.011095061898, -0.025956466794, -0.081054963171, 0.134337112308, -0.042048145086, 0.079805672169, -0.155139341950, -0.058710310608, 0.036964427680, -0.067148692906, -0.058194868267, -0.111944571137, 0.121139243245, -0.086308397353, 0.095143906772, 0.074865117669, -0.149250209332, 0.066959135234, -0.043566584587, 0.066648721695, -0.131796494126, -0.006132573821, -0.165847450495, 0.181963145733, 0.020701112226, -0.106187537313, 0.124939948320, 0.044488042593, -0.102517344058, 0.110959254205, -0.048887614161, 0.094183616340, -0.091645300388, -0.047599755228, 0.128236487508, -0.103156194091, 0.148844033480, 0.037659708411, 0.013764328323, -0.045275121927, 0.129385232925, -0.057817008346, -0.101268023252, 0.104072123766, 0.111621350050, -0.042093999684, -0.020380441099, 0.150160834193, 0.036322604865, 0.184408232570, 0.163560241461, 0.017108934000, 0.115811787546, -0.007223426364, -0.074661262333, 0.066682599485, 0.014734027907, -0.124997727573, -0.017328131944, -0.030258156359, -0.136690452695, -0.156604051590, -0.135961398482, 0.041652359068, -0.134203568101, -0.017630990595, -0.011620442383, -0.084021292627, 0.140950769186, 0.116179026663, 0.010455635376, -0.134691819549, 0.113363169134, -0.063246846199, 0.117982737720, -0.060116935521, -0.103899896145, 0.155515775084, -0.003693840699, -0.005799991079, -0.117289967835, -0.053075227886, 0.180620387197, -0.043488617986, -0.027861366048, -0.079531192780, -0.019024774432, 0.069145120680, 0.068544454873, -0.115138076246, 0.001344252843, 0.176908910275, -0.087477497756, 0.150035485625, 0.032148759812, -0.132742509246, -0.093890331686, -0.093861348927, -0.168156132102, 0.047362703830, 0.012949850410, -0.162583336234, 0.078878067434, -0.099347315729, -0.021811263636, 0.179234564304, 0.106417402625, 0.068789131939, -0.011113982648, -0.130285382271, -0.120809711516, 0.019746627659, -0.124893032014, -0.085809543729, -0.145229369402, -0.012595159002, -0.091040797532, 0.009618166834, 0.006840262096, -0.154915377498, -0.027125580236, 0.059665091336, 0.124335274100, 0.087110340595, -0.030206168070, -0.006024437491, -0.057741418481, 0.021798994392, -0.087460614741, 0.152545318007, -0.084681421518, 0.145634174347, -0.078130774200, -0.065341725945, 0.059421036392, 0.111575372517, -0.030035814270, 0.038888681680, 0.169972434640, -0.087905488908, -0.031287707388, -0.166149988770, 0.025632966310, 0.136932954192, 0.165811479092, -0.026935445145, 0.000584135065, 0.099573217332, -0.047795038670, 0.026935158297, -0.023565027863, 0.023911239579, 0.082353852689, -0.003229249967, -0.140830993652, 0.017613114789, -0.038828108460, 0.033694166690, -0.109648555517, -0.136436000466, 0.020128300413, -0.004186382517, 0.147671848536, -0.080031536520, -0.094942823052, 0.158622935414, -0.140245094895, -0.064852602780, -0.083754733205, -0.088411331177, 0.015038026497, -0.057550165802, 0.158913463354, -0.156758740544, -0.100877270103, 0.027721710503, -0.098083317280, 0.069918341935, -0.097700878978, -0.133181139827, 0.107984408736, -0.148121684790, 0.030672544613, 0.051222745329, 0.084649927914, -0.009532777593, -0.141313388944, -0.056445218623, -0.136039361358, -0.111406572163, 0.159458622336, 0.109626352787, -0.046002563089, -0.025914711878, -0.065598726273, 0.131687656045, 0.160347774625, -0.045163936913, -0.003703318769, 0.003325119149, 0.159194946289, 0.141383841634, 0.040372230113, -0.042285628617, 0.107664950192, -0.150523290038, -0.040601611137, -0.019068570808, -0.099810272455, -0.002409043722, -0.109637714922, 0.085888385773, 0.153526052833, -0.134752109647, 0.128836780787, 0.059424962848, -0.151953950524, 0.054896194488, 0.009196829051, 0.128142699599, 0.140670940280, 0.123303227127, -0.104986317456, -0.082955867052, 0.005588188767, 0.014231027104, -0.065850004554, 0.026193141937, -0.032188672572, 0.065779671073, 0.053292822093, -0.164743393660, -0.095791950822, -0.023341076449, -0.077119484544, -0.019851006567, -0.033778991550, 0.096214249730, 0.118605822325, -0.003671975108, 0.021021639928, -0.160731479526, -0.015269755386, 0.063713252544, -0.029796948656, -0.149927303195, 0.042915701866, 0.054549779743, 0.105051338673, -0.149601057172, 0.041356526315, -0.154992893338, -0.049507539719, 0.158909395337, 0.129293277860, -0.080199189484, -0.018659329042, -0.135162979364, 0.003838146804, 0.130011752248, 0.065000437200, 0.112543694675, 0.040220100433, -0.096541464329, -0.039925262332, -0.126724153757, -0.171275109053, 0.160616621375, -0.129979863763, 0.027898216620, 0.124496072531, 0.191355004907, -0.041944812983, 0.149283438921, 0.077547959983, -0.108676597476, -0.109026782215, -0.061091210693, 0.036459885538, 0.028032923117, 0.068883955479, 0.159649014473, 0.027493065223, 0.043658211827, -0.061924654990, -0.080314509571, -0.036429431289, 0.150622442365, -0.065514862537, 0.023625984788, -0.026562795043, 0.100399471819, -0.020795293152, -0.060139473528, -0.093158431351, 0.108730584383, -0.096556581557, -0.131245985627, -0.012113874778, 0.000668412657, -0.054513521492, -0.074341684580, 0.095838643610, 0.121076852083, -0.114308714867, 0.084899254143, 0.073498614132, 0.047473426908, -0.065642878413, -0.112868331373, -0.038047958165, 0.030423874035, -0.029842503369, -0.050582010299, 0.081949226558, -0.070092931390, 0.063245810568, 0.019932294264, 0.044772140682, -0.096056967974, 0.132339179516, 0.144282951951, -0.022147946060, 0.002905471716, -0.009705042467, 0.004986898508, 0.041651479900, 0.020785812289, 0.010423828848, -0.074423916638, 0.045091520995, 0.084751412272, -0.061456415802, -0.079115130007, 0.083187535405, 0.120466150343, 0.016284743324, -0.077703759074, -0.165420889854, -0.078408494592, -0.138834044337, 0.089194230735, -0.072064340115, -0.033990729600, -0.070431396365, -0.059886720031, 0.051510721445, 0.143654048443, 0.079516299069, -0.004088889807, 0.156746208668, 0.112876400352, -0.057395789772, 0.164265811443, -0.027660714462, 0.123202681541, -0.150975391269, -0.026554310694, 0.129027470946, 0.024717168882, -0.008277374320, 0.132165044546, -0.052658252418, -0.022667905316, -0.029391456395, -0.105602703989, -0.155593499541, -0.074535295367, -0.110226638615, 0.160667240620, 0.157636091113, -0.027433661744, -0.100450098515, 0.076702654362, 0.078580968082, 0.009612170979, -0.083543248475, -0.043100442737, -0.087797053158, -0.166922539473, -0.094767421484, 0.145784050226, 0.016979495063, 0.033449012786, -0.059474743903, 0.124430194497, -0.046289656311, -0.080354049802, -0.145139709115, -0.024784661829, 0.186916857958, -0.049770239741, -0.204679533839, -0.155599564314, -0.052867818624, 0.145209416747, 0.158154219389, 0.023183144629, 0.017670938745, -0.097931332886, -0.152324795723, -0.010085236281, 0.062562428415, -0.078126825392, -0.105825640261, -0.100368417799, 0.051351465285, -0.112092427909, 0.107993341982, 0.097838848829, 0.005533641204, -0.081483505666, 0.141063287854, -0.012610266916, -0.004492841661, -0.075728394091, -0.095771916211, 0.099485978484, 0.041696906090, -0.061137821525, 0.176266223192, 0.062920041382, -0.089482113719, -0.072225451469, 0.159466862679, -0.028668954968, -0.129254311323, -0.190310940146, 0.015238578431, 0.060368936509, 0.071063190699, -0.075611948967, -0.144228428602, 0.007954967208, 0.121160201728, 0.120078474283, -0.125062867999, -0.075905174017, -0.074960760772, -0.098855979741, 0.068291813135, -0.032983228564, -0.112070485950, 0.110355265439, -0.153749808669, -0.070445314050, 0.076313354075, 0.127989500761, 0.141563743353, -0.013382691890, -0.022250978276, -0.070393875241, -0.177761942148, -0.142134562135, -0.137365192175, 0.188131943345, 0.127914726734, 0.011795876548, 0.051359526813, -0.085246600211, 0.195654258132, -0.102752208710, -0.013759834692, -0.112012289464, -0.071414150298, 0.055405106395, 0.164369344711, -0.090959422290, 0.206901162863, -0.045291308314, -0.119626164436, -0.017492553219, -0.009553095326, -0.088367395103, 0.027840962633, -0.059028755873, 0.056702505797, -0.152048572898, 0.082774639130, -0.115395046771, 0.034156840295, -0.051935460418, -0.091628111899, 0.060051292181, 0.084239333868, 0.133988887072, -0.094530515373, 0.035391017795, -0.047213096172, 0.001152736600, 0.056453831494, 0.040824834257, -0.111762836576, -0.097781121731, 0.179527625442, 0.131765007973, 0.104300640523, 0.042068872601, -0.128205358982, -0.104190222919, -0.150673314929, 0.039388448000, 0.160180523992, -0.165908381343, 0.142015919089, 0.033148158342, -0.031028416008, -0.119217023253, -0.064322799444, -0.080841824412, -0.153131872416, 0.089689195156, -0.071386955678, -0.136501848698, 0.044041812420, 0.041779749095, -0.056454598904, -0.046013217419, 0.051060363650, 0.027395285666, -0.083599574864, -0.034153800458, 0.113815903664, 0.080789819360, 0.102775342762, -0.081135764718, -0.110131584108, -0.006006020587, 0.034585934132, 0.096381969750, 0.099071450531, -0.131398037076, 0.106524191797, 0.037133939564, 0.018394090235, 0.122887782753, 0.065869718790, 0.182513326406, -0.033913969994, 0.169668972492, -0.168830439448, -0.037787560374, 0.160703644156, -0.035523060709, 0.017338771373, 0.171891435981, -0.103837929666, 0.147772714496, -0.161437183619, -0.091263696551, 0.155968829989, -0.054486606270, -0.022957807407, 0.051576621830, 0.120544642210, -0.007130242418, 0.079349428415, -0.051148548722, 0.123028323054, 0.044925872236, -0.050435885787, -0.077989786863, 0.126777574420, -0.050652310252, -0.090449795127, -0.023458123207, -0.113689213991, -0.002931057941, -0.023638116196, -0.157745942473, -0.056149594486, 0.175644323230, 0.034745316952, 0.004605532624, -0.161038219929, 0.038839600980, -0.040539212525, 0.136510089040, 0.137228548527, 0.108650520444, -0.198494747281, -0.048922799528, -0.086494490504, -0.071303568780, 0.089300490916, 0.010721971281, -0.118380934000, 0.217717200518, -0.164851292968, -0.143916502595, -0.102282024920, 0.080183610320, -0.105123512447, 0.122072502971, -0.160326451063, -0.028058800846, 0.178742423654, 0.087070852518, -0.054193764925, 0.179959043860, -0.077206514776, -0.164589792490, -0.021273946390, 0.101843871176, -0.062560588121, 0.068335726857, -0.041778519750, 0.147864967585, 0.092605069280, 0.052808746696, -0.134000480175, 0.062003023922, -0.147479772568, 0.060828357935, -0.105860799551, -0.097057074308, 0.033531412482, -0.150958538055, -0.173285886645, 0.053961109370, -0.071210667491, -0.061705812812, 0.052257407457, 0.087207056582, 0.157882064581, 0.039364986122, -0.121233209968, -0.146939590573, 0.000612435746, -0.092375546694, -0.036870304495, 0.086771436036, 0.121171310544, -0.060414407402, -0.011914982460, 0.011192182079, -0.052142269909, -0.019278025255, -0.033746805042, 0.093332812190, 0.035605207086, -0.055647060275, 0.001623881981, 0.147967040539, 0.069749303162, 0.121321588755, 0.103800632060, 0.127980783582, -0.079885363579, 0.156128659844, 0.001428241725, 0.060224987566, 0.043601632118, 0.047652509063, -0.104245677590, 0.101540088654, 0.130641788244, -0.095617927611, 0.124003477395, -0.001098809997, -0.030202792957, -0.147133648396, -0.145429670811, -0.020515400916, -0.143013462424, 0.038351017982, -0.046856097877, 0.055247455835, 0.164484113455, 0.136887401342, 0.063110753894, -0.142985448241, -0.100805237889, -0.141225203872, 0.064069226384, -0.028681214899, 0.013576297089, -0.090537123382, -0.104190774262, -0.025905299932, 0.090767204762, 0.033742196858, -0.162920847535, -0.068574845791, 0.061220470816, 0.106168940663, 0.094942234457, -0.136413484812, 0.012419682927, 0.020144484937, -0.097483187914, 0.103598751128, 0.134195014834, 0.025494139642, -0.106431610882, 0.105176128447, -0.065070942044, -0.073885910213, -0.107043638825, -0.071903184056, 0.174810156226, -0.144251510501, -0.013387814164, 0.133604228497, 0.012251493521, 0.069208391011, 0.009543875232, 0.135953366756, 0.043684877455, -0.156654477119, 0.035152863711, 0.096391618252, 0.076399296522, 0.114930681884, -0.094247385859, -0.130711793900, 0.018819967285, -0.093163251877, 0.030299939215, -0.157359808683, 0.098040588200, 0.020691061392, 0.035780113190, -0.072089217603, 0.121077097952, 0.093812458217, -0.105285547674, 0.000353719632, 0.041308667511, -0.081418178976, 0.092602111399, 0.043097652495, -0.082694061100, 0.100659847260, 0.022910991684, -0.075494751334, 0.149136722088, 0.012244836427, 0.055085960776, 0.117903403938, -0.157847881317, 0.145717635751, -0.100414581597, -0.189784824848, -0.004873130936, -0.079209275544, 0.071858659387, 0.040718402714, -0.155306100845, 0.049835179001, -0.063234701753, -0.065881781280, -0.091811314225, 0.047035735101, -0.206661850214, 0.014648546465, 0.005945948418, 0.037605572492, 0.128828451037, -0.158362075686, 0.149656549096, 0.008531256579, 0.056714762002, 0.061557989568, 0.102122217417, 0.166816323996, 0.051473107189, 0.133794814348, -0.087718695402, -0.153621435165, 0.177333131433, -0.130654558539, -0.132615804672, -0.060135517269, -0.062620781362, 0.029428608716, 0.172892794013, 0.015175907873, 0.014349217527, -0.112505018711, -0.048120144755, 0.131663128734, -0.093509025872, -0.068971335888, 0.081924028695, -0.053127210587, -0.104356326163, -0.101392418146, -0.138563111424, 0.124875441194, -0.064036294818, -0.026807187125, 0.158671051264, 0.107916966081, -0.168099641800, 0.074076317251, -0.031816262752, -0.187840014696, 0.058856163174, -0.046330053359, -0.091809920967, -0.084142595530, 0.002394940704, -0.086732082069, -0.054122645408, 0.162228167057, 0.060563821346, 0.015220990404, -0.052339445800, 0.056779522449, 0.113066703081, 0.014567101374, -0.112852036953, -0.184948265553, -0.168044447899, 0.229201287031, -0.111634731293, 0.021578302607, -0.058738850057, 0.091550223529, 0.055938683450, -0.112633243203, -0.046742454171, 0.004852536134, 0.038758490235, -0.054164472967, 0.075225315988, 0.144653290510, 0.146827772260, -0.113896764815, 0.206785023212, 0.073244445026, 0.050984960049, -0.057664338499, 0.041425291449, 0.127955317497, 0.039746221155, 0.127558916807, 0.159395247698, -0.039242606610, 0.013324892148, 0.148309126496, 0.109586842358, 0.057922363281, 0.096430316567, 0.158039808273, -0.064854472876, 0.046143896878, 0.205487161875, -0.071625426412, -0.065127171576, -0.153742894530, 0.054791621864, -0.002141860314, 0.150374278426, -0.092150345445, -0.081480234861, -0.130672514439, -0.173361033201, -0.085757024586, 0.178659200668, 0.002977424534, 0.037810947746, -0.063281245530, -0.035050544888, -0.062064193189, 0.108924239874, 0.150126427412, 0.052820380777, -0.052608780563, 0.107600241899, 0.006514973473, -0.112847290933, 0.178058803082, 0.002132976195, -0.211367592216, -0.175416335464, 0.156131044030, -0.075268901885, 0.072120472789, -0.079341657460, 0.101018287241, 0.050490215421, 0.131041139364, 0.011896696873, -0.097946219146, 0.012434240431, 0.058255504817, -0.050383459777, 0.147183761001, 0.121179036796, -0.045100986958, -0.008367509581, -0.148944422603, 0.004426201340, -0.115233033895, 0.014089091681, -0.016665570438, 0.124507144094, -0.069798052311, -0.082763582468, 0.135965973139, 0.141569450498, -0.034777551889, -0.161196500063, -0.012003663927, -0.075456157327, -0.129715144634, -0.097525633872, 0.076721668243, -0.043987382203, -0.021115541458, 0.034258145839, 0.085961624980, -0.079225726426, 0.181111216545, 0.071662902832, -0.105676367879, -0.038282644004, -0.034360829741, 0.052064523101, -0.087967745960, -0.109524086118, -0.167883828282, 0.085162691772, 0.001143006142, 0.156972914934, 0.165865734220, -0.177601531148, 0.111234068871, 0.130201056600, 0.019175689667, -0.046982981265, -0.164829686284, -0.153910353780, 0.081561855972, -0.036116436124, 0.171019360423, 0.113134779036, 0.106530934572, 0.112084895372, -0.065030097961, 0.093020945787, -0.074519671500, -0.158997073770, -0.151988908648, 0.073357373476, 0.161185607314, 0.187720000744, 0.162174820900, 0.130458772182, -0.087940081954, 0.042210161686, 0.041309028864, -0.095170736313, -0.127372860909, 0.060507949442, -0.064436450601, -0.102837882936, -0.050041630864, 0.123929768801, -0.069537527859, 0.036804363132, -0.046380102634, 0.134114652872, 0.192301064730, 0.104417711496, -0.019053172320, 0.034996554255, -0.149589523673, 0.119025081396, -0.130997791886, 0.011023218744, 0.145730540156, 0.124576188624, -0.117509603500, 0.218084663153, 0.016680648550, -0.043737124652, 0.141770467162, 0.006163454615, 0.052960131317, -0.062946811318, 0.040898244828, -0.036784309894, 0.108386233449, 0.113626316190, -0.023667640984, 0.023377060890, -0.119391389191, 0.146631628275, 0.144726589322, -0.158716335893, 0.101936459541, 0.118323594332, 0.122205764055, 0.143433466554, -0.085716933012, -0.043603844941, -0.139325752854, 0.118392318487, 0.043780047446, 0.161810681224, 0.022273734212, -0.117457598448, 0.122903481126, -0.126642659307, -0.048912685364, 0.167201742530, 0.048438534141, 0.159381642938, -0.027639249340, -0.054296750575, -0.058579668403, 0.125110030174, -0.045786529779, -0.119871936738, -0.046911075711, -0.034949291497, 0.025552019477, 0.024272928014, -0.075118213892, -0.164199948311, 0.071595020592, 0.074750371277, 0.078317455947, 0.114975824952, 0.088256075978, -0.140507265925, 0.174542218447, -0.048497151583, -0.029067765921, -0.026196148247, -0.030874837190, 0.021779686213, 0.011654916219, -0.021768178791, 0.054468199611, 0.157249167562, -0.170660793781, 0.058162778616, 0.130072027445, -0.012308198959, -0.122739247978, 0.094340845942, 0.035444810987, 0.000366918044, 0.118387885392, 0.097927860916, 0.112105906010, -0.147702187300, -0.118864640594, 0.132685169578, 0.014867340215, -0.052610833198, -0.004231469706, 0.008193293586, -0.012825529091, -0.135712623596, -0.106633864343, -0.040637657046, 0.091102838516, -0.038697902113, 0.012183485553, -0.038619622588, -0.055884983391, -0.060351822525, -0.125851884484, 0.162970691919, -0.158608287573, -0.058635860682, 0.080904319882, -0.133442997932, -0.034712769091, 0.019522877410, -0.012367158197, 0.076692894101, -0.104611463845, 0.143393844366, 0.051473181695, -0.103101156652, -0.049123138189, 0.028284225613, -0.105529904366, 0.018976816908, -0.018820771948, -0.137960046530, -0.088289894164, 0.061858743429, -0.134434640408, 0.049576960504, 0.142745584249, -0.158123314381, -0.111352652311, -0.131963327527, 0.072560191154, -0.057424739003, -0.053377538919, -0.043453149498, 0.031972505152, 0.030304696411, 0.074135124683, 0.001098003006, -0.074048221111, -0.063465230167, 0.059970125556, 0.128091737628, -0.069862104952, 0.044914502650, -0.101256355643, -0.167577087879, -0.057760708034, -0.016619645059, 0.004287847318, 0.089199908078, -0.035033263266, 0.007007600740, 0.108599722385, 0.087509199977, -0.056576099247, 0.019040528685, -0.039867687970, -0.043655321002, -0.157559528947, 0.068895570934, -0.167639508843, 0.017511658370, -0.009704963304, -0.043290209025, 0.169776886702, 0.011344878003, -0.063447870314, -0.020523237064, -0.072287566960, -0.010493034497, 0.068166039884, 0.071567617357, 0.133886054158, 0.138017937541, -0.144029632211, -0.004331497941, 0.033936459571, -0.142609417439, -0.009980872273, 0.077353149652, 0.095089510083, 0.087420448661, -0.138657599688, 0.017664797604, 0.049834161997, -0.050170578063, -0.134891569614, 0.153966471553, -0.075100131333, 0.149260580540, -0.051731981337, -0.034740224481, -0.169077828526, 0.088021054864, 0.001926226076, 0.109790042043, -0.082352094352, 0.042583435774, -0.148578777909, 0.097197160125, -0.080865122378, -0.091882631183, 0.020284779370, 0.058645103127, 0.114691726863, -0.012985906564, -0.007031008601, 0.065412923694, -0.140436455607, 0.043149851263, -0.083743244410, -0.031617883593, 0.027573328465, 0.161476075649, 0.107398942113, 0.077162519097, -0.056022696197, -0.056538552046, 0.022678345442, -0.125447094440, 0.104791402817, 0.004186851438, 0.106910012662, 0.199207872152, 0.123455703259, -0.059688705951, -0.024084929377, 0.047262389213, -0.056589655578, 0.016882913187, -0.097762063146, -0.059070829302, 0.028009129688, 0.079556554556, 0.081087484956, 0.180317878723, -0.036083884537, -0.129749566317, 0.104018755257, -0.123374998569, -0.145145609975, 0.064504966140, 0.121026806533, 0.005480886437, 0.108784079552, -0.023779273033, 0.156073108315, -0.019069176167, -0.052043024451, 0.120569273829, 0.073330193758, -0.144786208868, -0.109712645411, -0.144959330559, 0.078966327012, -0.027947226539, 0.112113282084, 0.138017892838, -0.059422746301, 0.149235188961, 0.204175144434, 0.176564767957, -0.071157678962, 0.170948013663, -0.112212173641, -0.057860456407, -0.162885442376, -0.103667691350, -0.106339156628, 0.065981864929, 0.058270964772, -0.158684164286, 0.042609911412, -0.056577038020, -0.064830824733, -0.097627758980, -0.168457463384, -0.041593331844, -0.148622423410, -0.138772889972, -0.152908071876, -0.026843192056, -0.153224647045, -0.064267098904, 0.156733363867, -0.016519276425, 0.083624579012, 0.021014735103, 0.112249203026, -0.156800091267, 0.047210924327, 0.121424585581, -0.052624423057, -0.187407121062, -0.101079985499, -0.091513261199, -0.142770826817, 0.168181180954, 0.012544050813, 0.074908778071, 0.055186346173, -0.107465334237, 0.056091848761, -0.024093881249, 0.009791694582, 0.131604731083, 0.000393421098, -0.085711672902, 0.012299799360, 0.049503110349, -0.058477394283, 0.107307367027, 0.125497534871, -0.171770110726, 0.102833732963, 0.110109977424, -0.109594561160, 0.108609490097, -0.078247949481, 0.083966188133, 0.124493613839, 0.117450989783, -0.078771449625, 0.025355638936, -0.053202047944, -0.163117215037, 0.008578781970, 0.021516157314, 0.169979557395, 0.165232449770, -0.042489241809, 0.172521978617, 0.049908243120, -0.150366872549, 0.035481065512, 0.142377331853, 0.106381274760, 0.030574116856, 0.080848090351, 0.001412083162, -0.009959898889, 0.192170158029, -0.139783382416, -0.116851203144, 0.065665885806, -0.134856149554, 0.055480711162, -0.150207906961, 0.085736654699, 0.128254547715, -0.120514065027, 0.107453420758, -0.047721561044, 0.117864482105, 0.154579773545, 0.036587819457, -0.136133387685, -0.002909735078, -0.146866887808, 0.026338763535, -0.068715557456, 0.111414715648, 0.051304444671, -0.126954585314, 0.116384603083, 0.142837807536, 0.188125580549, 0.149841889739, -0.172345042229, 0.074170902371, 0.062635041773, -0.118553332984, 0.123363032937, -0.035389650613, -0.070242591202, 0.073568828404, 0.053642101586, -0.067714720964, -0.096712261438, 0.053750630468, -0.024345755577, 0.169956073165, -0.168397173285, 0.057041924447, -0.085622414947, 0.141298159957, -0.146576136351, 0.050733201206, 0.025466298684, -0.116635628045, -0.108259715140, -0.007304998115, 0.150968641043, -0.004475004971, 0.109773881733, 0.040731739253, 0.096840545535, 0.055397633463, -0.116455748677, -0.053818892688, 0.050573129207, -0.099748343229, 0.018504992127, 0.049347035587, 0.136802971363, -0.133873865008, -0.102555349469, -0.014013973996, 0.065046705306, -0.020414870232, 0.034752402455, 0.125247269869, -0.009413611144, 0.035964947194, -0.160131454468, 0.052207082510, 0.113649420440, -0.026935907081, 0.055600471795, -0.000051039184, 0.127574712038, 0.140033781528, 0.022425118834, 0.073376454413, -0.052051872015, -0.171626061201, -0.153546154499, 0.066827617586, 0.037523113191, 0.189914852381, -0.061973188072, -0.072287306190, 0.089670352638, 0.109106935561, 0.024267503992, 0.106052957475, -0.118322417140, 0.124898314476, -0.027704270557, 0.078420430422, 0.067070581019, 0.027997763827, -0.094949021935, -0.087137944996, -0.028969770297, -0.062896899879, 0.043049421161, -0.082578189671, -0.146378412843, -0.025789232925, -0.115032531321, 0.123445652425, 0.082680337131, 0.184199139476, -0.118240840733, 0.135660842061, 0.120715029538, 0.114709585905, 0.029370903969, 0.093289099634, 0.064876794815, 0.151178747416, -0.093027397990, -0.159591704607, -0.049954686314, -0.141023114324, 0.076601967216, 0.040925506502, -0.137675762177, 0.075943559408, -0.016098625958, -0.074149250984, 0.162759438157, 0.121056020260, -0.023992806673, 0.185772255063, 0.055749189109, -0.166202470660, 0.018772266805, 0.069914631546, -0.109727397561, -0.124893598258, 0.115562230349, 0.066864728928, 0.101284198463, -0.098251372576, 0.028236409649, -0.111215546727, 0.055656094104, 0.000276697596, -0.149007648230, -0.162429153919, -0.015015242621, 0.156372040510, -0.065620951355, 0.029085207731, 0.150484547019, 0.077900789678, 0.064991369843, 0.094000659883, 0.089690349996, 0.027833610773, -0.173697084188, 0.106719434261, -0.099158495665, 0.004834209569, -0.077279709280, -0.105933472514, 0.157358691096, -0.048572290689, -0.138703763485, -0.093452543020, -0.025579130277, -0.022715216503, -0.033384870738, -0.026424488053, -0.084151037037, 0.159150585532, 0.014452753589, 0.033907189965, 0.080128118396, -0.022633729503, 0.015442223288, 0.111313447356, 0.042620994151, 0.037472408265, -0.076707430184, -0.107930198312, 0.063231214881, -0.101346053183, 0.180884331465, -0.096891582012, 0.045662745833, 0.116665333509, -0.192825183272, -0.001068747253, 0.126745924354, 0.010038034059, -0.174752548337, -0.002856004518, -0.196978121996, -0.066247627139, -0.008428395726, -0.074612274766, -0.174053713679, 0.199640497565, 0.187564983964, -0.082589901984, 0.091184645891, -0.131295457482, 0.131853669882, 0.010148465633, -0.094718120992, -0.109365411103, -0.065691873431, -0.119041718543, -0.066265314817, -0.122021704912, -0.069317393005, 0.125919803977, -0.086010642350, 0.038353011012, 0.028930479661, -0.094707958400, 0.052307102829, -0.121832117438, 0.016682222486, 0.022241506726, 0.205903589725, -0.134980931878, -0.050065249205, 0.121206089854, -0.013008572161, -0.111589357257, 0.013553383760, 0.010190463625, 0.048758972436, 0.093931131065, -0.040126085281, -0.146682307124, 0.096813678741, -0.027904670686, 0.030543539673, -0.127834379673, -0.133824855089, -0.026710294187, 0.036047473550, 0.127143144608, 0.068495780230, 0.119787022471, 0.129000559449, 0.126312017441, -0.089641720057, -0.043598487973, -0.065667741001, -0.058052841574, -0.090125903487, -0.125115603209, 0.138447180390, -0.194007173181, -0.148324593902, 0.066408142447, 0.180893734097, 0.105769760907, -0.196284636855, -0.107828997076, 0.172053605318, 0.146894067526, 0.039533525705, -0.101274676621, 0.091091841459, 0.025559676811, 0.149547725916, 0.128472343087, 0.140558630228, -0.041386488825, -0.183224216104, -0.029117945582, 0.152714565396, -0.193370819092, -0.064503334463, -0.103601671755, -0.180039823055, -0.182607188821, 0.008453962393, 0.137416735291, -0.104967065156, -0.148249208927, -0.120343506336, -0.077294856310, -0.067877493799, -0.054637752473, 0.134329065681, 0.129104897380, 0.071715287864, -0.065459914505, 0.057696104050, 0.052529122680, -0.051298279315, -0.114269793034, -0.135238334537, -0.059298779815, 0.164180800319, 0.074873052537, -0.066206917167, 0.102780498564, -0.060781009495, -0.125292226672, -0.131009742618, 0.062867224216, 0.078287199140, -0.013394651003, 0.156270325184, -0.169520139694, -0.157031625509, -0.127936661243, 0.003576944117, -0.141455367208, -0.080542258918, -0.120918005705, -0.002929445589, -0.018753619865, -0.088727883995, -0.068396151066, -0.133960604668, 0.143838182092, -0.021668773144, -0.147038310766, -0.132924899459, -0.010946538299, 0.122485429049, -0.123251259327, 0.035600189120, -0.052454132587, -0.129681229591, 0.009284885600, 0.124752037227, -0.098014794290, -0.055850010365, 0.125240847468, 0.109097167850, 0.160292863846, -0.114677757025, -0.116574682295, 0.085373662412, 0.089122317731, -0.018623663113, -0.044666610658, 0.042773168534, -0.151469752192, 0.150512874126, -0.143283382058, -0.046205893159, 0.127224326134, 0.076020210981, -0.174361273646, -0.134382009506, 0.084416069090, 0.199031516910, 0.046485602856, 0.068981342018, -0.155132636428, -0.165242388844, -0.048638571054, 0.051197681576, 0.112551093102, -0.143604815006, -0.186303496361, -0.029374223202, 0.037629891187, -0.122419849038, -0.039700821042, 0.105312578380, -0.159387037158, 0.048197876662, -0.051197253168, 0.060344081372, -0.182863488793, 0.123688362539, -0.039336729795, -0.094667643309, 0.122783012688, 0.076320119202, -0.122336469591, -0.065896697342, -0.156478285789, 0.167211323977, -0.036996085197, -0.132819607854, 0.017710268497, 0.017209503800, 0.152926325798, -0.009634357877, -0.048771042377, 0.154282093048, -0.064798101783, 0.057636007667, 0.042425945401, -0.087536759675, -0.075418546796, 0.034245036542, -0.005553007126, 0.040259569883, 0.056697368622, -0.141505151987, -0.076512001455, 0.117278911173, -0.068364411592, -0.187195062637, 0.011920353398, -0.122905097902, 0.010225569829, 0.124302685261, 0.021163122728, 0.117109872401, 0.126012057066, 0.150797918439, -0.014917152002, 0.034868218005, 0.053063467145, -0.041581034660, -0.156197130680, -0.177894368768, -0.096106506884, -0.138482496142, 0.084896855056, 0.078161135316, 0.171278357506, 0.111853472888, -0.127168193460, -0.029633123428, 0.011444162577, 0.151341989636, -0.033063054085, 0.018048865721, 0.100694656372, -0.047951359302, -0.115900009871, 0.082511231303, 0.170951426029, 0.072457462549, 0.126077219844, -0.087829567492, -0.170165628195, 0.079815432429, 0.118838392198, 0.122605808079, 0.183673501015, -0.097576633096, 0.196054637432, 0.176599130034, 0.121753290296, -0.151443719864, -0.079824186862, 0.000210374521, 0.104770883918, -0.047239985317, 0.051943946630, 0.130455747247, -0.046622797847, -0.105285584927, -0.078531302512, -0.029379853979, -0.109931066632, 0.092593170702, -0.116613052785, 0.124359816313, -0.168474733829, 0.024243200198, -0.060013439506, 0.081595070660, -0.121754609048, 0.016161842272, 0.065124355257, -0.066810019314, 0.109805099666, -0.093800343573, -0.072172388434, 0.047144208103, 0.012856613845, -0.034053415060, 0.014088666998, 0.174631431699, 0.025971038267, -0.088609673083, -0.124911308289, 0.107769608498, -0.085903823376, -0.040801700205, -0.016003385186, -0.118078619242, -0.042544540018, -0.037472233176, 0.072486445308, -0.035480827093, 0.169468358159, 0.010171283968, 0.114367708564, -0.116375684738, -0.194732010365, 0.034783694893, -0.142255917192, -0.121421650052, 0.068869739771, -0.127018779516, -0.133027881384, -0.146472468972, 0.077010639012, -0.166904821992, 0.186176478863, -0.147982448339, -0.042838506401, 0.027735957876, -0.100004658103, 0.051706094295, 0.166735485196, -0.023347279057, 0.108408182859, 0.046411771327, 0.115201041102, 0.096424177289, -0.145390510559, 0.156884387136, -0.167316794395, -0.153106823564, 0.190097659826, -0.085715383291, 0.124041669071, 0.095433488488, 0.011067228392, 0.028076743707, 0.100201494992, 0.035671040416, 0.053877759725, 0.115810297430, -0.215679451823, 0.065504804254, -0.111319676042, -0.094845265150, -0.083839826286, 0.114670410752, 0.105239771307, -0.026488494128, -0.049872603267, -0.095663368702, -0.093292839825, -0.010397404432, 0.052609149367, 0.017944937572, -0.013850124553, -0.060916699469, -0.023456165567, 0.147317737341, 0.009607707150, 0.003204051405, -0.178502008319, -0.167054101825, 0.134170442820, 0.192953154445, 0.148949563503, 0.058754645288, 0.016051586717, -0.149313047528, -0.164407044649, -0.041880428791, -0.068786427379, 0.138641208410, -0.079203009605, 0.088188201189, -0.149404659867, 0.021158633754, -0.076617054641, -0.090504147112, -0.147032588720, -0.153271153569, -0.007092539687, 0.007408563513, 0.166906699538, 0.079969361424, -0.060344405472, -0.010323341005, -0.030556242913, -0.018767120317, 0.132685482502, -0.116366229951, 0.025774270296, 0.119364373386, 0.012472123839, 0.118890173733, 0.100748434663, -0.092590302229, 0.222584769130, -0.209595173597, 0.053546093404, 0.029598221183, -0.111396394670, 0.051205534488, 0.044815357774, 0.012567988597, -0.181173250079, 0.153020352125, 0.123717859387, -0.001424763119, 0.070984855294, -0.044553380460, 0.113534308970, -0.095346570015, 0.007381193340, 0.138060092926, 0.066852770746, -0.001449542469, 0.059482511133, -0.157464578748, 0.021295472980, -0.030593842268, -0.022412849590, 0.077617354691, 0.108835510910, 0.177245900035, 0.037378910929, -0.115209504962, 0.143942013383, -0.046667501330, 0.030717477202, 0.081455409527, 0.106229551136, -0.024286275730, 0.061783544719, -0.039198707789, -0.011421582662, -0.050182309002, 0.061822999269, -0.148270249367, 0.070842623711, -0.174571499228, -0.000439869531, 0.107383497059, -0.054184310138, -0.032988421619, -0.004100091290, 0.023947609589, -0.022645873949, 0.105650730431, -0.110762551427, -0.146722733974, 0.170207977295, 0.059991613030, 0.108112499118, -0.029576864094, 0.052290454507, 0.113517813385, -0.091099686921, -0.027360610664, 0.033263090998, -0.129103019834, 0.123570740223, 0.054215755314, 0.022785969079, -0.033387463540, -0.154042482376, 0.089558213949, -0.100693568587, 0.126320973039, -0.151289641857, -0.102742038667, -0.119983404875, -0.152510270476, -0.161096870899, -0.088816069067, 0.070390261710, 0.152550190687, 0.028632208705, -0.052357044071, -0.109722882509, -0.093832626939, 0.098870337009, 0.027878189459, -0.122222587466, 0.063319072127, 0.163247957826, -0.128376811743, -0.193836122751, -0.000766850251, 0.098318494856, 0.087412618101, -0.097800306976, 0.009799191728, 0.059001170099, -0.154230475426, -0.132137924433, 0.001768434537, -0.044633459300, -0.002219564049, -0.007463370916, 0.019201891497, 0.087430134416, 0.047817040235, -0.009745293297, 0.091925449669, 0.071746654809, -0.020922921598, -0.103914983571, 0.009562908672, 0.149301856756, 0.116351611912, 0.004062443972, 0.124653205276, -0.084489643574, 0.107010222971, 0.080894395709, -0.067479394376, 0.007906776853, 0.053519994020, 0.026227928698, 0.063870660961, 0.091627806425, -0.019242323935, 0.033515803516, 0.060794699937, -0.066586859524, 0.022170651704, -0.163782343268, 0.135424926877, 0.073326274753, -0.043858546764, -0.046131987125, -0.066297434270, -0.169399619102, -0.111012615263, -0.052400331944, 0.028335109353, -0.074774585664, 0.151950001717, 0.081006661057, -0.021148938686, 0.152403444052, -0.029579566792, -0.116299524903, -0.155517846346, -0.145251795650, -0.143369168043, 0.099443554878, 0.013391555287, 0.102759212255, 0.089869014919, 0.062004908919, 0.051458019763, 0.010917122476, -0.090924806893, -0.148345068097, -0.112302221358, -0.071247391403, -0.180750340223, 0.067489854991, -0.102755062282, -0.167890802026, -0.020279992372, 0.126129448414, 0.028446760029, 0.161790117621, 0.002930517774, 0.087013743818, -0.162205949426, -0.110666424036, 0.029101712629, 0.103256210685, 0.066224746406, -0.161720067263, 0.105329178274, -0.133765116334, 0.153662949800, 0.212764129043, 0.079229950905, 0.088020920753, 0.033329326659, -0.032015636563, 0.057615529746, 0.226662427187, -0.040808614343, -0.063454948366, -0.032345831394, 0.139647632837, 0.051352638751, 0.086704798043, -0.001558578690, -0.048726081848, -0.016154706478, -0.128593206406, 0.127357140183, 0.017729636282, -0.119765371084, -0.117810450494, -0.077983446419, -0.139246672392, 0.077349349856, 0.132983088493, 0.028109265491, -0.047651059926, -0.078269504011, -0.133840605617, -0.115404248238, -0.172977074981, -0.051958207041, -0.051088705659, 0.162523940206, 0.121267221868, -0.103590622544, 0.080165147781, -0.049686245620, 0.035368070006, -0.011969104409, -0.071417696774, 0.013950162567, 0.110288426280, 0.030620286241, -0.008254114538, 0.206072762609, -0.127904236317, -0.005590998102, -0.157551810145, 0.027407497168, -0.020779369399, -0.000653458002, 0.031285438687, 0.096694298089, -0.048401605338, 0.142382532358, -0.153015330434, -0.076926507056, 0.124102421105, 0.133194684982, -0.023172918707, 0.005278468132, 0.156947031617, -0.155987188220, -0.030759543180, 0.118563659489, -0.129857137799, 0.083987414837, -0.156309738755, 0.122233867645, -0.173695549369, -0.008368626237, 0.014449171722, -0.148092955351, 0.010069359094, 0.025009389967, -0.009895114228, -0.126160532236, 0.039002332836, 0.203441753983, -0.107392661273, 0.154653713107, -0.037770744413, -0.076818808913, 0.080526456237, 0.036651849747, 0.123545818031, -0.004599776119, 0.082471579313, 0.156799629331, 0.016731265932, 0.003876540344, -0.165539324284, -0.139771923423, -0.099281392992, -0.201043799520, 0.093775317073, -0.069137699902, 0.188914150000, 0.227669447660, 0.101380974054, 0.147666111588, -0.127967640758, 0.026266254485, 0.123196847737, -0.071124926209, -0.096383765340, -0.109456650913, 0.031238019466, 0.014389621094, 0.197588145733, 0.166009113193, -0.150880783796, 0.120440006256, -0.091050095856, 0.039636675268, -0.145449668169, -0.087209559977, 0.060485064983, -0.009175349027, 0.073868557811, 0.096052721143, 0.063855834305, 0.026399996132, -0.087814085186, 0.024899356067, 0.064931616187, 0.009718266316, 0.013704410754, -0.064533397555, -0.156964197755, 0.172673746943, 0.025371864438, 0.086672857404, 0.071901097894, -0.063250392675, 0.003027997212, 0.015777768567, 0.032419621944, 0.015299700201, 0.058923665434, 0.183294847608, -0.002789270831, -0.183921217918, 0.066702000797, 0.075192660093, 0.112948648632, -0.157762095332, -0.103550620377, 0.164343640208, 0.087798252702, -0.064180269837, -0.053755119443, -0.110531717539, 0.262654006481, 0.193091720343, 0.042419813573, -0.066534206271, -0.145405292511, -0.048773210496, 0.101211108267, 0.107898294926, 0.088261142373, -0.039112810045, -0.155775099993, 0.039083119482, 0.030614368618, -0.015153000131, 0.062081616372, 0.109869398177, -0.171663910151, 0.144238114357, 0.120858296752, -0.107095837593, -0.167205378413, 0.120968542993, -0.028456142172, 0.159536927938, -0.012583953328, 0.130712762475, 0.147606939077, -0.110298126936, -0.157480135560, -0.115619979799, -0.014166153967, -0.074997037649, 0.163532018661, -0.138732537627, -0.010518804193, 0.088279753923, -0.073347240686, 0.142140284181, 0.082841783762, 0.124829329550, -0.054667599499, -0.016206197441, -0.019868176430, 0.091107077897, 0.097291551530, -0.114640377462, -0.117783389986, 0.082526870072, 0.102623835206, -0.056208211929, 0.094900563359, 0.136144101620, -0.156509891152, -0.167874246836, 0.103089317679, 0.156454727054, -0.103986434639, -0.029356807470, 0.151738822460, 0.101867541671, -0.002338734688, -0.139575332403, 0.096842780709, -0.033173859119, -0.138964176178, 0.065702825785, -0.105194233358, -0.127015426755, -0.104227431118, -0.024324104190, 0.011220485903, -0.138108611107, -0.053896035999, 0.106390595436, -0.102349251509, -0.145901635289, 0.004273906350, 0.100684404373, -0.083507418633, -0.021912097931, -0.048218458891, -0.063326269388, 0.002181352116, -0.034454129636, -0.158591210842, 0.021263673902, 0.106437385082, -0.023549553007, 0.084345713258, -0.017928406596, -0.141885265708, -0.112394168973, -0.021690271795, -0.165290385485, 0.170592620969, -0.037691622972, 0.105003505945, 0.146481052041, -0.032516352832, -0.050239294767, -0.131070524454, -0.149423882365, 0.096213169396, 0.100652098656, 0.047645632178, -0.134023055434, 0.118835315108, -0.100404784083, -0.035967651755, -0.008611680008, 0.137375771999, -0.098030924797, 0.033137638122, 0.059627581388, -0.063382752240, -0.132799029350, -0.136272370815, -0.097400844097, -0.083324804902, -0.055021222681, 0.168741762638, -0.169374361634, -0.148126795888, -0.023628821597, -0.104545414448, -0.169414907694, -0.048017296940, 0.146267518401, 0.091296665370, -0.041076295078, -0.058601427823, -0.142223507166, 0.154060631990, -0.113847270608, -0.098159499466, -0.010828443803, -0.021591775119, 0.052814014256, 0.071591518819, -0.126273185015, 0.032527647913, -0.082698352635, 0.117739729583, -0.158147439361, 0.107261061668, 0.163685664535, 0.062805093825, -0.121810488403, -0.090350233018, 0.050789296627, -0.080153465271, -0.153393179178, -0.093789435923, -0.097155019641, -0.021024465561, 0.023492531851, 0.150910168886, 0.100819624960, 0.067168928683, -0.139100998640, -0.114969655871, -0.160331115127, -0.022320087999, 0.047027606517, -0.043989319354, -0.023984042928, -0.086475171149, 0.101327933371, 0.151472702622, -0.156384438276, 0.105129510164, -0.104786187410, 0.115951649845, -0.033585406840, -0.112635694444, 0.082469210029, -0.023805620149, 0.164136052132, 0.108451090753, -0.002727534622, -0.166077360511, 0.028444787487, -0.055731773376, -0.139588728547, 0.152215197682, -0.025417862460, -0.134427666664, -0.101572878659, 0.009496898390, -0.163479551673, -0.127694264054, -0.003772988915, 0.063186831772, 0.031768128276, -0.089577056468, 0.152000665665, -0.095853649080, 0.093925267458, 0.133665338159, -0.000779130845, -0.158226758242, -0.102614000440, 0.044998720288, -0.129287436604, 0.088952898979, 0.151188477874, -0.191123396158, -0.085505865514, -0.054866414517, -0.073981150985, -0.092618972063, -0.073214106262, 0.098718255758, -0.134738743305, -0.147573277354, 0.150719776750, -0.024379255250, -0.126399487257, -0.129638463259, -0.078835047781, -0.118923284113, -0.060117691755, -0.029101377353, 0.089856147766, -0.059678282589, -0.075783908367, -0.114798977971, 0.115056872368, 0.051177211106, 0.180323287845, -0.000214620319, -0.129720494151, -0.083386845887, 0.057343155146, -0.141433894634, 0.003333884757, -0.067513190210, -0.180532559752, -0.190408945084, -0.099488519132, -0.009303715080, 0.038738101721, 0.084727354348, -0.003625777550, -0.172117039561, -0.167550697923, 0.154959663749, -0.116518326104, 0.110430195928, 0.068088479340, 0.049968231469, -0.059812184423, -0.026390777901, 0.134859561920, 0.063726097345, -0.008551368490, -0.001415919513, 0.094820611179, -0.099374011159, 0.107368230820, 0.026028223336, 0.037367288023, -0.142541587353, -0.093995228410, 0.073026463389, 0.078237399459, -0.144338563085, 0.171804606915, 0.007350542583, -0.052809055895, 0.142290726304, -0.140016019344, -0.019350677729, 0.194796070457, -0.027399033308, 0.004374022596, -0.141889944673, -0.145151987672, -0.170730605721, -0.091565474868, -0.125091239810, -0.008522886783, 0.060221794993, -0.028616439551, 0.076768375933, 0.059380531311, -0.089507803321, -0.009660025127, -0.115176171064, 0.072163537145, 0.020757749677, -0.083418145776, -0.128908827901, 0.027881262824, -0.105095505714, 0.169458746910, 0.186126440763, -0.007820105180, 0.089380502701, -0.018626747653, 0.060479942709, -0.098573431373, 0.098700568080, -0.014922199771, -0.049124456942, 0.119071625173, 0.012804972939, -0.118282392621, -0.102153621614, -0.041456744075, -0.030233150348, -0.115242324769, 0.024494718760, 0.127473667264, -0.104419782758, -0.091278553009, 0.072834774852, 0.048975594342, -0.023554420099, -0.078932173550, -0.006267065648, 0.115772649646, -0.053045932204, -0.130431801081, -0.034136999398, 0.026859454811, 0.147211372852, 0.019025387242, 0.159222528338, 0.104713931680, 0.030465841293, 0.139763683081, 0.081688642502, 0.086147695780, 0.152564197779, 0.116044871509, -0.059513207525, -0.100237742066, 0.034351974726, -0.068155884743, 0.117874622345, -0.155896559358, -0.056641664356, -0.146554514766, 0.033038012683, 0.147394910455, 0.079833708704, -0.106852963567, -0.017167795449, -0.102083809674, 0.151246607304, -0.128196820617, -0.059192970395, 0.166498303413, -0.158561646938, -0.049422331154, -0.097478292882, 0.149629265070, 0.067582122982, 0.137768715620, 0.048601340503, -0.071742683649, 0.156713902950, 0.159133568406, -0.092684976757, -0.148387208581, 0.069018118083, -0.166359335184, -0.081081934273, -0.036510810256, 0.108342222869, 0.048673152924, 0.048015587032, -0.022585967556, 0.131649360061, 0.083694353700, -0.121778801084, -0.032235238701, -0.023693803698, -0.171241343021, -0.112683936954, 0.039501443505, 0.140015572309, 0.154966369271, 0.133071050048, -0.150909811258, -0.150114163756, -0.001278639655, -0.033950034529, 0.024557203054, -0.023753330112, 0.118229523301, -0.033352047205, -0.044713560492, -0.109667882323, -0.066504277289, 0.105834998190, -0.114443883300, 0.005004192702, -0.043454371393, 0.023340869695, 0.070588611066, 0.102546475828, 0.021333182231, 0.005448040552, -0.064630649984, 0.146074622869, -0.164266839623, -0.095644593239, -0.096991308033, 0.152549222112, 0.006478855852, 0.127451345325, -0.127695947886, -0.075767770410, 0.104571968317, 0.045576311648, -0.053260643035, -0.133856520057, 0.128462150693, 0.008629612625, 0.025311946869, -0.089347481728, -0.156869441271, 0.083334013820, -0.110768154263, -0.123601652682, 0.168918177485, 0.061600804329, -0.143750414252, 0.067839697003, 0.133477225900, 0.110435955226, -0.034573387355, -0.083647638559, 0.014686880633, -0.007156510372, 0.122918017209, 0.075266055763, 0.029901430011, -0.034789826721, -0.025028090924, -0.151544779539, 0.077115505934, -0.084961175919, -0.129444003105, -0.147596970201, -0.106768682599, 0.156807929277, -0.145149737597, -0.115895740688, 0.000299041159, 0.123502232134, -0.012045544572, 0.054518368095, -0.061857234687, 0.000969153538, 0.123086854815, -0.007985164411, -0.146008327603, -0.031310215592, -0.129932254553, -0.052660651505, 0.127496510744, -0.101127952337, 0.086530357599, -0.061867386103, 0.002257506363, -0.080744281411, 0.086538508534, -0.012516507879, -0.131165996194, -0.015421559103, -0.029459599406, -0.063657432795, -0.154035374522, -0.083979196846, -0.118265733123, -0.091278724372, 0.089405365288, 0.058624457568, -0.173360645771, 0.141426026821, -0.109150476754, -0.143531233072, 0.164469927549, 0.126878261566, -0.026681268588, -0.112792342901, -0.138265311718, 0.135349094868, -0.006311413832, -0.089826539159, -0.139765396714, 0.091402769089, 0.003848969238, -0.137801557779, -0.103674903512, -0.174568027258, 0.014651460573, -0.069144755602, 0.169698968530, -0.170727625489, 0.047022022307, 0.162422135472, -0.006816695910, -0.094539515674, 0.104562357068, -0.020639793947, 0.021124627441, 0.110631443560, -0.033165708184, -0.039218027145, -0.143117696047, -0.064797461033, 0.080155752599, 0.004508859478, 0.162606284022, -0.038636829704, -0.014921233989, 0.050915200263, 0.006578678731, -0.148845255375, -0.045785594732, -0.076995611191, -0.128904327750, -0.026596827433, 0.119379028678, 0.078157223761, -0.045015450567, 0.069868646562, -0.149692252278, 0.077768296003, 0.180573582649, 0.106441058218, 0.079974643886, 0.069879926741, 0.150356665254, -0.073048338294, -0.139777258039, 0.120379664004, -0.044209834188, 0.152313336730, -0.094883173704, 0.174695461988, 0.000939720310, 0.128260031343, -0.108017332852, -0.173673152924, -0.182343944907, 0.106709070504, -0.080094911158, -0.008158488199, 0.075404681265, -0.063507705927, 0.038751218468, 0.169038578868, -0.056005593389, -0.102169409394, -0.144328713417, 0.145144537091, -0.012805249542, 0.104431465268, 0.147069633007, -0.095947615802, -0.021339874715, -0.198261305690, -0.043818201870, 0.135406836867, 0.035219654441, -0.087170876563, 0.078056782484, 0.060507904738, -0.054504893720, -0.110361680388, 0.023744201288, 0.043103311211, -0.022419072688, -0.153974428773, 0.177527636290, 0.013207924552, -0.097150646150, -0.027852933854, 0.057296000421, 0.098821066320, 0.069710299373, -0.091809369624, -0.003773516277, -0.080520957708, -0.165181383491, 0.121768005192, -0.107327915728, 0.077467083931, 0.060336120427, 0.121258214116, -0.092829406261, -0.082600079477, -0.166870072484, 0.027746083215, 0.004306297284, -0.055073656142, -0.099134795368, 0.161567285657, -0.031800854951, 0.124815814197, 0.019412597641, -0.160460710526, 0.048903241754, 0.156219184399, 0.098724164069, 0.083875127137, 0.072530545294, 0.058323405683, -0.074702210724, 0.020423866808, 0.007877510972, -0.104279279709, -0.039565224200, -0.105978496373, -0.050817739218, -0.053000342101, -0.073613524437, -0.046481974423, 0.151511907578, 0.087607726455, -0.177259564400, 0.105849638581, 0.120669230819, -0.031298805028, -0.064620591700, -0.129450261593, 0.141809880733, -0.121930241585, 0.018486043438, -0.036548342556, -0.048143174499, 0.074628882110, 0.178045287728, 0.154925808311, 0.024438472465, 0.078795745969, -0.074643395841, 0.152128532529, 0.140136688948, 0.095957569778, -0.026771677658, -0.008074256591, 0.131080389023, 0.017354100943, 0.066756486893, 0.005320882425, 0.088282577693, -0.050992142409, -0.181521311402, -0.012366318144, 0.047917857766, -0.043156106025, -0.123557500541, 0.090714283288, -0.117523938417, -0.159509420395, -0.154724583030, 0.094291284680, -0.027366342023, 0.152339264750, -0.141730248928, -0.090844132006, 0.107197038829, 0.030894918367, 0.077679350972, 0.020471442491, 0.032993521541, 0.134811162949, -0.011071381159, 0.197446331382, 0.066930897534, -0.023333037272, -0.089870259166, 0.183532446623, -0.076470978558, 0.027724426240, 0.171806037426, 0.042003769428, -0.131642371416, -0.067198112607, -0.149123311043, -0.224269732833, -0.139931052923, 0.069312006235, -0.009272716939, -0.089704521000, -0.147601261735, -0.046161487699, -0.080574728549, 0.162497475743, 0.183901637793, -0.136084362864, -0.058100286871, 0.157488152385, 0.029788704589, 0.092682428658, 0.089999139309, -0.041969794780, -0.085297636688, -0.152506574988, 0.127586647868, -0.032726552337, -0.063510097563, -0.146369829774, 0.001857754425, 0.053773667663, -0.043977249414, 0.003927976359, -0.092518046498, -0.038689877838, -0.011900985613, -0.086328573525, -0.096895329654, -0.092925451696, -0.015160726383, 0.100490935147, -0.044429063797, -0.018080925569, 0.113708786666, -0.033254824579, 0.085495419800, 0.017806936055, 0.155181735754, -0.170720711350, -0.072167240083, -0.163195326924, -0.008910417557, 0.166104391217, -0.041333485395, 0.018099237233, 0.151903033257, -0.070091150701, 0.082962118089, -0.054745506495, 0.183004662395, -0.078093640506, -0.147292703390, 0.077974215150, -0.109765924513, 0.001985681942, 0.118901692331, 0.072677001357, 0.170364648104, 0.042818568647, 0.097706325352, -0.011019683443, 0.150863349438, -0.196239799261, -0.066794231534, 0.161931216717, 0.059673182666, 0.129942834377, -0.115990497172, 0.032606136054, 0.087871581316, 0.056384749711, -0.120733328164, 0.151675209403, -0.104698047042, 0.055049601942, -0.115668892860, 0.106933891773, -0.045412458479, -0.172304347157, 0.138794347644, -0.071187831461, 0.088450692594, -0.058304693550, -0.099574618042, -0.093112021685, 0.097841016948, 0.147841349244, 0.160249829292, 0.061668001115, 0.056532371789, 0.192545473576, -0.144733339548, -0.125705510378, 0.017085984349, -0.107545815408, -0.051597084850, -0.012932933867, 0.062684066594, -0.050518251956, 0.007905786857, 0.000082034720, 0.146240457892, 0.016289371997, -0.010142612271, -0.143401622772, 0.010054987855, 0.085177354515, 0.114988125861, -0.095694713295, -0.006589042023, 0.138885289431, -0.132588550448, -0.205163121223, -0.152852058411, 0.107693858445, -0.059862107038, 0.010629454628, 0.049751359969, -0.099184110761, 0.030848752707, 0.123064897954, 0.167807832360, -0.161242961884, -0.150820791721, -0.115650579333, 0.086212813854, -0.070221066475, 0.035759050399, -0.142048448324, 0.034773871303, 0.005283775739, 0.078135758638, 0.058087702841, 0.030450396240, 0.144356414676, -0.036538742483, -0.065784230828, 0.089968197048, 0.038337770849, -0.104633852839, -0.145307198167, 0.009146809578, -0.170633271337, 0.073705077171, -0.123250722885, -0.039342533797, -0.011277019046, 0.054628007114, 0.020776161924, 0.109234809875, 0.101255826652, -0.016969088465, 0.152699410915, -0.081293158233, -0.050173625350, -0.084011428058, -0.047314595431, 0.118771150708, -0.016304325312, -0.127689436078, -0.169101268053, 0.048042662442, -0.053062252700, -0.083103060722, 0.023131437600, -0.016721205786, 0.130936458707, 0.101152755320, 0.001235391130, -0.129677876830, 0.079286202788, -0.027729582042, -0.142579212785, -0.085392668843, 0.055654264987, -0.109207324684, -0.039704818279, -0.098705507815, -0.028257045895, -0.037029620260, -0.115955241024, 0.061038386077, -0.054442994297, -0.155150949955, -0.068761520088, -0.086204431951, 0.134377062321, 0.016275145113, -0.148462578654, -0.095888122916, -0.122615389526, -0.034488126636, -0.016482695937, -0.106872372329, 0.094685077667, 0.128554657102, 0.022785464302, -0.136272966862, 0.080277517438, -0.080758713186, 0.096776738763, -0.062345579267, 0.023915020749, 0.103153608739, 0.026216786355, -0.080394998193, -0.104924343526, 0.135846465826, -0.093562707305, -0.109286971390, 0.017080005258, -0.153175294399, 0.157046481967, -0.096963621676, -0.068401150405, 0.008020432666, 0.089111052454, -0.112906314433, -0.122727155685, 0.009324163198, 0.100721023977, -0.015632033348, 0.012558163144, 0.137130364776, 0.113373652101, -0.082662835717, 0.135375663638, -0.101445168257, -0.011556082405, -0.008807288483, 0.096951358020, 0.097003892064, -0.010792709887, 0.058316089213, 0.121957205236, 0.142447784543, 0.090123638511, -0.164332926273, 0.066330239177, 0.083641089499, 0.076318964362, -0.035837452859, 0.133811235428, -0.148690223694, 0.003434031736, -0.112935334444, -0.012700185180, -0.043510019779, 0.188652545214, -0.154385864735, 0.136363849044, -0.103516764939, -0.102145396173, -0.059469275177, 0.057717390358, -0.151218101382, -0.101484246552, -0.134911596775, 0.109878472984, 0.058124151081, -0.118321292102, 0.060807574540, -0.000386824424, 0.043927524239, -0.066209360957, -0.070535793900, -0.005285817198, 0.043757095933, 0.046920452267, -0.068895436823, -0.094441227615, -0.199407845736, 0.076012246311, -0.113393880427, -0.088706314564, 0.086286455393, -0.023196838796, 0.000763592543, -0.160339385271, 0.144750222564, 0.045410275459, -0.127953842282, -0.153798714280, -0.172994047403, -0.117045819759, 0.162600561976, 0.138162121177, -0.144505232573, -0.154582157731, 0.104936890304, 0.010418755934, 0.095042645931, 0.171593949199, 0.070340119302, -0.093013994396, -0.056063856930, -0.060702260584, -0.036601282656, -0.047990571707, -0.065454460680, 0.023378208280, 0.021465906873, 0.148365899920, 0.001309584477, -0.165928781033, -0.022012855858, -0.129881680012, 0.041722446680, -0.064949475229, -0.092286609113, -0.050139296800, -0.146147727966, 0.015727022663, -0.010807178915, 0.065071210265, 0.141136988997, 0.153551742435, -0.173070877790, -0.022113593295, -0.103706568480, 0.154389873147, 0.136753380299, -0.052884358913, 0.087825544178, -0.134687677026, 0.080420926213, -0.006579363719, -0.185252472758, 0.088234931231, -0.000473437191, -0.134409382939, -0.124364741147, -0.103776641190, 0.172041893005, -0.113317169249, -0.003814876545, 0.015025758184, -0.054686628282, -0.119869798422, 0.107320711017, -0.137018248439, 0.125708475709, 0.158835694194, 0.020114354789, -0.124137639999, -0.160942479968, 0.187114775181, -0.009055992588, 0.093243964016, 0.139945000410, 0.032222386450, 0.076226323843, 0.117621384561, -0.111391156912, 0.173725783825, 0.041571054608, -0.013757633045, 0.048471707851, 0.034109681845, -0.151277318597, -0.024447867647, 0.088369503617, 0.014221630059, 0.093155033886, -0.122853405774, 0.098722212017, 0.053185507655, -0.097459137440, 0.036119878292, 0.135430961847, -0.042928967625, 0.139524444938, -0.091697894037, -0.163163915277, -0.142616122961, -0.120912611485, -0.138300791383, -0.055180795491, -0.081314355135, -0.076510511339, 0.058070067316, 0.010238795541, -0.055122729391, 0.032859377563, -0.102173998952, -0.102933481336, -0.128224715590, 0.093543104827, 0.092837899923, -0.124394491315, 0.108663663268, -0.103711023927, -0.127321556211, -0.084215879440, -0.076994195580, -0.093680590391, 0.150526851416, 0.169722199440, -0.005297513679, -0.239411160350, 0.106655515730, -0.012083692476, 0.046312212944, -0.089267022908, 0.176924824715, -0.024737393484, -0.182514548302, -0.048241980374, 0.197873026133, -0.124293148518, -0.114873550832, -0.071984171867, -0.131859317422, 0.097743123770, 0.109533905983, 0.035968650132, 0.114130526781, 0.113320030272, -0.014270380139, 0.100677616894, -0.061975009739, -0.081133753061, -0.043073579669, -0.008674117737, -0.127056866884, 0.159751027822, -0.074030019343, -0.048555683345, 0.011024150997, -0.047813732177, -0.044306371361, -0.165263071656, -0.080262094736, -0.171132639050, 0.086779646575, 0.025358811021, 0.090419553220, -0.007437081542, 0.081705875695, 0.064206652343, -0.089408606291, 0.146117165685, 0.052868161350, -0.084478653967, 0.132514655590, 0.081245712936, 0.041765652597, -0.134969994426, 0.180246666074, 0.073553420603, 0.100843057036, 0.074711248279, 0.013421149924, 0.184025883675, 0.125040069222, 0.146086975932, -0.067878544331, -0.155602484941, -0.100407809019, 0.120018765330, -0.092282466590, -0.014927270822, 0.047762099653, -0.121226772666, -0.144012302160, -0.034975916147, -0.065856948495, 0.097141437232, 0.004247500096, 0.000102622609, 0.110138773918, -0.154994964600, -0.156059414148, 0.081562459469, -0.121405079961, 0.191741123796, 0.101612813771, 0.014416022226, -0.024741172791, -0.157882064581, 0.038444742560, -0.032899331301, 0.175417289138, -0.025777060539, 0.056965112686, -0.118149995804, -0.159163013101, 0.050209462643, 0.095085799694, 0.117893338203, 0.129162624478, 0.011413214728, -0.111635871232, 0.056818202138, -0.041356526315, -0.065928459167, 0.109994493425, 0.169580280781, -0.045598454773, -0.066654801369, -0.074763752520, -0.052397169173, 0.062315590680, -0.016827614978, 0.042095053941, 0.047204818577, -0.080133073032, 0.163132831454, -0.054306402802, -0.125702530146, 0.147480860353, -0.132622882724, 0.025406189263, -0.134034961462, -0.160540595651, -0.169551774859, 0.060820784420, -0.046395737678, 0.102198526263, -0.037832692266, -0.153440326452, -0.009933534078, -0.045473817736, -0.113911189139, 0.051743265241, -0.065357618034, -0.161378726363, 0.057162638754, -0.176115617156, -0.040775492787, -0.111793808639, -0.037299230695, 0.050205502659, -0.147423774004, 0.127172231674, 0.014839418232, 0.153582543135, -0.107980228961, 0.002122786362, -0.045786622912, 0.003776011989, 0.164417788386, -0.090812139213, 0.117448292673, -0.132062122226, 0.076373212039, -0.040442384779, -0.061873324215, 0.107416220009, -0.129180073738, -0.008469804190, -0.078850142658, 0.060808129609, 0.093555122614, -0.016672786325, -0.021718572825, -0.046612676233, 0.059933684766, -0.048216238618, 0.107173524797, 0.055346012115, -0.022658152506, 0.068246066570, 0.164096444845, -0.105473279953, 0.018934296444, 0.041068345308, 0.132458597422, 0.145042344928, -0.122248075902, 0.146772906184, -0.126341775060, 0.168583318591, -0.059878148139, -0.063601292670, -0.064741134644, -0.047820162028, 0.019910683855, 0.023916805163, -0.044187530875, 0.118115134537, -0.098798789084, -0.075488746166, -0.070711128414, -0.013692613691, 0.118440516293, -0.094552233815, 0.092430137098, 0.172907635570, 0.101523987949, 0.107031345367, 0.160325989127, 0.161388263106, 0.065345577896, -0.077178701758, -0.051087271422, 0.146552294493, -0.025223299861, 0.076887510717, -0.029958795756, -0.062790833414, -0.010314623825, -0.112393744290, 0.051336716861, -0.173177197576, -0.134885475039, -0.147018179297, -0.141217470169, 0.013522138819, -0.135421678424, 0.064142033458, 0.016675231978, -0.049081932753, -0.147757753730, 0.101838991046, 0.039499297738, -0.195375367999, -0.160086721182, -0.122401699424, 0.067367345095, 0.099833622575, -0.127555891871, 0.138248473406, 0.091796778142, -0.127488613129, -0.003429617500, -0.142898902297, -0.028354702517, -0.028530349955, -0.061963092536, 0.176995918155, 0.114188909531, -0.069097518921, -0.021051745862, -0.074351854622, -0.067713543773, 0.112830795348, 0.081376187503, 0.127704218030, -0.165168255568, -0.114022232592, 0.150660768151, -0.123708121479, 0.126869738102, -0.141146972775, -0.004798217677, 0.048654686660, 0.111822061241, 0.188302159309, 0.050594158471, -0.164573878050, 0.008422302082, 0.074270963669, 0.096959523857, -0.036387976259, -0.016789129004, -0.139849662781, 0.107177019119, -0.140125721693, -0.116995349526, -0.033927053213, -0.096765533090, 0.135561823845, -0.161638438702, 0.204698711634, 0.051468487829, -0.040677517653, 0.042077247053, 0.038393449038, -0.016440695152, -0.140260934830, -0.139496758580, -0.165826544166, -0.088478028774, 0.003012553789, 0.040128953755, -0.135129451752, -0.123723812401, -0.001962297596, -0.093724623322, -0.034044634551, -0.077558726072, -0.212449565530, -0.079213492572, 0.040869936347, -0.028818061575, -0.044195417315, 0.151296481490, -0.044169105589, -0.154635250568, -0.091826163232, 0.010261945426, 0.041391476989, 0.083348080516, 0.182820603251, 0.151114881039, 0.023073248565, -0.012681376189, -0.003401989583, 0.102680489421, -0.125993460417, 0.055889610201, 0.137122169137, -0.120431780815, 0.031763643026, 0.139526709914, -0.032524283975, -0.147270262241, -0.173522636294, 0.104388184845, 0.154859185219, 0.074039369822, 0.020111124963, 0.006465450861, -0.119332909584, -0.100052572787, 0.098523780704, 0.043544042856, -0.049489542842, 0.159024581313, 0.130665168166, 0.166175782681, -0.120132461190, -0.080942690372, 0.025219989941, -0.006766024046, -0.048918712884, 0.008018354885, 0.019049948081, -0.087999738753, -0.008933885023, 0.055552348495, 0.056794147938, 0.074653729796, 0.139420151711, 0.147985130548, -0.008760247380, -0.108937978745, 0.060132741928, 0.018156593665, -0.137621641159, -0.120640881360, -0.150074154139, -0.068677067757, -0.064578302205, -0.065756604075, -0.061613935977, -0.189615771174, 0.107319921255, -0.172951340675, -0.139508947730, -0.066044874489, 0.030143231153, 0.010745632462, 0.060555867851, 0.047297101468, 0.013339917175, 0.100810565054, -0.061112105846, 0.062507443130, -0.020324094221, -0.112677969038, -0.024455875158, 0.019231321290, 0.014868407510, -0.144561931491, 0.150949925184, -0.076465196908, 0.070019401610, 0.010836897418, -0.042004920542, -0.089095696807, 0.069599382579, 0.072251252830, 0.091192059219, 0.013292676769, -0.081606574357, -0.171009480953, 0.073874451220, -0.042449153960, -0.114719942212, 0.076061218977, -0.035819474608, -0.004894281738, -0.135522916913, -0.106764242053, 0.059932444245, 0.078499287367, -0.161737099290, 0.160354241729, 0.011277097277, 0.057275839150, 0.081498980522, -0.048737704754, -0.156577572227, -0.088111266494, 0.174578770995, -0.182853817940, -0.107026435435, 0.083546049893, 0.030393254012, -0.128069251776, -0.140359416604, 0.061783336103, -0.069752946496, -0.021673968062, 0.129910603166, 0.063234895468, -0.145104020834, -0.066269874573, -0.002430242952, -0.053715966642, 0.040318671614, -0.033364709467, -0.022154914215, -0.008071800694, -0.085356570780, 0.032001361251, -0.078164935112, 0.184008866549, -0.001782885753, 0.175436347723, 0.050001595169, -0.083506256342, 0.161657601595, -0.128660440445, 0.112699225545, 0.000078401543, 0.025743126869, -0.137878745794, 0.221737086773, -0.114495590329, 0.053372722119, -0.087279044092, 0.113890327513, 0.014821637422, -0.144874542952, 0.097759306431, -0.116245701909, -0.101700589061, 0.005583079066, -0.139323949814, 0.083785682917, 0.124859765172, -0.125587150455, 0.166748583317, -0.081916630268, 0.023756891489, 0.121395967901, -0.074936270714, -0.124834336340, -0.153698548675, 0.050555832684, -0.041927538812, 0.155111894011, 0.094231218100, 0.004756038543, 0.012805140577, -0.080055743456, -0.059147972614, 0.096179917455, -0.043180886656, 0.093651831150, -0.141342446208, -0.065020784736, 0.083736822009, 0.121448822320, 0.175830423832, -0.028467692435, 0.033957608044, -0.071120046079, 0.052270002663, -0.119651593268, 0.098321221769, 0.054725348949, -0.122047498822, 0.056021001190, -0.060415435582, 0.160155251622, -0.165137603879, -0.137477323413, -0.163041785359, 0.015612909570, -0.146776109934, -0.036801770329, 0.015872679651, -0.005339906551, 0.121636323631, -0.059015844017, 0.129725098610, -0.074662990868, 0.146188884974, -0.161813080311, -0.015445814468, -0.100204832852, 0.063198298216, -0.079843401909, -0.107670396566, -0.126138567924, -0.018140252680, -0.107116609812, 0.001901698532, -0.059757523239, -0.144834235311, 0.060657799244, 0.011752056889, 0.063689731061, -0.153331220150, -0.117131717503, 0.163826167583, -0.002215948654, -0.037655532360, -0.004749338608, -0.157891556621, 0.095589160919, 0.106500193477, -0.094819694757, 0.143470972776, 0.159984514117, 0.067999064922, 0.008135526441, -0.109416477382, 0.000603682827, 0.147085875273, -0.092883765697, -0.170267209411, 0.066713929176, -0.138431653380, -0.157708331943, -0.065629340708, -0.010952659883, -0.063540384173, 0.133574470878, 0.010968770832, -0.014366582967, 0.084608577192, -0.092419557273, -0.080547899008, -0.052132900804, 0.008902828209, -0.127322256565, 0.136478886008, 0.029373103753, -0.184446170926, -0.008137780242, -0.066629968584, -0.079218029976, -0.049029406160, -0.156754121184, 0.144914388657, 0.167376443744, -0.008005752228, 0.077660672367, -0.159736797214, 0.143382728100, -0.027766352519, -0.106921009719, -0.106271713972, 0.076281711459, 0.119549229741, -0.098599232733, 0.082516908646, -0.038650352508, -0.047129515558, 0.168753027916, -0.165975064039, -0.003314688103, 0.014126612805, -0.076349526644, 0.010074702092, -0.035777013749, -0.044316012412, 0.191376760602, -0.090212680399, 0.122830666602, 0.051697373390, 0.034561604261, -0.058109641075, 0.144075065851, 0.151728644967, 0.136141806841, 0.047157716006, -0.116471983492, 0.128034919500, 0.041449997574, -0.075003758073, -0.083440162241, -0.182921171188, -0.013231243007, 0.134797275066, -0.038451839238, -0.131782740355, 0.058336518705, -0.115149997175, 0.150886729360, -0.091083511710, 0.112485460937, -0.100318036973, 0.021185414866, -0.171018630266, 0.022751357406, 0.027137408033, -0.022433057427, -0.020717430860, 0.133344128728, 0.125269934535, -0.058665115386, 0.020547321066, 0.020229129121, -0.143986329436, 0.100026555359, 0.117305867374, 0.151774808764, 0.147924825549, 0.050338406116, 0.038341972977, 0.165781483054, -0.008513431996, 0.172245681286, 0.111874729395, -0.102909177542, 0.037584811449, 0.129394412041, -0.082409806550, 0.118026264012, -0.166241899133, -0.022691670805, -0.018426278606, 0.151561781764, 0.077414475381, 0.057673450559, 0.010107149370, -0.005655450746, -0.005874757655, 0.130252808332, -0.143784299493, 0.074623659253, 0.080745525658, 0.067941866815, -0.095209784806, -0.050338074565, 0.135438054800, 0.124678261578, 0.115915425122, 0.141538396478, -0.167330473661, 0.168424814939, 0.072913885117, 0.059385292232, 0.005398951937, 0.073764331639, 0.111465029418, 0.096018485725, -0.147897377610, -0.007911380380, 0.030921999365, 0.098123170435, -0.166039481759, 0.090758435428, -0.042264316231, -0.008865224198, 0.024144114926, -0.089266628027, 0.157707020640, 0.048733249307, 0.098682232201, 0.099890701473, 0.173541679978, 0.058191079646, 0.113305509090, 0.148342311382, -0.131176516414, 0.067406006157, -0.095861427486, -0.143054738641, -0.029989231378, -0.032724250108, 0.085483178496, 0.163637384772, -0.148006573319, 0.162632688880, 0.044801905751, -0.137154832482, -0.134713560343, 0.134165942669, -0.069764554501, -0.106084570289, 0.135138526559, -0.150522142649, -0.009869487025, -0.033505298197, -0.019014364108, 0.057636503130, -0.126912236214, 0.071197345853, -0.008149442263, 0.043234162033, 0.068235330284, -0.053317271173, 0.042665787041, -0.009749338962, 0.125992178917, -0.038862656802, -0.005588241387, -0.032503008842, 0.061400149018, -0.063488356769, -0.112317010760, -0.132622271776, -0.026549732313, 0.072336234152, -0.109821505845, -0.127313718200, 0.105921901762, 0.069964855909, -0.005448135547, 0.130042970181, 0.152582734823, -0.068990245461, 0.008561131544, -0.082440569997, -0.072325430810, -0.007399966940, 0.137850061059, -0.103101611137, -0.110304385424, 0.072033062577, 0.185183748603, 0.141571834683, -0.055072825402, 0.097343213856, -0.076085425913, -0.123405046761, 0.163398697972, -0.009874788113, -0.018683414906, -0.131001010537, 0.034495670348, -0.125464931130, -0.136248186231, 0.091903835535, -0.088112525642, 0.085209719837, 0.026262670755, 0.096631109715, 0.025981515646, -0.101855225861, -0.092321783304, -0.013796469197, -0.128744378686, 0.035684354603, -0.052617285401, 0.041744902730, 0.056914761662, -0.170493349433, -0.053923953325, 0.153689444065, -0.075744152069, -0.039633091539, -0.049219779670, -0.012847946025, 0.124758139253, -0.129758208990, 0.079139225185, -0.145510032773, -0.039745710790, 0.099176116288, -0.070192046463, -0.145488008857, 0.154299899936, -0.062139503658, 0.159254118800, 0.038231909275, -0.132537439466, -0.062593244016, -0.155362755060, 0.011792758480, -0.145021572709, 0.063206233084, 0.129117667675, -0.108282327652, -0.005936656147, -0.154876306653, 0.089854896069, 0.139374554157, -0.015817468986, 0.061535775661, 0.001231601462, 0.031444869936, -0.135802820325, 0.144883528352, -0.150467768312, -0.137916654348, -0.052693296224, -0.064508862793, 0.069535106421, -0.168677568436, 0.077381305397, 0.119380511343, -0.031639531255, -0.055084455758, 0.108374111354, -0.149478867650, -0.062769860029, 0.104498848319, -0.122111476958, 0.130041986704, -0.046925731003, -0.098767973483, 0.145604491234, -0.102553986013, -0.157537728548, -0.156364485621, -0.044632431120, 0.150627240539, -0.018847949803, 0.001140088192, -0.185597911477, -0.028175268322, -0.025345193222, -0.110732831061, 0.174014165998, 0.019857283682, -0.123873278499, -0.058268181980, 0.121162511408, -0.068689219654, 0.102091528475, 0.061760149896, -0.091797761619, -0.180131107569, 0.009443632327, 0.082887522876, -0.109868079424, -0.007861463353, 0.114549554884, 0.097991578281, -0.022455966100, 0.041896291077, 0.093652606010, 0.130996242166, -0.168266236782, 0.159768059850, 0.160070404410, 0.157125860453, -0.099065370858, -0.053179610521, -0.111602813005, -0.143580123782, -0.157510131598, 0.016004633158, 0.014001516625, 0.116312444210, -0.140500113368, 0.030008457601, -0.011337568052, 0.060493502766, 0.144657060504, -0.128425672650, 0.028485191986, 0.139409095049, -0.068363837898, -0.028400141746, -0.049508053809, 0.060645163059, -0.058803372085, 0.066183581948, 0.002787139732, -0.132929369807, 0.073499649763, -0.051138885319, 0.062681637704, -0.043270185590, 0.105342119932, 0.048269618303, -0.167616203427, 0.011323543265, 0.080104157329, -0.001014665584, 0.035165671259, -0.064193412662, 0.160832822323, 0.105440817773, -0.089921496809, -0.117395155132, -0.131963759661, 0.117566734552, -0.131473079324, 0.057303041220, -0.054361741990, -0.167061671615, -0.076335139573, 0.037494763732, 0.081353403628, 0.107356458902, 0.112278901041, 0.061167068779, -0.084126837552, 0.116685070097, -0.040155377239, 0.022901801392, -0.126354068518, 0.040222305804, 0.143409565091, 0.037436503917, 0.154196187854, 0.034971248358, -0.078294359148, 0.094332590699, 0.056308697909, -0.175108149648, -0.129083275795, 0.139107152820, -0.094849944115, -0.075965635478, 0.122084118426, -0.048435296863, -0.143241718411, 0.065237060189, -0.106128409505, -0.121116198599, 0.106182336807, -0.075258128345, -0.053160753101, -0.188775733113, 0.107113130391, 0.060563821346, -0.165301769972, 0.220189556479, 0.121496856213, 0.118242174387, 0.022982059047, -0.003895592876, -0.172106921673, -0.117889828980, 0.103885747492, -0.225136712193, -0.084440909326, 0.144773021340, 0.152078643441, -0.042169731110, -0.118384495378, -0.029945805669, 0.032368432730, -0.151355490088, 0.161110386252, -0.056210353971, 0.177620023489, 0.093725569546, -0.005865460262, 0.066316083074, -0.108088843524, 0.190711855888, 0.133803918958, 0.084080085158, 0.232904180884, 0.022852115333, 0.119295887649, 0.114903286099, -0.040866930038, -0.058147292584, 0.166160225868, 0.008610450663, -0.168256267905, -0.086713321507, -0.051125623286, 0.097467981279, 0.155067101121, -0.087328419089, 0.036050502211, -0.152401402593, -0.099946856499, -0.074795693159, -0.037360560149, -0.056854192168, -0.004626032431, -0.029245119542, 0.183665618300, 0.099703930318, -0.048426367342, 0.074628494680, 0.034667845815, 0.051310487092, 0.037198897451, 0.049102798104, -0.160189911723, 0.154849171638, -0.026243966073, -0.159301504493, 0.105288013816, -0.111952081323, -0.150570362806, 0.000878701743, -0.128446653485, -0.107510134578, 0.002770936349, -0.145282730460, 0.058331418782, 0.040586460382, 0.060381498188, 0.065240547061, 0.162908777595, 0.056124534458, -0.140756905079, -0.025347501040, 0.179043114185, -0.097599945962, 0.027438174933, -0.028342751786, 0.016572959721, -0.053514037281, 0.005427784286, -0.167886316776, 0.098311297596, 0.044404182583, -0.146819829941, -0.158133611083, 0.110854998231, 0.185973718762, -0.075793914497, 0.048999316990, -0.037582971156, 0.053585335612, -0.100781753659, 0.074888870120, -0.114148825407, 0.078359901905, -0.011631218717, 0.178099572659, 0.118595190346, -0.015679696575, 0.017580717802, 0.152272358537, -0.136908933520, 0.009023001418, 0.156455218792, -0.057940147817, 0.048748821020, 0.034386273474, -0.133849292994, 0.105528213084, -0.021280946210, -0.132327824831, 0.168109044433, 0.070727095008, 0.060102362186, -0.105666242540, -0.149176031351, -0.138140574098, 0.053966380656, -0.182095929980, 0.039397895336, 0.128435418010, 0.003860126249, 0.092717319727, 0.061895348132, 0.053878702223, 0.158403962851, -0.059830646962, 0.059661895037, -0.191570952535, -0.031059920788, 0.109621524811, -0.024362152442, -0.073079116642, -0.144778668880, 0.077861323953, -0.020664948970, -0.156786575913, 0.104759782553, 0.158639043570, -0.087080225348, -0.073653459549, -0.179495856166, -0.012106898241, 0.117815449834, 0.074487522244, 0.181608110666, 0.038446918130, 0.003842155682, -0.115658134222, -0.092847436666, 0.060664270073, -0.005646609701, 0.003412484424, 0.013232504949, 0.020666724071, 0.034932319075, -0.105102472007, 0.182782098651, -0.074170134962, 0.133799582720, -0.061720065773, 0.112509585917, 0.026716826484, -0.143652498722, 0.067834824324, 0.195097684860, -0.170160472393, -0.161854803562, -0.075624130666, 0.128490641713, -0.025417214260, 0.036433503032, -0.088946707547, -0.139716982841, -0.038434207439, -0.202787935734, 0.017322763801, 0.085355788469, -0.011312225834, -0.059450071305, -0.111002169549, 0.154308438301, 0.035889528692, -0.122968532145, 0.020239530131, 0.166637584567, 0.070041507483, -0.089084021747, -0.106577664614, 0.011650528759, 0.038071718067, -0.128760486841, 0.093628928065, 0.121411457658, 0.156099200249, -0.111093036830, -0.093392491341, 0.015777999535, 0.189861997962, 0.079303279519, -0.107230201364, 0.027350718156, -0.107739023864, 0.060258347541, 0.068369746208, -0.108212530613, 0.110388882458, -0.168233543634, 0.073577962816, -0.010769842193, 0.010574218817, -0.117757253349, -0.159824028611, -0.017523074523, 0.024574110284, 0.009630312212, 0.164774149656, -0.151617974043, -0.011660524644, 0.141010612249, 0.042242076248, 0.165393263102, 0.112522527575, -0.002796635265, 0.085874393582, -0.153625667095, -0.073748558760, 0.057254873216, 0.031308252364, -0.112214036286, -0.003778126091, -0.101648457348, -0.049739353359, -0.050384216011, -0.016726214439, 0.133509337902, -0.074099250138, 0.038804192096, 0.033301066607, -0.035357423127, 0.145435333252, 0.032655708492, 0.055969201028, -0.075080163777, -0.094714216888, -0.004089766648, 0.148265987635, 0.055848900229, -0.066468507051, -0.084615364671, 0.134421154857, -0.176491618156, -0.167239338160, -0.066663190722, -0.077140934765, 0.147514194250, 0.042185578495, 0.032683826983, 0.121554866433, 0.016132660210, 0.183044642210, 0.160573452711, -0.026689169928, 0.107182271779, -0.093128211796, -0.097843468189, 0.189665734768, 0.108537919819, -0.130085989833, 0.112933523953, -0.046225845814, 0.132028177381, -0.050887506455, 0.040910180658, 0.142946630716, -0.078889153898, 0.147680938244, 0.176698446274, -0.071991555393, 0.005011812784, -0.133037343621, 0.040350697935, 0.089293971658, 0.007328943815, 0.123938634992, 0.106182985008, 0.119770437479, -0.140500664711, -0.026296056807, -0.027537109330, -0.094903521240, -0.142470762134, -0.100461579859, -0.072273060679, 0.133404493332, 0.177240848541, 0.061427872628, 0.144237294793, -0.008646267466, 0.028071224689, -0.006286912132, -0.019550800323, 0.070609763265, 0.024164766073, -0.130606621504, -0.184340462089, -0.048795387149, -0.076872318983, -0.021123843268, 0.054608549923, -0.040889307857, -0.161915391684, 0.115737311542, -0.168713748455, 0.130886599422, 0.128976672888, -0.004404937383, -0.115749523044, 0.097851388156, 0.140456959605, -0.161544635892, -0.008204040118, -0.030732061714, 0.138064041734, 0.032967593521, -0.136672571301, 0.126600593328, -0.169831067324, -0.044453054667, 0.008268392645, -0.146937206388, 0.163381844759, 0.100033454597, 0.062685310841, 0.011753816158, 0.147840172052, 0.150618195534, -0.099389731884, 0.131877198815, -0.115157730877, -0.147315964103, -0.081874586642, 0.076620385051, 0.174212634563, 0.077366866171, -0.035304479301, 0.076524265110, 0.102394841611, -0.010307068937, -0.032591171563, 0.083211526275, -0.026278845966, -0.011557633989, -0.094592064619, 0.007291420829, 0.020075051114, 0.187374442816, -0.090934753418, 0.154815450311, 0.126852646470, -0.149404734373, -0.122120402753, 0.099189087749, -0.155351132154, -0.138079106808, 0.080876432359, 0.000312521297, 0.014848029241, 0.020765241235, 0.160465806723, 0.030091283843, -0.195022985339, 0.126786842942, 0.157431304455, 0.040261201560, 0.144896671176, 0.172645539045, -0.127804949880, -0.014665612951, 0.150725811720, -0.169131860137, -0.155839174986, -0.114181876183, -0.015877412632, -0.109685346484, 0.038705404848, -0.046563919634, 0.103076845407, 0.132964745164, -0.215390101075, 0.147493854165, -0.050001293421, 0.146603196859, 0.108410269022, 0.044108971953, -0.169038459659, 0.036103345454, -0.169248163700, -0.119309112430, -0.111003652215, 0.060986526310, -0.128667980433, -0.053649038076, 0.149990126491, -0.006542258896, 0.155802801251, -0.009486870840, 0.171252489090, -0.163655772805, -0.161016672850, -0.018710644916, -0.080471411347, 0.108140148222, 0.137187764049, 0.079945661128, 0.034128889441, 0.034145139158, 0.046861626208, -0.011791042984, -0.014224587940, -0.143997564912, -0.191418930888, 0.024956624955, -0.090906985104, 0.004109487869, 0.059247601777, -0.078530579805, 0.082398049533, 0.102845862508, -0.173664525151, -0.120206251740, -0.150187417865, -0.159788176417, 0.150488331914, -0.067782767117, 0.084130622447, 0.018106991425, -0.019726525992, 0.150630876422, -0.128434553742, 0.061556469649, 0.099786385894, -0.062861070037, -0.007427658886, -0.022684151307, 0.067424952984, -0.139969915152, -0.127911299467, -0.164912551641, 0.126180037856, -0.120519004762, 0.135391011834, -0.060544971377, -0.136408850551, -0.071115724742, -0.132898166776, 0.164406925440, -0.129203513265, 0.070050142705, 0.007029335946, 0.039970189333, 0.131995141506, 0.018257353455, 0.056486655027, 0.028986871243, -0.113250307739, -0.039554350078, 0.144337728620, 0.038348942995, 0.134548261762, 0.104679688811, -0.086867362261, 0.022985350341, -0.072738081217, 0.087937116623, -0.113244637847, -0.111826747656, 0.004680982325, 0.010538312607, -0.097977086902, -0.104686990380, -0.111693650484, -0.089117087424, 0.021915718913, -0.119476594031, -0.127913892269, 0.137990012765, -0.040012411773, -0.104541227221, 0.010984896682, 0.070010870695, -0.102027393878, -0.058359518647, -0.124406553805, -0.027249854058, -0.100769028068, -0.125119432807, 0.011404152960, -0.084107175469, -0.002730273874, -0.055643957108, -0.048419557512, 0.125207245350, -0.043075531721, 0.103322640061, 0.026945363730, 0.160822004080, 0.043137658387, -0.016573430970, -0.064787425101, 0.110337018967, -0.139184147120, 0.077207446098, -0.130422905087, -0.050455611199, 0.114457689226, 0.023062976077, 0.017323747277, -0.168414399028, 0.107371479273, -0.091705247760, -0.120039001107, -0.000461693504, 0.162861377001, 0.009229107760, -0.107321232557, -0.176556169987, 0.080488942564, 0.069889441133, 0.086480945349, 0.086820654571, -0.100631326437, 0.073527589440, 0.110548086464, 0.108272843063, 0.060246296227, -0.134779542685, -0.094786353409, -0.159783139825, -0.005953097716, -0.038241907954, -0.177851647139, 0.104019619524, 0.087162502110, -0.160954773426, 0.044381678104, 0.035129260272, 0.043103046715, -0.014636022039, -0.072966419160, -0.032936826348, -0.059109002352, 0.098081946373, 0.115465626121, 0.023363728076, 0.041879903525, -0.111022457480, 0.140006914735, 0.112129546702, -0.012196945958, -0.113235309720, 0.029965737835, 0.105245754123, 0.145121499896, -0.177117154002, -0.113470159471, 0.156130865216, 0.037582751364, -0.118073977530, -0.050461821258, 0.116650439799, 0.209845468402, -0.008504992351, 0.082658827305, 0.083706147969, 0.168926775455, -0.029880465940, 0.170817553997, -0.072602480650, -0.059960272163, -0.050125125796, -0.171286329627, -0.053447678685, -0.179608151317, 0.177546501160, 0.025878489017, -0.042153082788, 0.078239887953, 0.120927684009, 0.029887668788, 0.071970619261, -0.201506957412, -0.011648576707, 0.169246137142, -0.178898796439, 0.068246647716, -0.035612076521, 0.051492609084, 0.157617032528, -0.154466643929, -0.174637854099, -0.122813344002, 0.000978018274, -0.100409455597, -0.071588821709, 0.167377114296, 0.072842270136, -0.061578460038, 0.078093223274, 0.067834958434, 0.031368095428, -0.085366018116, 0.140791073442, 0.214316412807, 0.076861307025, -0.068824574351, -0.157796889544, 0.087930276990, -0.052291147411, -0.131541907787, 0.028084065765, -0.029207488522, -0.055212270468, 0.156228840351, 0.033148072660, -0.098919510841, -0.125789970160, 0.067319847643, -0.106168307364, -0.104839719832, 0.089590132236, -0.013238403015, 0.027531096712, 0.039683241397, -0.126917824149, 0.075016811490, -0.175698563457, 0.141375839710, -0.033702783287, -0.009959293529, -0.039871051908, 0.102875150740, 0.137205466628, -0.168228298426, 0.058916870505, 0.178407490253, -0.150315716863, 0.121713757515, -0.016902955249, 0.039775010198, 0.167310252786, -0.124246843159, 0.044703863561, -0.126005649567, -0.093326479197, 0.023826951161, -0.023571342230, -0.082349613309, -0.123896479607, -0.014098717831, -0.125208169222, -0.111061617732, -0.167894139886, 0.152413502336, -0.131873980165, -0.061667993665, 0.154181048274, 0.130356475711, 0.112969711423, 0.032251916826, -0.135794252157, 0.164939776063, 0.161058053374, -0.095454052091, -0.157019376755, -0.124399408698, 0.104462355375, -0.177650779486, -0.177294433117, -0.093407586217, 0.111156977713, -0.076857842505, -0.088115200400, -0.041400872171, 0.135461464524, 0.097174927592, -0.051458090544, -0.022987036034, 0.067243978381, -0.000979857869, -0.091260544956, -0.049115143716, 0.141334041953, 0.061244353652, 0.000027414946, 0.083894841373, -0.150751173496, -0.161994099617, 0.028319692239, 0.098024651408, 0.057803142816, -0.118221789598, -0.144550561905, 0.068685442209, -0.026713622734, -0.155167654157, 0.104063726962, -0.141851931810, 0.012906230986, 0.085356891155, -0.021892515942, -0.053180206567, 0.000624578388, -0.005542912055, -0.026132997125, -0.089851699769, 0.000453248009, 0.103773452342, -0.138995394111, 0.123345218599, -0.105690911412, 0.004990609363, -0.073317728937, 0.069917328656, 0.027348462492, 0.133891984820, -0.104930438101, 0.047882515937, -0.065395645797, 0.149006605148, 0.044734567404, -0.107637390494, -0.101609893143, -0.083790563047, -0.053095750511, -0.052254989743, 0.015203695744, 0.057852406055, 0.014938288368, 0.033287163824, -0.161248028278, 0.021974280477, 0.121238946915, -0.034147042781, 0.117607966065, -0.040775381029, 0.077809020877, 0.125142782927, -0.094418883324, -0.166027665138, -0.021620268002, 0.168626740575, 0.026974264532, -0.050310399383, -0.062942132354, 0.155090808868, 0.044572144747, 0.024435007945, -0.085091680288, -0.126910597086, 0.038958083838, 0.029171928763, 0.054656494409, -0.159672811627, 0.141272664070, -0.112489201128, -0.108699202538, 0.030481467023, -0.154289364815, 0.050727277994, -0.100309796631, 0.131534621119, -0.144971981645, 0.019674975425, -0.171571329236, -0.045322608203, 0.081658072770, -0.049155112356, 0.006295272149, 0.182544738054, 0.016662931070, 0.071042589843, -0.073020458221, -0.053017273545, -0.016767105088, 0.108292758465, 0.031740967184, 0.085074804723, -0.095760017633, 0.037794265896, 0.067711733282, -0.134231165051, 0.035102628171, 0.092290438712, -0.169165298343, -0.139508306980, -0.098580375314, -0.153925403953, -0.003257367993, 0.041306614876, 0.183195799589, -0.096119366586, -0.021116184071, -0.124152645469, 0.135783478618, 0.116938345134, 0.153871357441, -0.086204454303, 0.064114235342, 0.113942936063, 0.016849124804, -0.113620936871, 0.020497314632, 0.149966567755, 0.082850508392, 0.144836544991, 0.132043674588, 0.016799703240, -0.129822358489, -0.138891324401, 0.068167142570, 0.097999721766, -0.099432677031, -0.108411110938, -0.099907472730, 0.100607939065, 0.005387667567, 0.101058155298, -0.110981985927, -0.039930611849, 0.176120132208, 0.159783810377, 0.134173393250, -0.092009112239, -0.043492596596, 0.147431492805, 0.145262077451, 0.101383276284, 0.116537138820, -0.137421533465, 0.127987831831, 0.049607869238, 0.027559658512, 0.133433431387, 0.090738058090, -0.171691462398, -0.013748058118, 0.041434600949, -0.146340593696, -0.155276969075, -0.085609540343, 0.081110216677, -0.012402461842, 0.025910710916, -0.027990765870, 0.178585410118, 0.081735566258, 0.036509033293, -0.173604473472, -0.035687606782, 0.098738171160, 0.110133871436, -0.057521034032, -0.095376364887, 0.032938141376, -0.110499255359, 0.143064260483, -0.076977871358, -0.006156429648, 0.103180631995, 0.108557678759, 0.137595087290, -0.044068608433, 0.105837553740, 0.086925595999, -0.087095595896, -0.026126351207, -0.094464756548, -0.162680283189, -0.112479731441, 0.045472960919, -0.072250716388, 0.032015722245, -0.128273084760, -0.131424754858, -0.100031167269, -0.005114537664, -0.028750803322, 0.126405268908, -0.137527853251, -0.004409156274, -0.000572945981, -0.086170248687, 0.120933853090, 0.136819571257, 0.002648253459, -0.135818794370, 0.120966061950, 0.014874357730, -0.011384449899, 0.135415479541, -0.016344835982, 0.008434462361, 0.147091135383, -0.045885901898, -0.038459576666, -0.041258919984, 0.130610719323, 0.083801530302, 0.110884435475, -0.150219172239, -0.151029676199, -0.149687513709, 0.122312970459, -0.112076111138, -0.043849110603, 0.004006607924, 0.019597064704, 0.106343865395, 0.157882720232, -0.022696729749, 0.146031647921, -0.049250315875, -0.070633627474, 0.111835412681, 0.022387871519, -0.109719850123, 0.109057955444, 0.131416052580, 0.122818164527, -0.166095510125, -0.040271110833, -0.132194831967, -0.006024685688, -0.123258359730, -0.054644357413, -0.035096153617, 0.002185109304, 0.060805559158, 0.123981453478, 0.029625980183, -0.170362293720, -0.134441733360, 0.068045392632, -0.140447393060, -0.049883846194, -0.140275806189, -0.163653105497, -0.024482421577, -0.110745042562, -0.164082273841, -0.135801777244, 0.124117426574, -0.013020568527, 0.065921142697, 0.095383070409, 0.079806812108, -0.036813493818, -0.123164869845, -0.174260795116, -0.085882440209, -0.125671967864, -0.048732567579, -0.113412365317, -0.019047928974, -0.020547682419, 0.145026162267, -0.101648122072, -0.139429718256, 0.061704412103, -0.027661411092, 0.095399014652, -0.161691129208, 0.143552765250, 0.115522347391, -0.046526253223, 0.115811131895, 0.024906149134, -0.018944678828, -0.017830353230, -0.038756597787, -0.162089228630, 0.024742826819, 0.000414862006, -0.039451386780, -0.159613564610, 0.015266728587, -0.121248930693, -0.025859976187, -0.121669016778, -0.006124285515, 0.053859945387, -0.135004997253, -0.101103857160, -0.069582559168, 0.005431041121, -0.150534734130, 0.002259369707, -0.088442884386, -0.147620782256, 0.048612155020, 0.044531118125, 0.053286593407, 0.028763506562, 0.157280519605, 0.144536048174, -0.072552904487, -0.081858292222, 0.077041134238, 0.055379461497, 0.157898426056, 0.100935190916, -0.012697806582, 0.046672075987, -0.055795919150, -0.116604812443, -0.022670811042, -0.146478638053, 0.165781557560, -0.085490353405, -0.149130359292, 0.129342198372, -0.019915709272, -0.099576264620, -0.142318338156, -0.127446189523, -0.122968226671, -0.134132236242, 0.048511840403, 0.104855306447, -0.079990290105, -0.100396804512, 0.008519686759, -0.135827407241, 0.066262431443, -0.098799467087, -0.062289286405, -0.020029263571, -0.103223197162, -0.100771494210, -0.027153979987, 0.022796485573, -0.152605161071, 0.019141495228, -0.050060424954, -0.050900291651, -0.123778857291, -0.158515095711, 0.000344635686, -0.047115124762, 0.061724130064, 0.089556753635, -0.137020722032, -0.050176963210, 0.004089700058, -0.082949675620, 0.045285627246, 0.161481201649, 0.071362771094, -0.077306762338, -0.001780263847, -0.069182723761, -0.048193003982, 0.031231569126, -0.091880619526, -0.085058368742, -0.149843946099, -0.036337058991, -0.066579684615, -0.064339078963, 0.095936529338, 0.090154908597, 0.165374770761, -0.153849691153, 0.013657792471, 0.030207492411, 0.171224579215, 0.031060321257, -0.041311528534, -0.004698801320, -0.000656149932, 0.069814912975, 0.051339074969, -0.113252997398, -0.023080060259, 0.056802127510, 0.072523079813, 0.012916862965, 0.088916823268, -0.123950384557, -0.135195493698, -0.109710022807, 0.063817225397, -0.037119410932, 0.177045628428, -0.117546588182, 0.082082673907, -0.013356643729, 0.049311630428, -0.039928410202, -0.040383227170, 0.157369405031, -0.111853241920, 0.124328628182, 0.079023443162, -0.105654947460, -0.010711440817, 0.159553855658, 0.039527047426, -0.113327763975, -0.009799038060, 0.119895160198, 0.013147968799, -0.063704766333, -0.155392721295, -0.134400010109, -0.152360677719, -0.030340757221, 0.105828180909, -0.041152160615, -0.092773199081, 0.056336633861, 0.162848666310, 0.175936162472, -0.024370212108, 0.105081953108, 0.032880891114, -0.021844696254, -0.041052129120, -0.016500512138, -0.090457081795, -0.036787532270, 0.123739458621, -0.151060983539, -0.131904661655, -0.027664622292, -0.043221347034, -0.157239556313, 0.110448986292, 0.034826450050, 0.059405818582, 0.074586801231, -0.103766322136, -0.025684081018, -0.067919619381, 0.126648887992, 0.127371370792, 0.124114602804, 0.008319266140, 0.057199504226, 0.087818548083, -0.015178194270, -0.085765443742, -0.109105080366, 0.105617575347, 0.102842114866, 0.170594826341, 0.076443620026, 0.150568813086, -0.069479860365, 0.121066600084, -0.089518181980, -0.001228026580, -0.054178919643, 0.033820286393, 0.082566797733, 0.101767040789, -0.174677684903, 0.104609690607, -0.041822277009, -0.057902738452, -0.046817004681, 0.119750678539, -0.196680814028, -0.184029877186, -0.019346037880, 0.031915310770, -0.018331581727, 0.134216293693, 0.079640850425, 0.047881338745, 0.046607382596, -0.093685403466, 0.082898125052, -0.071240149438, 0.099947370589, 0.032490298152, -0.018867777660, -0.173736900091, 0.142855837941, -0.010172629729, 0.207167223096, -0.159268394113, 0.072656363249, -0.080765202641, 0.184252247214, -0.099924817681, 