//Numpy array shape (84, 10)
//Min -0.323668420315
//Max 0.321679711342
//Number of zeros 0

weight_default_t w7[840] = {0.090173490345, 0.046930771321, -0.248829603195, -0.221419379115, 0.053675137460, 0.234963387251, -0.076372839510, -0.269020855427, 0.194764629006, 0.012878593989, 0.220649614930, -0.004041879904, 0.012272933498, 0.094420619309, -0.023518366739, 0.218406721950, -0.210917264223, 0.086028911173, -0.109058804810, 0.016129588708, 0.223432853818, 0.099129505455, 0.075781852007, 0.132841914892, -0.164183303714, 0.157325655222, 0.169707536697, -0.032755404711, -0.028663011268, 0.203513368964, 0.079697318375, -0.214484304190, -0.010044570081, -0.020872354507, -0.262228727341, 0.232872098684, 0.231189817190, -0.188015252352, 0.037100732327, -0.164007604122, 0.244300007820, 0.100594751537, 0.091169781983, 0.172105208039, -0.127344876528, -0.032697897404, 0.002653401578, 0.044875163585, 0.130376130342, -0.200567558408, -0.097678378224, -0.037252482027, -0.041101489216, -0.201397120953, -0.063434928656, -0.258128136396, 0.095072977245, 0.024455562234, -0.224667727947, -0.053006198257, 0.203169181943, -0.147379368544, 0.109856404364, 0.249704271555, -0.172957703471, -0.067336440086, -0.180660814047, 0.212446942925, 0.167623817921, -0.060466486961, -0.083010748029, 0.095767050982, 0.078249633312, -0.051024820656, 0.120023705065, -0.162850901484, -0.042450364679, 0.050933822989, 0.157649636269, 0.124759212136, 0.069305978715, -0.161273822188, 0.020932070911, -0.223189666867, -0.235339075327, -0.094578854740, 0.173180058599, 0.010848617181, -0.122375607491, -0.221997991204, -0.206237852573, -0.196335583925, 0.145150184631, 0.122573114932, 0.157308802009, 0.219008520246, -0.121751718223, 0.131162673235, 0.012087161653, -0.032808057964, -0.052170921117, 0.102006092668, -0.212333053350, 0.128431230783, 0.177196562290, -0.182425737381, -0.083901807666, -0.210217937827, -0.032299980521, 0.294709473848, 0.085138782859, 0.189470112324, 0.287524700165, 0.231029182673, -0.100824639201, -0.013007916510, -0.181492060423, 0.238849639893, -0.146223530173, 0.033228132874, -0.169392019510, -0.186247676611, -0.217541724443, -0.010192408226, -0.212571173906, 0.128222942352, 0.062117341906, -0.159127756953, 0.220082998276, 0.077387146652, 0.071479782462, 0.049522873014, 0.037301264703, -0.039961691946, -0.226457938552, 0.106376998127, 0.251348227262, 0.084529846907, 0.164655461907, -0.119986861944, 0.279389321804, 0.084832623601, -0.186536371708, -0.043641041964, 0.215427905321, 0.138695597649, 0.161571711302, -0.044636391103, 0.158065542579, 0.208803251386, -0.071784347296, -0.146333456039, 0.028969610110, 0.214941546321, 0.103034727275, -0.112130418420, -0.054115835577, 0.104910403490, 0.154535055161, -0.170777320862, -0.188085690141, 0.245222494006, -0.029770903289, 0.108241900802, 0.215602159500, -0.018922183663, -0.241976276040, -0.142287388444, -0.058309774846, -0.098887905478, -0.049283415079, -0.145932286978, 0.039798676968, -0.059933606535, 0.125504791737, -0.203645154834, -0.114818535745, -0.159937649965, 0.026420829818, -0.225025758147, -0.207552477717, -0.044149577618, 0.280979752541, -0.063921399415, -0.067117795348, -0.058650456369, 0.177594766021, -0.120194345713, 0.196820944548, -0.153789684176, -0.190508127213, 0.266080051661, 0.039614863694, 0.219996318221, 0.215748816729, 0.034162905067, 0.074468977749, -0.012327086180, 0.101624011993, -0.128562837839, -0.179012343287, 0.208006292582, -0.081718586385, 0.106531538069, 0.141093462706, -0.122885771096, 0.004879327491, -0.094229422510, 0.169893592596, -0.238222807646, -0.186935350299, -0.055311385542, -0.177016630769, 0.164099618793, 0.091527804732, -0.134197741747, -0.065996989608, -0.212730169296, -0.103643819690, 0.012382819317, -0.226555883884, 0.185374259949, -0.232436969876, 0.106949761510, -0.005904108286, -0.247815668583, 0.005580774974, 0.195580944419, 0.022253483534, 0.016629889607, -0.184851348400, 0.040428072214, -0.106131471694, -0.160584047437, -0.174489170313, 0.061049971730, -0.124350897968, -0.222293451428, -0.021448131651, -0.236336275935, -0.136784315109, -0.243987932801, -0.010253285058, -0.203765824437, 0.188289895654, 0.069147281349, 0.139516204596, -0.064849458635, -0.058277841657, 0.045167714357, 0.170106440783, 0.016165044159, -0.107660904527, 0.117005221546, -0.161342263222, -0.137746065855, 0.058489516377, 0.163537025452, -0.035617023706, 0.227184951305, 0.116443090141, -0.048500750214, 0.068029783666, -0.088967069983, 0.033175203949, -0.130650743842, -0.085184499621, 0.088510565460, -0.023285467178, 0.213649481535, -0.120136097074, 0.108321115375, 0.105453774333, -0.087305337191, 0.185418739915, -0.239878728986, 0.232986837626, 0.111757375300, 0.006716926116, 0.105331800878, 0.206921309233, 0.255533516407, 0.197440415621, 0.036033559591, -0.137573361397, -0.179708123207, 0.073022387922, 0.006020836998, -0.095449164510, 0.004385033622, -0.170246139169, -0.064768172801, 0.074969328940, 0.113367147744, 0.075063191354, -0.010063746944, 0.188707113266, -0.218130052090, -0.023210586980, -0.122647725046, -0.048656459898, -0.248306021094, -0.205813124776, 0.169528797269, 0.139865756035, 0.061998873949, 0.041510540992, 0.036416657269, 0.041277803481, -0.068596489727, -0.085584536195, -0.051705945283, 0.176342293620, 0.144278660417, -0.245940059423, -0.052968528122, -0.068447336555, 0.166686534882, -0.229752719402, 0.024825755507, 0.205677345395, 0.243253454566, -0.207877993584, -0.123990342021, 0.291817456484, -0.095990240574, 0.093091413379, 0.189488604665, 0.188869714737, 0.258735895157, 0.130423322320, -0.158067315817, 0.181968480349, -0.010548810475, -0.036981333047, -0.160478919744, -0.278501987457, -0.211195886135, -0.051061518490, -0.144495576620, 0.049781590700, -0.186226055026, -0.175767421722, -0.226445838809, -0.218742191792, 0.136018723249, -0.154392808676, 0.230049416423, -0.218148827553, 0.001460727537, -0.157372683287, -0.038106419146, 0.149052351713, 0.166702941060, -0.125370770693, -0.160431057215, 0.225496605039, -0.100038163364, 0.057988937944, -0.273281455040, -0.001883468125, 0.215170249343, 0.213216602802, -0.038097210228, -0.195724591613, -0.199855789542, 0.017723036930, -0.153365343809, 0.057315107435, -0.227053850889, 0.185225799680, -0.236077830195, 0.151598036289, -0.141714036465, -0.072196975350, 0.126808211207, 0.209954336286, 0.105751253664, 0.097548224032, -0.040561255068, 0.081862241030, -0.143627583981, -0.226201698184, -0.163041770458, 0.019826123491, -0.164610862732, -0.178463965654, -0.242167115211, -0.094316817820, 0.236308485270, 0.035661317408, 0.081433691084, 0.072667412460, -0.149557352066, -0.249179437757, -0.196301341057, -0.233576595783, 0.172675907612, 0.003713598475, 0.198694318533, 0.200095042586, 0.084057316184, -0.273149460554, 0.044547680765, 0.066896200180, -0.253196895123, 0.167072921991, -0.156940251589, -0.245309174061, -0.133568957448, 0.110132083297, -0.007538874168, 0.175951063633, 0.228337749839, 0.030015362427, -0.160779491067, -0.173118159175, -0.161963745952, -0.156520128250, 0.082927182317, 0.244565770030, 0.100256316364, 0.211111441255, -0.050611652434, 0.233487442136, -0.134694010019, -0.160009875894, -0.202712506056, -0.059379596263, 0.129303738475, -0.227296814322, -0.066665574908, -0.057376071811, 0.120512440801, 0.220389351249, -0.042790852487, 0.131252542138, -0.131058856845, 0.051554001868, 0.057795371860, 0.249976590276, -0.249286204576, -0.013064242899, -0.166931882501, -0.233976870775, 0.186530753970, 0.189155921340, -0.018665030599, -0.088669754565, 0.241585493088, -0.083722934127, 0.051056750119, -0.065046228468, 0.213240385056, -0.283829599619, -0.189665287733, -0.165548413992, 0.147875726223, 0.120099209249, -0.158248528838, -0.233108744025, -0.186609640718, -0.018984759226, -0.249665260315, 0.127301841974, -0.044225189835, 0.126748681068, 0.270643949509, -0.151626721025, -0.218653485179, -0.095466785133, 0.083910085261, -0.106929183006, 0.059022441506, 0.051506817341, -0.011411099695, -0.181009903550, -0.146266087890, 0.091761745512, 0.116880871356, 0.160065501928, -0.073523893952, -0.163807094097, 0.236222758889, -0.159523159266, -0.076292470098, 0.044832039624, -0.185682848096, -0.028000015765, 0.041745916009, -0.070105642080, 0.083633005619, -0.141467541456, 0.123643584549, -0.038666967303, -0.183969393373, 0.220698490739, 0.121418207884, 0.022121269256, 0.229615300894, -0.098548710346, -0.191701650620, -0.004067953676, 0.151246279478, -0.201130464673, -0.181372344494, -0.060321535915, 0.104998372495, 0.091244474053, -0.228686496615, 0.227215558290, 0.116532124579, 0.170288085938, -0.030214028433, -0.213804125786, -0.251772165298, 0.057417094707, 0.147966697812, 0.000273153419, -0.252153635025, 0.276089578867, -0.022827764973, 0.198970273137, -0.156476840377, 0.193169727921, 0.147847399116, 0.008365220390, 0.088156387210, 0.022776955739, -0.228679746389, -0.042500637472, -0.007607512642, -0.051152363420, -0.122373111546, 0.179046645761, 0.191746786237, 0.192305952311, 0.241685405374, -0.129032075405, -0.018640235066, -0.023687612265, -0.231264054775, -0.198145583272, -0.132451623678, 0.189885497093, 0.129682868719, 0.236149281263, -0.176538422704, -0.217776820064, 0.152320414782, 0.011309685186, 0.023829912767, 0.265294313431, -0.155596688390, 0.220298588276, -0.069763071835, 0.061336066574, -0.025387400761, -0.182686090469, 0.233107373118, 0.083837188780, 0.060653615743, -0.174250468612, 0.204797193408, 0.174729943275, 0.229607373476, -0.111851118505, 0.090079277754, -0.059889517725, 0.165824145079, 0.170945569873, -0.143192037940, 0.238495498896, -0.081903949380, -0.270627707243, 0.102879457176, 0.181050598621, 0.137528553605, 0.229208454490, -0.013921577483, 0.007383344229, -0.041397750378, -0.206734195352, 0.009386814199, 0.207419395447, 0.263676792383, 0.093910984695, -0.122524060309, 0.074194997549, -0.018964143470, -0.100526951253, 0.146858155727, 0.198045223951, -0.119948282838, 0.072715163231, -0.185655623674, -0.037016656250, 0.300649732351, -0.016382906586, 0.061585314572, 0.029700834304, 0.269565045834, 0.047571532428, 0.062957912683, -0.132840827107, -0.072399653494, 0.217395216227, -0.218275547028, -0.160861939192, -0.243425041437, -0.152892991900, 0.210908100009, 0.189503833652, -0.172826081514, 0.015724811703, 0.231306120753, 0.087326690555, 0.094702295959, -0.134914427996, -0.018327493221, -0.068983860314, 0.205022469163, -0.152433544397, -0.017787728459, -0.244724139571, 0.238380104303, 0.038767065853, -0.131642609835, -0.058285567909, 0.244922265410, -0.090037226677, 0.005728052463, 0.155594006181, 0.001701896661, 0.007262935862, -0.115555979311, 0.012695152313, 0.124120667577, -0.163432642817, 0.203370764852, 0.190235480666, 0.113902248442, 0.065746322274, -0.085799016058, 0.034126389772, -0.116209656000, 0.176247268915, -0.077503077686, 0.161137834191, 0.212147668004, -0.097937189043, -0.280199080706, 0.086067162454, 0.210604891181, -0.114500343800, 0.250187128782, 0.119960702956, 0.016663730145, -0.072847582400, 0.252923220396, 0.034140460193, 0.206573545933, -0.139430508018, 0.107133410871, 0.182277515531, -0.208782568574, -0.029274934903, -0.055895205587, -0.293497502804, 0.150225788355, 0.094510279596, -0.242053478956, 0.133760273457, -0.110543332994, 0.085453376174, -0.245927497745, 0.128319442272, -0.257860511541, -0.181329846382, -0.073624834418, -0.044600553811, -0.096699476242, -0.164658844471, 0.155580610037, 0.062225900590, 0.191532909870, 0.206598564982, 0.321679711342, 0.008311442100, -0.180558577180, -0.205394044518, -0.124445363879, -0.189929082990, 0.153418302536, -0.205641612411, 0.261956453323, 0.136883288622, 0.010074956343, 0.018090181053, -0.134676665068, -0.269270181656, 0.102773182094, 0.057316303253, 0.218800112605, -0.161699131131, -0.133568987250, -0.102859914303, -0.059166442603, 0.269579529762, 0.203142613173, 0.097686842084, -0.025694910437, -0.185679048300, 0.183679774404, -0.154201805592, 0.221057772636, -0.017270289361, 0.162948220968, 0.083846099675, 0.220982238650, -0.253509640694, -0.039075773209, 0.046210143715, 0.071398615837, 0.073181286454, 0.041181948036, -0.121821738780, -0.075548611581, 0.168959587812, -0.060046266764, 0.188275247812, -0.066559322178, 0.169933363795, 0.098685003817, 0.059560988098, -0.008840781637, -0.232190579176, 0.184506475925, -0.158278390765, -0.000205341377, -0.203108653426, 0.060221817344, 0.131593778729, -0.165086224675, 0.028951624408, 0.244637936354, -0.245798990130, -0.227075174451, 0.209923624992, 0.016232728958, -0.095942981541, 0.098338246346, -0.225696057081, 0.006166469771, 0.173055991530, -0.052749570459, 0.127378955483, -0.027802880853, -0.183526098728, -0.188716933131, -0.149255812168, -0.237664982677, -0.098946541548, -0.185126438737, -0.091865405440, -0.056753717363, 0.013910992071, -0.040926177055, 0.235807463527, -0.178532004356, -0.156458407640, -0.238673463464, 0.146190196276, -0.203544780612, -0.066932894289, -0.077931895852, -0.207422241569, 0.069031506777, -0.070392444730, 0.226456344128, 0.037579722703, 0.175193935633, -0.205077826977, 0.110414311290, 0.242883369327, 0.145772486925, -0.039902038872, 0.288747340441, -0.138518840075, 0.152551770210, 0.207668989897, 0.140747696161, -0.116663679481, 0.070793062449, -0.203069657087, -0.187147915363, 0.201602816582, -0.195585116744, 0.029509924352, 0.199624553323, 0.217899277806, -0.073286615312, 0.113820731640, -0.219039440155, 0.248482614756, 0.026921002194, 0.019351657480, -0.232623621821, -0.218474179506, 0.060092385858, 0.104162380099, 0.051889810711, 0.050268910825, 0.240941509604, 0.055202037096, 0.066630356014, -0.272039711475, 0.139730304480, 0.164861351252, -0.241790339351, -0.024628719315, -0.323668420315, -0.162329152226, -0.121059074998, 0.066998347640, -0.169132798910, -0.038352910429, -0.175851851702, 0.218820482492, -0.148196995258, 0.113083831966, 0.306580185890, 0.053546927869, 0.074723325670, 0.112778611481, 0.003479232546, -0.220061272383, 0.119194753468, -0.062636844814, -0.148887947202};
